{"learner":{"attributes":{},"gradient_booster":{"model":{"gbtree_model_param":{"num_trees":"50","size_leaf_vector":"0"},"tree_info":[0,0,0,0,0,0,0,0,0,0,0,0,0,0,0,0,0,0,0,0,0,0,0,0,0,0,0,0,0,0,0,0,0,0,0,0,0,0,0,0,0,0,0,0,0,0,0,0,0,0],"trees":[{"base_weights":[-6.030742E-3,8.2328606E-1,-8.27455E-1,1.3855332E0,4.5378974E-1,-3.4983498E-1,-1.2808219E0,1.1957169E0,1.6975124E0,2.64895E-1,7.0300967E-1,-1.250859E-1,-5.22848E-1,-1.104549E0,-1.7165669E0,1.007215E0,1.3225807E0,1.6024464E0,1.8535211E0,4.1472867E-1,1.4559387E-1,7.1551234E-1,-6.666667E-1,-9.859155E-2,-1.0769231E0,-4.903955E-1,-1E0,-1.115586E0,7.4074075E-2,-1.722334E0,-6.666667E-1,1.5384616E0,9.3376416E-1,1.3360488E0,-0E0,1.6149068E0,5.714286E-1,9E-1,3.242009E-1,4.6645367E-1,4.4176705E-2,7.429934E-1,5.4054055E-2,6.635071E-2,-2.300885E-1,-0E0,-1.3548387E0,-5.0256413E-1,7.368421E-1,-1.3684211E0,-2.7272728E-1,-1.0152566E0,-1.2497607E0,1.25E0,-1.2E0,1.761194E0,1.3333334E-1,9.8477155E-1,-1.25E-1,1.3491247E0,1.3333334E-1,6.666667E-1,1.6226416E0,6.896552E-2,1.0518519E0,-1.724138E-2,4.4444445E-1,2.511628E-1,9.019608E-1,-1.0526316E-1,3.402985E-1,8.5201794E-1,6.159696E-1,-8.5714287E-1,5.6E-1,-6.837607E-2,4.3786982E-1,-3.0864197E-1,1.2244898E-1,-3.6756757E-1,-5.986261E-1,-6.666667E-1,-1.6226416E0,-9.5652175E-1,4E-1,-8.6567163E-1,-1.1650212E0,-1.2586873E0,-1.5384616E-1,7.692308E-1,1.862069E0,1.0051458E0,-3.3333334E-1,-8E-1,7.5E-1,1.3625E0,1.3333334E-1,1.6340289E0,8.235294E-1,8.235294E-1,-7.5E-1,1.1181102E0,-0E0,9.3333334E-1,-3.409091E-1,4.9265906E-1,-3.5897437E-1,1.0526316E-1,1.1724138E0,3.030303E-1,1.1232877E0,-1.3782541E-1,1.25E0,2.6415095E-1,1.4285715E0,6.9655174E-1,1.1265823E0,6.4607465E-1,-1E0,-0E0,-1.2E0,9E-1,-5.714286E-1,1.25E0,-1.14035085E-1,7.407407E-1,-9.2307694E-2,1.7283951E-1,-3.7478107E-1,-9.4736844E-1,2.7272728E-1,-2.8200972E-1,-7.7165353E-1,-6.149254E-1,4.4444445E-1,-1.1578947E0,3.3333334E-1,-7.5E-1,-1.804878E0,-2.857143E-1,-1.3846154E0,8.5714287E-1,-1.3333334E-1,4E-1,-8.8705236E-1,-1.1840228E0,3.3333334E-1,-1.55E0,-1.2E0,1.0987124E0,6.1157024E-1,-1E0,-3.3333334E-1,3.529412E-1,1.374868E0,2.857143E-1,1.2363636E0,-5E-1,1.3333334E0,-8.196721E-1,-8.4033616E-2,5.29511E-1,-5E-1,3.6363637E-1,-1.0476191E0,-3.726708E-2,7.878788E-1,1.4E0,4.6153846E-1,-3.3333334E-1,1.3846154E0,1.2615385E0,-0E0,-3.0601093E-1,7.560138E-2,-3.0303031E-2,4.631579E-1,-4E-1,7.3049647E-1,1.3157895E0,9.285714E-1,-4E-1,6.8442076E-1,1.3043479E0,2.857143E-1,1E0,-1.5315315E-1,2.2222222E-1,1.0447761E0,-3.7037036E-1,9.3333334E-1,-6.666667E-1,6.181818E-1,9.3333334E-1,-4.0714285E-1,-1.14285715E-1,6.666667E-1,2.2222223E-2,-4.036281E-1,5.882353E-1,-9.4736844E-1,-6.278837E-1,6.666667E-1,2E-1,-9.1267604E-1,-1.2023121E0,1.5384616E-1,-1.6335878E0,-1.030303E0,-1.2912172E0,-9.276596E-1],"categories":[],"categories_nodes":[],"categories_segments":[],"categories_sizes":[],"default_left":[true,true,true,true,true,true,true,true,true,true,true,true,true,true,true,true,true,true,false,true,true,true,false,true,true,true,true,true,true,false,false,true,true,true,false,true,false,true,true,true,true,true,true,true,true,false,false,true,false,true,true,true,true,false,false,true,false,true,true,true,false,false,true,true,true,true,true,true,true,true,true,true,true,true,true,true,true,true,true,true,true,true,true,true,true,true,true,true,false,false,false,true,false,true,false,true,false,false,false,false,false,true,false,true,true,true,true,true,true,true,true,true,false,true,false,true,true,true,false,false,false,true,false,false,true,true,true,true,true,false,true,true,true,true,false,false,false,false,false,false,false,false,false,false,true,true,false,true,true,false,false,false,false,false,false,false,false,false,false,false,false,false,false,false,false,false,false,false,false,false,false,false,false,false,false,false,false,false,false,false,false,false,false,false,false,false,false,false,false,false,false,false,false,false,false,false,false,false,false,false,false,false,false,false,false,false,false,false,false,false,false],"id":0,"left_children":[1,3,5,7,9,11,13,15,17,19,21,23,25,27,29,31,33,35,-1,37,39,41,-1,43,45,47,49,51,53,-1,-1,55,57,59,-1,61,-1,63,65,67,69,71,73,75,77,-1,-1,79,-1,81,83,85,87,-1,-1,89,-1,91,93,95,-1,-1,97,99,101,103,105,107,109,111,113,115,117,119,121,123,125,127,129,131,133,135,137,139,141,143,145,147,-1,-1,-1,149,-1,151,-1,153,-1,-1,-1,-1,-1,155,-1,157,159,161,163,165,167,169,171,173,-1,175,-1,177,179,181,-1,-1,-1,183,-1,-1,185,187,189,191,193,-1,195,197,199,201,-1,-1,-1,-1,-1,-1,-1,-1,-1,-1,203,205,-1,207,209,-1,-1,-1,-1,-1,-1,-1,-1,-1,-1,-1,-1,-1,-1,-1,-1,-1,-1,-1,-1,-1,-1,-1,-1,-1,-1,-1,-1,-1,-1,-1,-1,-1,-1,-1,-1,-1,-1,-1,-1,-1,-1,-1,-1,-1,-1,-1,-1,-1,-1,-1,-1,-1,-1,-1,-1,-1,-1,-1,-1,-1,-1],"loss_changes":[2.3163218E3,3.5088123E2,3.6945142E2,3.7676514E1,4.794931E1,3.233513E1,6.538953E1,8.717773E0,7.5616455E-1,1.0365406E1,8.016113E0,9.066988E0,6.7951965E0,8.232361E0,3.6846924E-1,5.3237457E0,4.417572E0,1.1776428E0,0E0,1.1042297E1,1.0595793E1,7.8989105E0,0E0,7.715004E0,2.9181137E0,6.9785156E0,7.397129E0,7.0875244E0,1.1612963E1,0E0,0E0,5.868042E0,8.480347E0,3.6809692E0,0E0,9.9090576E-2,0E0,4.9752197E0,8.998978E0,7.110237E0,1.1054668E1,5.28125E0,9.008802E0,7.9509177E0,5.5140924E0,0E0,0E0,5.469696E0,0E0,2.3078423E0,5.4426875E0,7.067566E0,2.362091E0,0E0,0E0,2.437172E-1,0E0,4.3029175E0,5.325E0,3.7658691E0,0E0,0E0,1.0119629E-1,5.09787E0,2.3521729E0,1.8163063E1,6.4521675E0,7.1011353E0,3.039875E0,7.508967E0,6.562948E0,8.734146E0,1.0242065E1,2.0571427E0,5.322858E0,7.1854477E0,6.852684E0,5.223629E0,6.166683E0,6.178341E0,4.6043777E0,3.7017546E0,7.534523E-1,1.2556138E0,1.6380951E0,5.340805E0,5.4411926E0,2.5679626E0,0E0,0E0,0E0,4.695389E0,0E0,1.333332E-1,0E0,2.511444E0,0E0,0E0,0E0,0E0,0E0,2.7720222E0,0E0,9.266667E0,5.3423495E0,5.8708534E0,5.2327676E0,4.650797E0,5.267906E-1,6.13986E0,2.8341408E0,5.8830414E0,0E0,4.6726074E0,0E0,5.689415E0,1.7379379E0,8.065697E0,0E0,0E0,0E0,2.1111803E0,0E0,0E0,5.121147E0,4.0243235E0,4.980057E0,7.9829407E0,6.4230213E0,0E0,5.1073594E0,5.7162504E0,8.144024E0,4.591156E0,0E0,0E0,0E0,0E0,0E0,0E0,0E0,0E0,0E0,0E0,5.238083E0,4.4730988E0,0E0,5.4527283E-2,4.267456E0,0E0,0E0,0E0,0E0,0E0,0E0,0E0,0E0,0E0,0E0,0E0,0E0,0E0,0E0,0E0,0E0,0E0,0E0,0E0,0E0,0E0,0E0,0E0,0E0,0E0,0E0,0E0,0E0,0E0,0E0,0E0,0E0,0E0,0E0,0E0,0E0,0E0,0E0,0E0,0E0,0E0,0E0,0E0,0E0,0E0,0E0,0E0,0E0,0E0,0E0,0E0,0E0,0E0,0E0,0E0,0E0,0E0,0E0,0E0,0E0,0E0,0E0],"parents":[2147483647,0,0,1,1,2,2,3,3,4,4,5,5,6,6,7,7,8,8,9,9,10,10,11,11,12,12,13,13,14,14,15,15,16,16,17,17,19,19,20,20,21,21,23,23,24,24,25,25,26,26,27,27,28,28,31,31,32,32,33,33,35,35,37,37,38,38,39,39,40,40,41,41,42,42,43,43,44,44,47,47,49,49,50,50,51,51,52,52,55,55,57,57,58,58,59,59,62,62,63,63,64,64,65,65,66,66,67,67,68,68,69,69,70,70,71,71,72,72,73,73,74,74,75,75,76,76,77,77,78,78,79,79,80,80,81,81,82,82,83,83,84,84,85,85,86,86,87,87,91,91,93,93,95,95,101,101,103,103,104,104,105,105,106,106,107,107,108,108,109,109,110,110,111,111,113,113,115,115,116,116,117,117,121,121,124,124,125,125,126,126,127,127,128,128,130,130,131,131,132,132,133,133,144,144,145,145,147,147,148,148],"right_children":[2,4,6,8,10,12,14,16,18,20,22,24,26,28,30,32,34,36,-1,38,40,42,-1,44,46,48,50,52,54,-1,-1,56,58,60,-1,62,-1,64,66,68,70,72,74,76,78,-1,-1,80,-1,82,84,86,88,-1,-1,90,-1,92,94,96,-1,-1,98,100,102,104,106,108,110,112,114,116,118,120,122,124,126,128,130,132,134,136,138,140,142,144,146,148,-1,-1,-1,150,-1,152,-1,154,-1,-1,-1,-1,-1,156,-1,158,160,162,164,166,168,170,172,174,-1,176,-1,178,180,182,-1,-1,-1,184,-1,-1,186,188,190,192,194,-1,196,198,200,202,-1,-1,-1,-1,-1,-1,-1,-1,-1,-1,204,206,-1,208,210,-1,-1,-1,-1,-1,-1,-1,-1,-1,-1,-1,-1,-1,-1,-1,-1,-1,-1,-1,-1,-1,-1,-1,-1,-1,-1,-1,-1,-1,-1,-1,-1,-1,-1,-1,-1,-1,-1,-1,-1,-1,-1,-1,-1,-1,-1,-1,-1,-1,-1,-1,-1,-1,-1,-1,-1,-1,-1,-1,-1,-1,-1],"split_conditions":[1.885E0,1.315E0,2.9250002E0,5.825E0,2.525E0,2.255E0,5.885E0,3.9450002E0,9.924999E0,2.7885802E-2,5E-1,5E-1,-4.7247022E-2,5E-1,1.35E2,7.876281E-1,5E-1,5E-1,6.826889E-2,1.0085919E0,8.796828E-1,-3.8610615E-2,-2.4554666E-2,-2.7613205E-1,1.1199551E0,5E-1,-3.352588E-2,3.9650002E0,5.466416E-1,-6.3437E-2,-2.4554666E-2,1.305E0,4.8039562E-1,5E-1,-0E0,5.221232E-1,2.1046856E-2,5.034667E-1,-4.0324694E-1,-1.327044E-1,1.2925E3,7.255E2,-3.141447E-2,-3.4021276E-1,5E-1,-0E0,-4.9901415E-2,1.85E1,2.7139366E-2,6.75E2,-1.5E0,1.068533E0,5E-1,4.604E-2,-4.4198398E-2,6.255E2,4.9109333E-3,5E-1,9.15E1,5E-1,4.9109333E-3,2.4554666E-2,9.75E0,5.019432E-1,2.475E0,6.965E2,4.8333335E-1,8.6539197E-1,5.255E2,5E-1,5E-1,1.2062691E0,6.75E1,9.9986434E-1,8.275E2,1.575E2,3.25E1,-5E-1,-3.923077E-1,2.755E0,5E-1,2E0,2.32E0,2.52E0,1.025527E-1,-7.521187E-1,5E-1,5.235519E-1,-5.6664613E-3,2.8332306E-2,6.858372E-2,3.7849998E0,-1.2277333E-2,1.0515E3,2.7623998E-2,-9.314219E-1,4.9109333E-3,6.018455E-2,3.0332234E-2,3.0332234E-2,-2.7623998E-2,-7.2380954E-1,-0E0,5.1471066E-1,1.1025E3,6.102845E-1,5.1426905E-1,6.3655686E-1,9.8E2,1.0533905E0,5.5E-1,1.0389216E0,4.604E-2,1.22810036E-1,5.261714E-2,5.4392743E-1,1.385E0,9.8778725E-1,-3.6831997E-2,-0E0,-4.4198398E-2,9.24688E-1,-2.1046856E-2,4.604E-2,5.012994E-1,2.0549998E0,5.83089E-1,1.675E0,2.67E2,-3.489347E-2,-1.4636704E-1,-1.8544193E-1,-5E-1,5E-1,1.6369777E-2,-4.2647574E-2,1.2277333E-2,-2.7623998E-2,-6.647726E-2,-1.0523428E-2,-5.099815E-2,3.1570286E-2,-4.9109333E-3,1.47327995E-2,8.088305E-1,5.7125E3,1.2277333E-2,1.3102403E0,9.35E1,4.0467773E-2,2.2525353E-2,-3.6831997E-2,-1.2277333E-2,1.2999529E-2,5.0639138E-2,1.0523428E-2,4.5537744E-2,-1.8415999E-2,4.9109332E-2,-3.019016E-2,-3.095126E-3,1.9502947E-2,-1.8415999E-2,1.3393454E-2,-3.8585905E-2,-1.372621E-3,2.901915E-2,5.1564794E-2,1.6999384E-2,-1.2277333E-2,5.099815E-2,4.6464983E-2,-0E0,-1.1270993E-2,2.7845497E-3,-1.1161212E-3,1.705903E-2,-1.47327995E-2,2.6905645E-2,4.8463155E-2,3.4201138E-2,-1.47327995E-2,2.5208583E-2,4.804174E-2,1.0523428E-2,3.6831997E-2,-5.6409365E-3,8.184888E-3,3.848119E-2,-1.364148E-2,3.437653E-2,-2.4554666E-2,2.2768872E-2,3.437653E-2,-1.4995884E-2,-4.2093713E-3,2.4554666E-2,8.184888E-4,-1.4866429E-2,2.1665882E-2,-3.489347E-2,-2.312621E-2,2.4554666E-2,7.3663997E-3,-3.3615682E-2,-4.4283558E-2,5.6664613E-3,-6.0168304E-2,-3.7948117E-2,-4.755811E-2,-3.4167554E-2],"split_indices":[6,6,6,7,7,6,6,7,7,19,1302,37,17,284,1,16,940,626,0,16,16,17,0,17,16,326,19,6,18,0,0,6,19,292,0,16,0,18,17,17,2,3,17,17,48,0,0,20,0,2,20,15,112,0,0,2,0,776,1,724,0,0,7,18,7,2,9,16,3,207,38,15,1,15,3,3,20,11,9,6,29,20,6,6,19,19,712,18,0,0,0,7,0,3,0,17,0,0,0,0,0,9,0,18,2,18,18,18,2,15,8,16,0,19,0,16,6,15,0,0,0,16,0,0,18,6,18,7,3,0,17,19,14,969,0,0,0,0,0,0,0,0,0,0,16,2,0,15,20,0,0,0,0,0,0,0,0,0,0,0,0,0,0,0,0,0,0,0,0,0,0,0,0,0,0,0,0,0,0,0,0,0,0,0,0,0,0,0,0,0,0,0,0,0,0,0,0,0,0,0,0,0,0,0,0,0,0,0,0,0,0],"split_type":[0,0,0,0,0,0,0,0,0,0,0,0,0,0,0,0,0,0,0,0,0,0,0,0,0,0,0,0,0,0,0,0,0,0,0,0,0,0,0,0,0,0,0,0,0,0,0,0,0,0,0,0,0,0,0,0,0,0,0,0,0,0,0,0,0,0,0,0,0,0,0,0,0,0,0,0,0,0,0,0,0,0,0,0,0,0,0,0,0,0,0,0,0,0,0,0,0,0,0,0,0,0,0,0,0,0,0,0,0,0,0,0,0,0,0,0,0,0,0,0,0,0,0,0,0,0,0,0,0,0,0,0,0,0,0,0,0,0,0,0,0,0,0,0,0,0,0,0,0,0,0,0,0,0,0,0,0,0,0,0,0,0,0,0,0,0,0,0,0,0,0,0,0,0,0,0,0,0,0,0,0,0,0,0,0,0,0,0,0,0,0,0,0,0,0,0,0,0,0,0,0,0,0,0,0,0,0,0,0,0,0],"sum_hessian":[3.39825E3,1.691E3,1.70725E3,6.695E2,1.0215E3,8.3225E2,8.75E2,4.1925E2,2.5025E2,5.8225E2,4.3925E2,3.6275E2,4.695E2,6.255E2,2.495E2,1.7225E2,2.47E2,1.625E2,8.775E1,2.57E2,3.2525E2,4.3575E2,3.5E0,3.54E2,8.75E0,4.415E2,2.8E1,6.1975E2,5.75E0,2.475E2,2E0,1.85E1,1.5375E2,2.445E2,2.5E0,1.6E2,2.5E0,3.9E1,2.18E2,7.725E1,2.48E2,4.1825E2,1.75E1,1.5725E2,1.9675E2,2E0,6.75E0,4.3775E2,3.75E0,1.8E1,1E1,3.595E2,2.6025E2,3E0,2.75E0,1.575E1,2.75E0,1.4675E2,7E0,2.4175E2,2.75E0,2E0,1.58E2,6.25E0,3.275E1,5.7E1,1.61E2,5.275E1,2.45E1,1.6525E2,8.275E1,2.22E2,1.9625E2,6E0,1.15E1,1.16E2,4.125E1,1.61E2,3.575E1,1.84E2,2.5375E2,5.75E0,1.225E1,4.75E0,5.25E0,1.8325E2,1.7625E2,2.58E2,2.25E0,2.25E0,1.35E1,1.4475E2,2E0,4E0,3E0,2.39E2,2.75E0,1.5475E2,3.25E0,3.25E0,3E0,3.075E1,2E0,1.4E1,4.3E1,1.5225E2,8.75E0,4.65E1,6.25E0,7.25E0,1.725E1,1.6225E2,3E0,7.85E1,4.25E0,1.44E2,7.8E1,1.9325E2,3E0,2E0,4E0,9E0,2.5E0,3E0,1.13E2,2.6E1,1.525E1,1.925E1,1.4175E2,3.75E0,3.2E1,1.5325E2,3.075E1,2.5025E2,3.5E0,3.75E0,2E0,3E0,9.25E0,2.5E0,2.25E0,2.5E0,2.75E0,2.75E0,1.805E2,1.7425E2,2E0,3.9E1,2.19E2,1.155E2,2.925E1,2E0,2E0,3.25E0,2.3575E2,4.25E0,2.65E1,3E0,1.1E1,1.425E1,2.875E1,1.4725E2,5E0,4.5E0,4.25E0,3.925E1,7.25E0,4E0,2.25E0,5E0,2.25E0,1.525E1,2E0,9.05E1,7.175E1,3.2E1,4.65E1,4E0,1.4E2,3.7E1,4.1E1,6.5E0,1.8675E2,4.75E0,4.25E0,3E0,1.1E2,1.025E1,1.575E1,1.25E1,2.75E0,6.5E0,1.275E1,2.75E0,1.39E2,1.65E1,1.55E1,4.4E1,1.0925E2,3.25E0,2.75E1,2.4825E2,2E0,4E0,1.765E2,1.72E2,2.25E0,3.175E1,7.25E0,1.6125E2,5.775E1],"tree_param":{"num_deleted":"0","num_feature":"1406","num_nodes":"211","size_leaf_vector":"0"}},{"base_weights":[3.403776E-4,-9.456429E-1,6.800242E-1,-5.2452546E-1,-1.2911932E0,1.3278352E0,3.3504924E-1,-4.091202E-1,-7.4077183E-1,-1.1055068E0,-1.6633341E0,1.1489456E0,1.5995661E0,1.1009201E-1,5.4664385E-1,-5.115347E-1,-1.057093E-1,-7.649648E-1,7.673417E-1,2.4188446E-2,-1.1164749E0,-1.6726454E0,-4.2088994E-1,1.171477E0,4.4269162E-1,1.4377512E0,1.7521952E0,-5.7197165E-2,2.5984293E-1,6.959286E-1,4.0848002E-1,-2.1363822E-1,-6.1996216E-1,1.4703406E0,-1.612532E-1,-7.869943E-1,4.586431E-1,-7.4819595E-1,6.8718386E-1,-1.0561876E0,-1.3021443E0,-1.6811413E0,-7.7563137E-1,1.0438952E0,1.2872659E0,-3.9184904E-1,7.1858263E-1,1.53641E0,1.0983326E0,1.769482E0,9.5127505E-1,8.663299E-1,-9.749762E-2,4.2186606E-1,5.5976275E-2,-4.9153867E-1,7.135937E-1,7.846594E-1,2.792318E-1,-4.9412584E-1,1.0479411E-1,-6.4310795E-1,9.448261E-1,1.1325623E-2,-5.4392546E-1,-4.9334645E-1,-8.883949E-1,-1.0657094E0,3.153869E-1,-1.3396935E0,-4.258907E-1,-1.3789611E0,-1.7146624E0,1.0578284E0,-2.9636921E-2,1.3345866E0,6.9787884E-1,1.1635678E0,-1.3526368E-1,1.5806869E0,9.946597E-1,7.7981484E-1,1.3669761E0,2.2859505E-1,1.29659E0,-1.16551645E-1,1.1160425E0,3.1036657E-1,1.0587939E0,-4.917683E-2,9.233576E-1,3.909062E-1,7.857075E-1,3.4921226E-1,9.1544574E-1,3.0488247E-1,-1.163397E0,-1.3856214E0,-3.7480614E-1,-2.82834E-1,6.629593E-1,-6.608833E-1,7.825956E-1,-5.387076E-1,2.1483257E-1,-7.780903E-1,1.805591E-1,-5.75109E-1,3.842223E-1,1.8403734E-1,-9.244706E-1,-4.267273E-1,-1.0868685E0,-1.4436547E0,-1.0656443E0,2.7948493E-1,-1.1102762E0,-2.4171664E-1,-1.4726954E0,-7.797567E-1,-1.7249622E0,-2.3693705E-2,1.0720179E0,1.3487365E0,-0E0,9.062722E-1,-4.9463478E-1,1.4669234E0,6.3523674E-1,7.05354E-1,1.6018429E0,1.1490649E0,4.5636216E-1,-6.317805E-1,1.1337014E0,1.5847893E0,8.4783626E-1,-5.7874054E-1,9.211823E-1,-1.1290445E0,-9.5092736E-2,9.8322886E-1,2.5332525E-1,1.1919945E0,-4.9842233E-3,-1.18017115E-1,6.8541217E-1,1.1969205E0,1.835703E-1,2.523041E-1,1.1128106E0,8.0157596E-1,-5.8459544E-1,1.0161468E0,-4.750896E-2,1.0109547E0,2.4853885E-1,3.5539865E-1,-4.2695236E-1,-5.915196E-1,3.436023E-1,-5.0242594E-3,-1.1501105E0,1.7075561E-1,1.1642706E0,-7.276807E-1,-3.7031928E-1,-1.1622435E0,-1.7076674E-1,-1.17831565E-1,6.3556576E-1,-1.2937365E-1,-1.0020477E0,8.7039137E-1,-6.6432965E-1,-1.7794663E-1,-7.5374496E-1,-1.3986737E-1,7.900945E-1,-3.8273486E-1,7.813666E-1,-9.894223E-1,-2.6969698E-1,-7.642583E-1,3.2095343E-2,-7.809592E-2,-1.0980725E0,-1.4669038E0,-4.2885017E-1,-9.789977E-2,-1.142733E0,-1.5493526E0,-4.1792613E-1,1.0855621E0,1.0166534E-1,1.3651623E0,3.1437936E-1,1.3510115E0,3.343107E-1,1.6305077E0,8.6092454E-1,1.381314E0,4.2014807E-1,1.2956306E0,2.4289532E-1,1.7215368E0,7.287526E-1,9.227638E-2,1.2889775E0,6.129426E-1,-1.2950045E-1,1.01550624E-1,1.2990892E0,2.0499888E-1,1.095156E0,6.1531454E-1,1.5118858E0,-4.942409E-1,1.8398255E-2,1.1889462E0,-2.0696042E-1,2.72043E-1,1.4236046E0,4.642469E-1,-1.5360166E-1,4.4771904E-1,-6.4847547E-1,1.3640995E-1,1.4071568E0,8.2065135E-1,-2.0515317E-1,1.1556664E0,4.4586876E-1,-1.0702105E0,3.3460566E-1,1.9920944E-1,1.1042486E0,7.72185E-1,-4.0335998E-1,-1.3514638E-1,4.1878918E-1,-8.048167E-1,7.1703154E-1],"categories":[],"categories_nodes":[],"categories_segments":[],"categories_sizes":[],"default_left":[true,true,true,true,true,true,true,true,true,true,true,true,true,true,true,true,true,true,false,true,true,true,false,true,true,true,true,true,true,true,true,true,true,false,true,true,false,false,false,true,true,true,false,true,true,false,true,true,true,false,false,true,true,true,true,false,true,true,true,true,true,true,false,true,true,true,true,true,false,true,true,true,true,true,false,true,true,true,false,true,true,true,true,true,false,true,false,true,true,true,true,true,true,true,true,true,false,false,true,true,true,true,false,true,true,true,true,true,true,true,true,true,true,true,true,false,false,false,true,false,false,false,true,true,false,true,false,false,false,false,true,true,false,false,true,true,true,false,false,false,true,true,true,true,false,true,true,true,true,true,true,true,false,true,true,true,true,true,true,false,false,false,false,false,false,false,false,false,false,false,false,false,false,false,false,false,false,false,false,false,false,false,false,false,false,false,false,false,false,false,false,false,false,false,false,false,false,false,false,false,false,false,false,false,false,false,false,false,false,false,false,false,false,false,false,false,false,false,false,false,false,false,false,false,false,false,false,false,false,false,false,false,false,false,false,false,false,false,false,false,false,false,false],"id":1,"left_children":[1,3,5,7,9,11,13,15,17,19,21,23,25,27,29,31,33,35,-1,37,39,41,-1,43,45,47,49,51,53,55,57,59,61,-1,63,65,-1,-1,-1,67,69,71,-1,73,75,-1,77,79,81,-1,-1,83,85,87,89,-1,91,93,95,97,99,101,-1,103,105,107,109,111,-1,113,115,117,119,121,-1,123,125,127,-1,129,131,133,135,137,-1,139,-1,141,143,145,147,149,151,153,155,157,-1,-1,159,161,163,165,-1,167,169,171,173,175,177,179,181,183,185,187,189,-1,-1,-1,191,-1,-1,-1,193,195,-1,197,-1,-1,-1,-1,199,201,-1,-1,203,205,207,-1,-1,-1,209,211,213,215,-1,217,219,221,223,225,227,229,-1,231,233,235,237,239,241,-1,-1,-1,-1,-1,-1,-1,-1,-1,-1,-1,-1,-1,-1,-1,-1,-1,-1,-1,-1,-1,-1,-1,-1,-1,-1,-1,-1,-1,-1,-1,-1,-1,-1,-1,-1,-1,-1,-1,-1,-1,-1,-1,-1,-1,-1,-1,-1,-1,-1,-1,-1,-1,-1,-1,-1,-1,-1,-1,-1,-1,-1,-1,-1,-1,-1,-1,-1,-1,-1,-1,-1,-1,-1,-1,-1,-1,-1,-1,-1,-1,-1,-1,-1],"loss_changes":[2.1801492E3,2.0561633E2,4.4049908E2,1.5684891E1,5.192285E1,3.1473389E1,6.128717E1,1.2995422E1,8.675629E0,6.495056E0,2.269165E0,6.1135864E0,4.1365967E0,1.569562E1,1.3408768E1,1.0000534E1,9.624911E0,6.255913E0,0E0,3.5857825E0,4.4119263E0,6.375122E-1,0E0,4.6138916E0,3.618436E0,2.879547E0,1.7355347E-1,1.1118816E1,1.0891884E1,7.014618E0,1.6662132E1,7.6651125E0,8.918732E0,0E0,6.906848E0,5.969345E0,0E0,0E0,0E0,5.5023193E0,3.4577942E0,1.831665E-1,0E0,2.9804688E0,4.8454285E0,0E0,4.429878E0,9.022827E-1,1.8623009E0,0E0,0E0,3.1328516E0,6.719547E0,1.273666E1,1.3497438E1,0E0,6.9864197E0,4.70533E0,9.974705E0,4.3201237E0,9.003087E0,6.262924E0,0E0,8.286285E0,5.653638E0,4.345624E0,6.310417E0,4.8507996E0,0E0,1.7931366E0,3.4467142E0,2.8655777E0,7.953491E-1,3.0127563E0,0E0,3.600006E0,4.794715E0,2.6963615E-1,0E0,6.047516E-1,3.4762955E-1,9.700874E0,6.053581E-1,4.027213E0,0E0,6.0082846E0,0E0,5.814352E0,3.8307972E0,6.7808347E0,3.0177937E0,5.6466904E0,6.0175476E0,5.8683534E0,4.031498E0,9.624058E0,0E0,0E0,6.6636486E0,5.9566536E0,3.9954295E0,4.0873184E0,0E0,4.3896136E0,7.6321974E0,3.4658356E0,5.677794E0,3.625084E0,1.2801837E0,2.3300445E0,6.2702484E0,2.230715E0,4.207306E0,1.3045502E0,2.572239E0,0E0,0E0,0E0,1.5941048E0,0E0,0E0,0E0,2.4151917E0,2.7757263E0,0E0,3.425312E0,0E0,0E0,0E0,0E0,5.219879E-1,6.883364E-1,0E0,0E0,1.8112602E0,3.2094955E-2,2.2958107E0,0E0,0E0,0E0,6.8209686E0,3.2096272E0,5.7550764E0,3.4959526E0,0E0,6.270015E0,5.4130564E0,2.023241E0,5.917872E-1,9.266211E0,2.4661217E0,5.020935E0,0E0,1.4105892E-1,6.121384E0,4.2094383E0,3.639423E0,7.5265026E0,7.9249516E0,0E0,0E0,0E0,0E0,0E0,0E0,0E0,0E0,0E0,0E0,0E0,0E0,0E0,0E0,0E0,0E0,0E0,0E0,0E0,0E0,0E0,0E0,0E0,0E0,0E0,0E0,0E0,0E0,0E0,0E0,0E0,0E0,0E0,0E0,0E0,0E0,0E0,0E0,0E0,0E0,0E0,0E0,0E0,0E0,0E0,0E0,0E0,0E0,0E0,0E0,0E0,0E0,0E0,0E0,0E0,0E0,0E0,0E0,0E0,0E0,0E0,0E0,0E0,0E0,0E0,0E0,0E0,0E0,0E0,0E0,0E0,0E0,0E0,0E0,0E0,0E0,0E0,0E0,0E0,0E0,0E0,0E0,0E0,0E0],"parents":[2147483647,0,0,1,1,2,2,3,3,4,4,5,5,6,6,7,7,8,8,9,9,10,10,11,11,12,12,13,13,14,14,15,15,16,16,17,17,19,19,20,20,21,21,23,23,24,24,25,25,26,26,27,27,28,28,29,29,30,30,31,31,32,32,34,34,35,35,39,39,40,40,41,41,43,43,44,44,46,46,47,47,48,48,51,51,52,52,53,53,54,54,56,56,57,57,58,58,59,59,60,60,61,61,63,63,64,64,65,65,66,66,67,67,69,69,70,70,71,71,72,72,73,73,75,75,76,76,77,77,79,79,80,80,81,81,82,82,83,83,85,85,87,87,88,88,89,89,90,90,91,91,92,92,93,93,94,94,95,95,98,98,99,99,100,100,101,101,103,103,104,104,105,105,106,106,107,107,108,108,109,109,110,110,111,111,112,112,113,113,114,114,118,118,122,122,123,123,125,125,130,130,131,131,134,134,135,135,136,136,140,140,141,141,142,142,143,143,145,145,146,146,147,147,148,148,149,149,150,150,151,151,153,153,154,154,155,155,156,156,157,157,158,158],"right_children":[2,4,6,8,10,12,14,16,18,20,22,24,26,28,30,32,34,36,-1,38,40,42,-1,44,46,48,50,52,54,56,58,60,62,-1,64,66,-1,-1,-1,68,70,72,-1,74,76,-1,78,80,82,-1,-1,84,86,88,90,-1,92,94,96,98,100,102,-1,104,106,108,110,112,-1,114,116,118,120,122,-1,124,126,128,-1,130,132,134,136,138,-1,140,-1,142,144,146,148,150,152,154,156,158,-1,-1,160,162,164,166,-1,168,170,172,174,176,178,180,182,184,186,188,190,-1,-1,-1,192,-1,-1,-1,194,196,-1,198,-1,-1,-1,-1,200,202,-1,-1,204,206,208,-1,-1,-1,210,212,214,216,-1,218,220,222,224,226,228,230,-1,232,234,236,238,240,242,-1,-1,-1,-1,-1,-1,-1,-1,-1,-1,-1,-1,-1,-1,-1,-1,-1,-1,-1,-1,-1,-1,-1,-1,-1,-1,-1,-1,-1,-1,-1,-1,-1,-1,-1,-1,-1,-1,-1,-1,-1,-1,-1,-1,-1,-1,-1,-1,-1,-1,-1,-1,-1,-1,-1,-1,-1,-1,-1,-1,-1,-1,-1,-1,-1,-1,-1,-1,-1,-1,-1,-1,-1,-1,-1,-1,-1,-1,-1,-1,-1,-1,-1,-1],"split_conditions":[1.755E0,3.4850001E0,1.315E0,2.9650002E0,7.045E0,6.66E0,2.4050002E0,1.0375E3,5E-1,-7.05E1,1.586565E-1,5E-1,1.0775E1,2.0149999E0,1.445E0,-2.1297617E-1,3.86E2,5E-1,2.8262727E-2,4.025E0,5.4449997E0,5E-1,-1.5502217E-2,4.665E0,1.215E0,5.2284575E-1,5E-1,2.875E2,7.310421E-2,5.011142E-1,9.405768E-1,8.99E2,5E-1,5.415558E-2,4E-1,5.185666E-1,1.6892742E-2,-2.7557552E-2,2.5310354E-2,5E-1,5E-1,7.61137E-1,-2.8568052E-2,5E-1,6.395E0,-1.4432583E-2,-2.45E1,5E-1,8.5E0,6.517356E-2,3.503736E-2,5.436398E-1,5E-1,3.85E1,3.9065474E-1,-1.810435E-2,3.45E1,7.2415525E-1,9E1,-7.416667E-1,-2.8947258E-1,5E-1,3.4799833E-2,5.1440406E-1,6.180556E-1,7.028124E-2,-5.770696E-1,-7.416667E-1,1.1616329E-2,5.4049997E0,5.805857E-1,7E1,-2.6666668E-1,3.06E2,-1.091587E-3,5E-1,5E-1,5.7E1,-4.9820314E-3,-6.44E2,1.18E2,1.579891E0,-1.5555556E-1,9.1E1,4.7755998E-2,-7.95E1,4.1106075E-2,5.021032E-1,2.025E0,4E-1,8.4636796E-1,3.5651767E-1,5E-1,-6.85E1,3.45E1,4.3575E3,-4.2850234E-2,-5.1035203E-2,1.015E2,-3.2231328E-1,3.05E1,1.344E3,2.8824558E-2,1.176E3,1.2003322E0,-1.9918087E-1,5.319911E-1,2.7849998E0,5.163503E-1,5.8216053E-1,7.3214287E-1,7.705959E-1,5.2242696E-1,5E-1,-7.416667E-1,1.02939885E-2,-4.0893693E-2,-8.902906E-3,5E-1,-2.8719997E-2,-6.3533805E-2,-8.726865E-4,5E-1,5E-1,-0E0,1.0366213E0,-1.8218387E-2,5.4029718E-2,2.3397038E-2,2.5979595E-2,5E-1,5.789416E-1,1.680873E-2,-2.3269737E-2,1.1335E4,-5.25E1,1.4892344E0,-2.131617E-2,3.3928983E-2,-4.1584965E-2,-4.85E1,5E-1,1.5022146E0,1.725E0,-1.835789E-4,1.755E0,1.835E0,-5.777778E-1,5.85E1,5.484108E-1,4E0,5E-1,-2.1531818E-2,8.5E2,-4.2E1,-1.145E2,8.396081E-1,-4.6060607E-1,2.89E0,-2.1786848E-2,1.2655559E-2,-1.850535E-4,-4.2360865E-2,6.2892702E-3,4.2882413E-2,-2.6801933E-2,-1.3639599E-2,-4.280775E-2,-6.28968E-3,-4.339972E-3,2.3409156E-2,-4.76509E-3,-3.6907416E-2,3.2058254E-2,-2.4468588E-2,-6.5541295E-3,-2.7761932E-2,-5.1515945E-3,2.9100759E-2,-1.409689E-2,2.8779292E-2,-3.64424E-2,-9.933478E-3,-2.8149161E-2,1.1821355E-3,-2.8764287E-3,-4.0444203E-2,-5.4028995E-2,-1.5795408E-2,-3.6058442E-3,-4.208914E-2,-5.706575E-2,-1.5393054E-2,3.998342E-2,3.7445375E-3,5.028165E-2,1.157922E-2,4.9760453E-2,1.23133315E-2,6.0054857E-2,3.170957E-2,5.0876554E-2,1.5474893E-2,4.7720663E-2,8.94632E-3,6.340764E-2,2.6841415E-2,3.3987234E-3,4.7475617E-2,2.25759E-2,-4.76976E-3,3.7403123E-3,4.784805E-2,7.550518E-3,4.033678E-2,2.2663264E-2,5.5685773E-2,-1.820388E-2,6.776445E-4,4.3791264E-2,-7.622766E-3,1.0019886E-2,5.2434202E-2,1.709914E-2,-5.657456E-3,1.6490387E-2,-2.3884647E-2,5.024251E-3,5.1828396E-2,3.0226229E-2,-7.556201E-3,4.25655E-2,1.6422236E-2,-3.941799E-2,1.2324195E-2,7.3372815E-3,4.0671684E-2,2.8441116E-2,-1.4856554E-2,-4.977711E-3,1.5424842E-2,-2.9643007E-2,2.6409704E-2],"split_indices":[5,4,6,4,4,5,5,2,32,20,19,37,5,5,6,19,3,36,0,4,4,33,0,5,4,19,189,3,19,16,16,3,1002,0,12,18,0,0,0,423,30,15,0,663,5,0,20,42,0,0,0,18,942,20,19,0,1,16,20,9,19,1389,0,18,8,19,19,9,0,6,18,0,12,2,0,940,46,1,0,20,1,15,12,0,0,20,0,18,4,9,16,19,940,20,20,2,0,0,1,19,1,3,0,2,15,19,18,6,18,15,8,15,15,778,9,0,0,0,27,0,0,0,326,713,0,16,0,0,0,0,492,18,0,0,2,20,15,0,0,0,20,13,16,6,0,4,4,12,0,18,0,26,0,2,20,20,16,12,5,0,0,0,0,0,0,0,0,0,0,0,0,0,0,0,0,0,0,0,0,0,0,0,0,0,0,0,0,0,0,0,0,0,0,0,0,0,0,0,0,0,0,0,0,0,0,0,0,0,0,0,0,0,0,0,0,0,0,0,0,0,0,0,0,0,0,0,0,0,0,0,0,0,0,0,0,0,0,0,0,0,0,0,0],"split_type":[0,0,0,0,0,0,0,0,0,0,0,0,0,0,0,0,0,0,0,0,0,0,0,0,0,0,0,0,0,0,0,0,0,0,0,0,0,0,0,0,0,0,0,0,0,0,0,0,0,0,0,0,0,0,0,0,0,0,0,0,0,0,0,0,0,0,0,0,0,0,0,0,0,0,0,0,0,0,0,0,0,0,0,0,0,0,0,0,0,0,0,0,0,0,0,0,0,0,0,0,0,0,0,0,0,0,0,0,0,0,0,0,0,0,0,0,0,0,0,0,0,0,0,0,0,0,0,0,0,0,0,0,0,0,0,0,0,0,0,0,0,0,0,0,0,0,0,0,0,0,0,0,0,0,0,0,0,0,0,0,0,0,0,0,0,0,0,0,0,0,0,0,0,0,0,0,0,0,0,0,0,0,0,0,0,0,0,0,0,0,0,0,0,0,0,0,0,0,0,0,0,0,0,0,0,0,0,0,0,0,0,0,0,0,0,0,0,0,0,0,0,0,0,0,0,0,0,0,0,0,0,0,0,0,0,0,0,0,0,0,0,0,0],"sum_hessian":[3.3887502E3,1.4166571E3,1.9720933E3,6.3964655E2,7.7701056E2,6.8427637E2,1.2878169E3,4.189535E2,2.2069305E2,5.210125E2,2.5599803E2,4.157816E2,2.6849478E2,6.2493567E2,6.628812E2,3.1271313E2,1.0624034E2,2.176936E2,2.9994476E0,4.9982634E0,5.160142E2,2.5375008E2,2.2479515E0,4.0228876E2,1.3492824E1,1.3538345E2,1.3311131E2,2.9547446E2,3.2946118E2,3.1667737E2,3.4620386E2,8.4240074E1,2.2847307E2,2.7495854E0,1.0349075E2,2.1419415E2,3.499459E0,2.2493176E0,2.748946E0,3.9458124E2,1.21433E2,2.5050334E2,3.2467325E0,1.961628E2,2.0612598E2,3.2479174E0,1.0244906E1,1.0216156E2,3.322189E1,1.2911522E2,3.9960952E0,1.14976225E1,2.839768E2,1.8297354E2,1.4648764E2,4.2487307E0,3.1242865E2,8.723471E1,2.5896915E2,4.4495213E1,3.9744865E1,2.2572327E2,2.7498047E0,7.1993355E1,3.14974E1,5.6484634E1,1.5770952E2,3.9208234E2,2.4989119E0,1.1593602E2,5.4969783E0,2.9221313E1,2.2128203E2,1.9366388E2,2.4989188E0,1.8963611E2,1.6489872E1,6.4964967E0,3.7484097E0,9.266996E1,9.491601E0,1.6985624E1,1.6236265E1,5.248923E0,6.2486997E0,2.8047696E2,3.4998655E0,1.5698015E2,2.5993395E1,1.3149031E2,1.4997336E1,5.824052E1,2.5418811E2,2.0996836E1,6.623788E1,2.5521986E2,3.7492793E0,3.999598E0,4.0495613E1,2.3746765E1,1.5998099E1,2.234735E2,2.2497718E0,1.8998253E1,5.2995102E1,2.3747759E1,7.7496424E0,5.19858E1,4.498831E0,4.9990864E0,1.5271043E2,1.3245694E1,3.7883664E2,8.095698E1,3.4979042E1,2.9983227E0,2.4986553E0,2.4975965E0,2.6723717E1,3.2471497E0,2.1803488E2,2.4992769E0,1.911646E2,1.8763611E2,2E0,1.424123E1,2.2486417E0,2.9983747E0,3.498122E0,2.9972851E0,8.9672676E1,6.4941835E0,2.9974172E0,3.2473235E0,1.3738301E1,9.991469E0,6.2447968E0,2.4995844E0,2.7493384E0,4.749877E0,2.7572708E2,1.09989395E1,1.4598122E2,2.2993711E1,2.9996824E0,1.2099124E2,1.0499067E1,1.0497562E1,4.499774E0,4.9991833E1,8.24869E0,2.5168854E2,2.4995801E0,7.249023E0,1.3747812E1,5.7488895E1,8.74898E0,2.3922154E2,1.5998312E1,3.1246492E1,9.249122E0,1.8747332E1,4.999433E0,8.748832E0,7.2492676E0,1.8047902E2,4.2994465E1,6.2491946E0,1.2749059E1,2.9997053E1,2.2998049E1,6.4993534E0,1.7248405E1,4.2496862E0,3.499956E0,1.6747383E1,3.523842E1,2.2495065E0,2.2493243E0,2.7494981E0,2.249588E0,1.384641E2,1.4246335E1,7.2480216E0,5.9976726E0,4.248932E0,3.745877E2,7.870826E1,2.2487118E0,2.7482624E0,3.223078E1,2.4475979E1,2.247738E0,1.8841595E2,2.748638E0,1.8438818E2,3.2479174E0,7.245381E0,6.995849E0,8.517668E1,4.4959936E0,4.24622E0,2.247964E0,1.1240564E1,2.4977376E0,7.743439E0,2.24803E0,2.747766E0,3.4970307E0,1.1999042E1,2.6372803E2,3.249615E0,7.7493243E0,1.3923193E2,6.7492733E0,9.247108E0,1.3746604E1,3.1498255E1,8.949299E1,6.4993644E0,3.9997027E0,2.4995258E0,7.9980364E0,2.2499409E0,2.249833E0,4.149326E1,8.498573E0,2.2496426E0,5.999047E0,2.4718964E2,4.4988933E0,4.9994106E0,2.2496126E0,3.249638E0,1.0498174E1,6.249302E0,5.1239594E1,4.7494254E0,3.9995544E0,2.7246172E1,2.1197537E2,1.2248908E1,3.7494044E0],"tree_param":{"num_deleted":"0","num_feature":"1406","num_nodes":"243","size_leaf_vector":"0"}},{"base_weights":[6.1832257E-3,-8.971163E-1,6.597094E-1,-4.3565923E-1,-1.1942108E0,1.2863333E0,3.2708606E-1,-5.677069E-1,-2.7994877E-1,-1.0422198E0,-1.5816139E0,1.1206352E0,1.5297431E0,1.761081E-1,6.571589E-1,-1.363915E-1,-6.239525E-1,-4.8363942E-1,-1.24698E-1,-1.2568103E0,-9.787372E-1,-8.183048E-1,-1.6016887E0,9.7223353E-1,1.2164665E0,1.4228089E0,1.7248881E0,-4.9393967E-2,2.8201166E-1,2.3359852E-1,7.0648825E-1,-3.2725686E-1,1.1881306E0,-1.3118967E-1,-6.825357E-1,-5.222884E-1,8.551532E-1,7.210386E-1,-1.7029785E-1,-5.847969E-1,-1.285347E0,-9.8856544E-1,3.667763E-1,-1.0849489E0,-7.359113E-2,-1.6106064E0,-7.3824674E-1,9.963669E-1,-1.778424E-1,1.2433147E0,6.53877E-1,1.4353136E0,6.522845E-1,1.7434527E0,6.7907107E-1,7.393855E-1,-8.250679E-2,4.0258068E-1,1.16533674E-1,1.069498E0,5.0911266E-2,-3.5649512E-3,7.400525E-1,4.23139E-1,-7.635329E-1,-3.1555507E-1,1.2185138E0,-1.6608848E-1,-7.445612E-1,-5.4296844E-2,-6.0690665E-1,-2.669016E-1,1.2423799E0,-2.0342368E-1,1.0149715E0,6.677203E-2,-1.0340648E0,-1.3830794E0,-1.0860194E0,-9.3606186E-1,-1.2727866E0,-1.6166719E0,-6.859357E-1,8.741816E-1,1.2125736E0,9.5893824E-1,1.3087701E0,1.0702175E0,-2.467018E-1,1.4453408E0,5.812314E-1,1.253265E0,1.9223338E-1,5.5402033E-2,-2.5599465E-1,1.0054203E0,3.675099E-1,8.252719E-2,1.0091599E0,1.5925729E0,-2.075372E-2,2.815384E-1,-4.480734E-1,-3.152141E-1,6.333137E-1,4.089405E-1,8.1211245E-1,9.613749E-1,-5.764961E-1,-8.8748837E-1,1.7696173E-1,-6.799526E-2,-8.1708306E-1,2.322584E-1,-4.9361125E-1,-6.261107E-1,-9.952429E-1,-7.2455335E-1,3.7295106E-1,-6.3979733E-1,4.880879E-1,1.4330173E-1,-2.9902673E-1,-1.427372E0,1.714577E-1,2.754255E-3,-1.233374E0,3.1439945E-1,-9.4990647E-1,-4.713049E-1,-1.4046105E0,6.575166E-1,1.0322785E0,4.852934E-1,1.3107738E0,1.0227975E0,-2.2026786E-1,1.2516268E0,1.6309369E0,1.3404512E0,2.4348709E-1,7.201667E-1,1.4580134E0,-3.796577E-1,8.317498E-1,7.2863376E-1,-2.608082E-2,-6.0562724E-1,-1.4884752E-1,1.9107524E-1,1.4052603E0,4.2728934E-1,1.653438E-2,5.857012E-1,4.386272E-2,1.4115216E0,-1.6798574E-1,-8.6596906E-1,4.857854E-1,-1.1855737E0,2.4826469E-1,4.450817E-1,-7.746977E-1,1.168617E0,-1.7921026E-1,-2.6643342E-1,5.7970536E-1,7.4189425E-1,1.2974889E0,9.411642E-3,1.3565515E0,-1.1243529E0,-2.771799E-1,1.5734343E-1,-1.1108956E0,-1.1293238E0,-9.9574625E-2,-2.9519293E-1,1.1824892E0,-8.8953346E-1,2.9804343E-1,-6.756641E-1,5.938735E-1,-1.294783E0,-7.4219066E-1,-9.679638E-1,-1.2709516E-1,7.2539645E-1,-7.4495006E-1,-4.336073E-1,-8.466694E-1,-4.827456E-1,6.359289E-1,-7.209522E-2,-5.606699E-1,-1.2696023E0,-1.6737343E0,8.1778395E-1,-8.6737555E-1,-1.3175691E0,-5.920576E-1,-9.5865434E-1,3.3196953E-1,-8.3022225E-1,2.913788E-1,-1.4588277E0,-7.465173E-1,-5.587326E-1,7.510178E-1,1.1932303E0,6.2007016E-1,1.2279291E0,-2.4259867E-1,2.9019794E-1,1.3772637E0,1.6167907E0,8.346914E-1,1.3057963E0,5.280555E-1,1.6253921E0,1.3568048E0,2.0135407E-1,1.3344753E0,4.675107E-1,-1.2976421E-1,-8.2831645E-1,2.1814947E-1,3.465055E-1,-2.9438978E-1,-3.2681826E-1,8.394099E-1,1.5550044E0,6.511377E-1,7.059155E-1,2.7874336E-1,3.8952503E-1,-4.0474465E-1,1.590351E-1,1.4301293E0,1.24165505E-1,-4.0648982E-1,1.4875001E0,2.3936865E-1,-4.7486648E-1,-1.4853703E0,-3.5120693E-1,1.0479147E0,-1.2190554E0,-3.097189E-1,-6.335338E-1,4.3125963E-1,-1.1282441E-1,6.78949E-1,7.607213E-1,-6.88187E-1,1.35888E0,5.4430825E-1],"categories":[],"categories_nodes":[],"categories_segments":[],"categories_sizes":[],"default_left":[true,true,true,true,true,true,true,true,true,true,true,true,true,true,true,true,true,true,true,true,true,true,true,true,true,true,true,true,true,true,true,true,false,true,true,true,false,true,true,true,true,true,false,false,false,true,false,true,false,true,true,true,false,false,false,true,true,true,true,true,true,true,true,true,true,true,false,true,true,true,true,false,false,true,false,false,false,true,true,true,true,false,false,true,true,true,true,true,false,true,false,false,true,true,true,true,true,true,true,false,false,true,true,true,true,true,true,true,false,true,false,true,true,true,true,true,true,true,true,true,false,true,true,true,false,true,true,false,true,true,true,true,true,true,true,true,false,true,false,false,false,false,true,false,false,true,true,true,true,true,true,true,true,true,true,false,false,false,true,true,true,false,true,false,false,true,true,true,true,false,false,false,false,false,false,false,false,false,false,false,false,false,false,false,false,false,false,false,false,false,false,false,false,false,false,false,false,false,false,false,false,false,false,false,false,false,false,false,false,false,false,false,false,false,false,false,false,false,false,false,false,false,false,false,false,false,false,false,false,false,false,false,false,false,false,false,false,false,false,false,false,false,false,false,false,false,false,false,false,false,false,false,false,false,false,false,false],"id":2,"left_children":[1,3,5,7,9,11,13,15,17,19,21,23,25,27,29,31,33,35,37,39,41,43,45,47,49,51,53,55,57,59,61,63,-1,65,67,69,-1,71,73,75,77,79,-1,-1,-1,81,-1,83,-1,85,87,89,-1,-1,-1,91,93,95,97,99,101,103,105,107,109,111,-1,113,115,117,119,-1,-1,121,-1,-1,-1,123,125,127,129,-1,-1,131,133,135,137,139,-1,141,-1,-1,143,145,147,149,151,153,155,-1,-1,157,159,161,163,165,167,169,-1,171,-1,173,175,177,179,181,183,185,187,189,-1,191,193,195,-1,197,199,-1,201,203,205,207,209,211,213,215,-1,217,-1,-1,-1,-1,219,-1,-1,221,223,225,227,229,231,233,235,237,239,-1,-1,-1,241,243,245,-1,247,-1,-1,249,251,253,255,-1,-1,-1,-1,-1,-1,-1,-1,-1,-1,-1,-1,-1,-1,-1,-1,-1,-1,-1,-1,-1,-1,-1,-1,-1,-1,-1,-1,-1,-1,-1,-1,-1,-1,-1,-1,-1,-1,-1,-1,-1,-1,-1,-1,-1,-1,-1,-1,-1,-1,-1,-1,-1,-1,-1,-1,-1,-1,-1,-1,-1,-1,-1,-1,-1,-1,-1,-1,-1,-1,-1,-1,-1,-1,-1,-1,-1,-1,-1,-1,-1,-1,-1,-1,-1,-1,-1,-1],"loss_changes":[1.996929E3,1.9415808E2,4.0866846E2,1.13088E1,4.918274E1,2.5721558E1,6.384482E1,7.212837E0,8.095589E0,7.2562866E0,2.387146E0,4.626343E0,3.237915E0,2.107798E1,8.243835E0,9.485647E0,7.5847244E0,6.2006874E0,5.819093E0,1.9081421E0,6.7796326E0,1.5541506E0,6.1346436E-1,4.7638397E0,2.8757324E0,8.166504E-1,5.9936523E-1,7.445018E0,1.1930286E1,6.5846663E0,8.581787E0,1.0876286E1,0E0,7.721537E0,7.4796143E0,4.271839E0,0E0,4.3219633E0,5.7408776E0,2.2599943E0,1.0735474E0,6.001404E0,0E0,0E0,0E0,1.8585205E-1,0E0,3.219818E0,0E0,3.0630493E0,5.2256856E0,6.8588257E-1,0E0,0E0,0E0,2.9898233E0,6.5271683E0,6.9641457E0,7.640285E0,4.4513607E0,4.352817E0,3.6221378E0,7.869385E0,7.276844E0,2.574994E0,3.2639177E0,0E0,3.6030054E0,5.6606064E0,5.3514123E0,3.624279E0,0E0,0E0,4.615882E0,0E0,0E0,0E0,6.101425E0,7.7289658E0,7.4075623E0,6.9849243E0,0E0,0E0,2.989685E0,3.3572311E0,3.7755203E0,1.3798218E0,1.7371979E0,0E0,5.623169E-1,0E0,0E0,2.783088E0,8.383746E0,4.4328885E0,5.753351E0,6.903702E0,4.763965E0,4.617633E0,0E0,0E0,6.4517875E0,6.4546304E0,4.622705E0,2.818157E0,7.4722624E0,8.624191E0,3.183579E0,0E0,2.3615198E0,0E0,4.6377673E0,1.846724E0,6.736514E0,4.964447E0,9.252403E0,4.0577545E0,9.309299E-1,5.06997E0,3.4595566E0,0E0,9.711487E0,6.3996506E0,1.0937042E0,0E0,5.4877934E0,1.5101852E0,0E0,4.875305E0,3.4522765E0,1.1106033E0,5.870636E0,3.2515488E0,4.7518306E0,2.9032745E0,3.6674423E0,0E0,5.6655426E0,0E0,0E0,0E0,0E0,6.991272E-1,0E0,0E0,5.0013647E0,7.0712185E0,5.316329E0,6.86024E0,2.707866E0,3.7042618E-1,1.1450188E1,7.8535357E0,6.0728583E0,8.357662E0,0E0,0E0,0E0,5.194174E0,5.727806E-1,3.7220712E0,0E0,1.2748771E0,0E0,0E0,3.7284698E0,3.5790672E0,7.2026215E0,8.423805E-1,0E0,0E0,0E0,0E0,0E0,0E0,0E0,0E0,0E0,0E0,0E0,0E0,0E0,0E0,0E0,0E0,0E0,0E0,0E0,0E0,0E0,0E0,0E0,0E0,0E0,0E0,0E0,0E0,0E0,0E0,0E0,0E0,0E0,0E0,0E0,0E0,0E0,0E0,0E0,0E0,0E0,0E0,0E0,0E0,0E0,0E0,0E0,0E0,0E0,0E0,0E0,0E0,0E0,0E0,0E0,0E0,0E0,0E0,0E0,0E0,0E0,0E0,0E0,0E0,0E0,0E0,0E0,0E0,0E0,0E0,0E0,0E0,0E0,0E0,0E0,0E0,0E0,0E0,0E0,0E0,0E0,0E0,0E0,0E0,0E0,0E0,0E0,0E0],"parents":[2147483647,0,0,1,1,2,2,3,3,4,4,5,5,6,6,7,7,8,8,9,9,10,10,11,11,12,12,13,13,14,14,15,15,16,16,17,17,18,18,19,19,20,20,21,21,22,22,23,23,24,24,25,25,26,26,27,27,28,28,29,29,30,30,31,31,33,33,34,34,35,35,37,37,38,38,39,39,40,40,41,41,45,45,47,47,49,49,50,50,51,51,55,55,56,56,57,57,58,58,59,59,60,60,61,61,62,62,63,63,64,64,65,65,67,67,68,68,69,69,70,70,73,73,77,77,78,78,79,79,80,80,83,83,84,84,85,85,86,86,87,87,89,89,92,92,93,93,94,94,95,95,96,96,97,97,98,98,101,101,102,102,103,103,104,104,105,105,106,106,107,107,109,109,111,111,112,112,113,113,114,114,115,115,116,116,117,117,118,118,119,119,121,121,122,122,123,123,125,125,126,126,128,128,129,129,130,130,131,131,132,132,133,133,134,134,135,135,137,137,142,142,145,145,146,146,147,147,148,148,149,149,150,150,151,151,152,152,153,153,154,154,158,158,159,159,160,160,162,162,165,165,166,166,167,167,168,168],"right_children":[2,4,6,8,10,12,14,16,18,20,22,24,26,28,30,32,34,36,38,40,42,44,46,48,50,52,54,56,58,60,62,64,-1,66,68,70,-1,72,74,76,78,80,-1,-1,-1,82,-1,84,-1,86,88,90,-1,-1,-1,92,94,96,98,100,102,104,106,108,110,112,-1,114,116,118,120,-1,-1,122,-1,-1,-1,124,126,128,130,-1,-1,132,134,136,138,140,-1,142,-1,-1,144,146,148,150,152,154,156,-1,-1,158,160,162,164,166,168,170,-1,172,-1,174,176,178,180,182,184,186,188,190,-1,192,194,196,-1,198,200,-1,202,204,206,208,210,212,214,216,-1,218,-1,-1,-1,-1,220,-1,-1,222,224,226,228,230,232,234,236,238,240,-1,-1,-1,242,244,246,-1,248,-1,-1,250,252,254,256,-1,-1,-1,-1,-1,-1,-1,-1,-1,-1,-1,-1,-1,-1,-1,-1,-1,-1,-1,-1,-1,-1,-1,-1,-1,-1,-1,-1,-1,-1,-1,-1,-1,-1,-1,-1,-1,-1,-1,-1,-1,-1,-1,-1,-1,-1,-1,-1,-1,-1,-1,-1,-1,-1,-1,-1,-1,-1,-1,-1,-1,-1,-1,-1,-1,-1,-1,-1,-1,-1,-1,-1,-1,-1,-1,-1,-1,-1,-1,-1,-1,-1,-1,-1,-1,-1,-1,-1],"split_conditions":[1.765E0,2.9250002E0,1.315E0,1.535E0,5.925E0,6.605E0,2.5749998E0,-5E-1,6.875E2,1.225E0,1.0455489E0,3.8850002E0,9.924999E0,2.0149999E0,-8.311535E-2,7.2E1,-3.725257E-1,6.7131215E-1,5.0383085E-1,1.125E0,5E-1,1.002162E0,7.7844477E-1,5E-1,6.435E0,5E-1,1.9610558E0,2.87E2,1.1733087E0,2.855E0,4.5E0,-1.8674722E-1,4.3761224E-2,1.605E0,5.0574446E-1,1.25E-1,3.1497E-2,2.0833334E-1,7.4E1,5E-1,5.8237046E-1,2.916667E-1,1.3509103E-2,-3.9960835E-2,-2.7105082E-3,1.59675E4,-2.7191103E-2,5E-1,-6.5502906E-3,-4.1428572E-1,1.4195366E0,5E-1,2.4024941E-2,6.421484E-2,2.5011543E-2,-2.6666668E-1,1.885E0,-3.285383E-1,5E-1,2.6350002E0,7.33E2,1.5143676E0,8.504001E-1,5.6981164E-1,1.0722606E-1,6E1,4.4880297E-2,2.1E1,1.2537868E0,5.2686286E-1,5E-1,-9.83052E-3,4.5759335E-2,-2.1818653E-1,3.7383426E-2,2.4593472E-3,-3.808667E-2,5E-1,5.8871484E-1,7.711544E-1,1.215E0,-5.9545256E-2,-2.526438E-2,5.4372835E-1,-5E-1,1.2028201E0,1.6159298E0,-6.6E1,-9.08652E-3,-6.44E2,2.1407913E-2,4.6160255E-2,1.1183429E0,-3.15E1,6.175E2,-2.6666668E-1,1.165E2,8.848059E-1,1.438925E0,5.8657642E-2,-7.64401E-4,-1.54E2,1.0842679E0,1.602E3,1.6706352E0,5E-1,3.3969763E-1,1.35E1,-2.1233505E-2,4E1,6.517854E-3,4E-1,-4.3179822E-1,5.0385225E-1,1.285E2,1.2418184E0,1.515E0,6.145E2,6.335E2,5.27E2,1.7977253E-2,-2.9096508E-1,3.55E1,5.601343E-1,6.3151293E-3,1.0108008E0,5.665E0,1.157996E-2,5E-1,1.7149584E0,5.8047414E-1,-1.745E2,3.685E0,1.274976E0,-4.8333335E-1,4.125E0,-8.112906E-3,1.5325079E0,6.0070664E-2,4.9371496E-2,8.968116E-3,2.6525177E-2,2.0925E3,-1.39835505E-2,3.0635007E-2,0E0,5.0754714E-1,5E-1,1.0207334E0,2.365E0,5E-1,6.955E2,5E-1,9.25E1,5.57094E-1,5.1989157E-2,-6.1872504E-3,-3.189537E-2,3.065E2,3.95E1,-1.15E1,1.6393248E-2,5.356387E-1,4.30425E-2,-6.600672E-3,6.181265E-1,2.95E1,5E-1,4.485E3,3.4664958E-4,4.9964502E-2,-4.1412164E-2,-1.0209089E-2,5.795273E-3,-4.0916506E-2,-4.1595254E-2,-3.6675322E-3,-1.0872545E-2,4.3553438E-2,-3.2763295E-2,1.0977535E-2,-2.4886059E-2,2.1873547E-2,-4.7689445E-2,-2.7336365E-2,-3.565204E-2,-4.6811686E-3,2.67178E-2,-2.7437998E-2,-1.5970623E-2,-3.1184524E-2,-1.7780485E-2,2.3422532E-2,-2.6554111E-3,-2.0650592E-2,-4.676199E-2,-6.164698E-2,3.0120617E-2,-3.1947173E-2,-4.85287E-2,-2.1806663E-2,-3.5309155E-2,1.2227101E-2,-3.0578744E-2,1.0732063E-2,-5.373154E-2,-2.7495723E-2,-2.057924E-2,2.7661486E-2,4.3949053E-2,2.2838423E-2,4.522708E-2,-8.935394E-3,1.0688569E-2,5.072737E-2,5.954963E-2,3.0743351E-2,4.8095085E-2,1.9449338E-2,5.9866436E-2,4.9973834E-2,7.4162725E-3,4.915139E-2,1.7219353E-2,-4.7794753E-3,-3.050855E-2,8.03488E-3,1.276249E-2,-1.0842964E-2,-1.2037369E-2,3.0917143E-2,5.7273917E-2,2.3982702E-2,2.6000278E-2,1.0266675E-2,1.4346985E-2,-1.4907554E-2,5.8575803E-3,5.2674517E-2,4.5732637E-3,-1.4971832E-2,5.47876E-2,8.816426E-3,-1.749028E-2,-5.4709155E-2,-1.2935652E-2,3.8596794E-2,-4.4900246E-2,-1.1407566E-2,-2.3334315E-2,1.5884154E-2,-4.1555483E-3,2.5007049E-2,2.8018886E-2,-2.5347302E-2,5.0050266E-2,2.0047959E-2],"split_indices":[5,6,6,7,6,5,7,14,2,5,16,7,7,5,19,1,19,18,18,7,284,16,18,367,5,43,15,3,15,5,0,19,0,5,18,8,0,8,0,14,18,9,0,0,0,3,0,48,0,12,15,685,0,0,0,9,5,19,477,7,3,16,16,18,19,1,0,20,16,18,41,0,0,19,0,0,0,30,18,16,7,0,0,18,11,16,15,20,0,20,0,0,16,20,3,12,0,16,15,0,0,20,15,3,16,45,19,20,0,20,0,12,19,18,0,16,5,2,2,2,0,19,1,18,0,15,6,0,1196,16,18,20,7,15,12,7,0,15,0,0,0,0,2,0,0,9,18,48,15,5,48,2,14,0,18,0,0,0,3,1,20,0,18,0,0,18,0,1336,2,0,0,0,0,0,0,0,0,0,0,0,0,0,0,0,0,0,0,0,0,0,0,0,0,0,0,0,0,0,0,0,0,0,0,0,0,0,0,0,0,0,0,0,0,0,0,0,0,0,0,0,0,0,0,0,0,0,0,0,0,0,0,0,0,0,0,0,0,0,0,0,0,0,0,0,0,0,0,0,0,0,0,0,0,0,0,0,0],"split_type":[0,0,0,0,0,0,0,0,0,0,0,0,0,0,0,0,0,0,0,0,0,0,0,0,0,0,0,0,0,0,0,0,0,0,0,0,0,0,0,0,0,0,0,0,0,0,0,0,0,0,0,0,0,0,0,0,0,0,0,0,0,0,0,0,0,0,0,0,0,0,0,0,0,0,0,0,0,0,0,0,0,0,0,0,0,0,0,0,0,0,0,0,0,0,0,0,0,0,0,0,0,0,0,0,0,0,0,0,0,0,0,0,0,0,0,0,0,0,0,0,0,0,0,0,0,0,0,0,0,0,0,0,0,0,0,0,0,0,0,0,0,0,0,0,0,0,0,0,0,0,0,0,0,0,0,0,0,0,0,0,0,0,0,0,0,0,0,0,0,0,0,0,0,0,0,0,0,0,0,0,0,0,0,0,0,0,0,0,0,0,0,0,0,0,0,0,0,0,0,0,0,0,0,0,0,0,0,0,0,0,0,0,0,0,0,0,0,0,0,0,0,0,0,0,0,0,0,0,0,0,0,0,0,0,0,0,0,0,0,0,0,0,0,0,0,0,0,0,0,0,0,0,0,0,0,0,0],"sum_hessian":[3.3807314E3,1.4190111E3,1.9617203E3,5.567362E2,8.6227484E2,6.792412E2,1.2824791E3,2.9982697E2,2.5690924E2,6.2195264E2,2.4032222E2,4.074671E2,2.7177414E2,8.810249E2,4.0145428E2,3.4983498E1,2.6484348E2,1.1020454E2,1.4670471E2,1.3769708E2,4.8425555E2,7.228656E0,2.3309357E2,1.6425374E2,2.4321335E2,1.8092381E2,9.085031E1,2.817097E2,5.993152E2,4.2475838E1,3.5897845E2,3.1235367E1,3.7481322E0,2.8485088E1,2.3635838E2,1.07705124E2,2.4994078E0,6.7474804E0,1.3995723E2,6.4845595E0,1.3121252E2,4.8100732E2,3.2482157E0,4.986409E0,2.2422469E0,2.298543E2,3.239265E0,1.6100876E2,3.2449799E0,2.309804E2,1.2232954E1,1.7718552E2,3.7383025E0,8.86103E1,2.2400134E0,1.0490341E1,2.7121936E2,3.458745E2,2.5344069E2,6.747568E0,3.572827E1,1.6243359E1,3.4273508E2,1.149465E1,1.9740717E1,2.5735853E1,2.7492352E0,2.5737354E1,2.1062103E2,1.674371E1,9.096142E1,2.4993217E0,4.248159E0,1.3695792E2,2.999317E0,2.9939046E0,3.4906547E0,8.405888E1,4.715365E1,4.0963052E2,7.13768E1,2.2761287E2,2.2414327E0,1.0609461E2,5.4914154E1,4.614585E1,1.8483455E2,8.236725E0,3.99623E0,1.744452E2,2.7403057E0,4.7441554E0,5.746186E0,1.5148315E2,1.19736206E2,1.749422E1,3.2838028E2,2.4519203E2,8.248655E0,4.2485056E0,2.499063E0,2.4732748E1,1.0995522E1,1.1245546E1,4.9978127E0,6.2450966E1,2.8028412E2,7.4965434E0,3.998107E0,1.7491701E1,2.2490153E0,1.7990913E1,7.74494E0,1.1744305E1,1.3993051E1,1.4541032E2,6.52107E1,6.2472725E0,1.0496437E1,8.871244E1,2.2489746E0,2.9493687E1,1.07464226E2,8.180972E1,2.2491589E0,5.738002E0,4.1415646E1,4.247881E0,4.0538263E2,1.0727778E1,6.0649025E1,4.6933372E1,5.9161243E1,7.2395067E0,4.7674644E1,4.3901054E1,2.2447948E0,1.6113821E2,2.3696327E1,5.7393217E0,2.4974031E0,3.989331E0,1.7045587E2,3.2479897E0,2.4981961E0,1.549742E1,1.3598573E2,2.6995308E1,9.27409E1,6.247651E0,1.1246569E1,2.804035E2,4.7976795E1,1.6486801E1,2.2870523E2,5.9990177E0,2.2496371E0,3.2475333E0,2.1485214E1,4.998726E0,5.996796E0,4.247937E0,6.9976087E0,2.748683E0,2.2491295E0,1.2490579E1,4.996039E1,2.4706964E2,3.321447E1,2.4994044E0,4.997139E0,1.19943495E1,5.497352E0,1.5492575E1,2.4983397E0,4.996599E0,2.7483404E0,7.99552E0,3.7487838E0,9.245536E0,4.7475142E0,1.4016333E2,5.2469983E0,2.79772E1,3.7233505E1,3.998221E0,2.2490518E0,8.247364E0,2.2490726E0,4.598002E1,4.2732426E1,1.2996876E1,1.649681E1,5.8232693E1,4.9231537E1,5.3623066E1,2.8186655E1,2.9938722E0,2.7441297E0,3.567728E1,5.7383657E0,4.0288538E2,2.4972649E0,7.234625E0,3.4931536E0,5.4908607E1,5.740417E0,2.995299E0,4.3938072E1,4.1185234E1,1.7976006E1,3.2434223E0,3.9960847E0,3.244119E0,4.4430527E1,8.732099E0,3.5168957E1,1.4916637E2,1.1971855E1,5.8556046E1,1.1189983E2,8.99831E0,6.4991097E0,2.2997173E1,1.12988556E2,2.1246336E1,5.7489724E0,2.074716E1,7.199374E1,3.7489104E0,2.4987404E0,8.497283E0,2.7492862E0,9.620347E1,1.8420003E2,2.5486774E1,2.249002E1,1.1742151E1,4.74465E0,1.9471051E2,3.3994724E1,3.2474413E0,1.8237774E1,2.2496345E0,2.7490914E0,3.7479093E0,2.2488866E0,2.748887E0,4.2487216E0,8.244555E0,4.246022E0,6.245058E0,4.3715332E1,2.443212E2,2.7484457E0,2.9967648E1,3.2468224E0],"tree_param":{"num_deleted":"0","num_feature":"1406","num_nodes":"257","size_leaf_vector":"0"}},{"base_weights":[-1.3616267E-2,-9.0773404E-1,6.3109607E-1,-1.3776492E0,-6.5869296E-1,2.9691806E-1,1.2231035E0,-1.1670523E0,-1.5652473E0,-8.8767993E-1,-5.118375E-1,3.838995E-2,5.1395136E-1,1.0396178E0,1.5161105E0,-2.9367736E-1,-1.1905639E0,-1.5800558E0,-5.52967E-1,-1.0030701E0,-7.25833E-1,-7.672953E-1,-4.595298E-1,5.444441E-1,-3.5605987E-3,5.5116165E-1,1.576E-1,1.0490272E0,-5.4756546E-1,1.3716651E0,1.640313E0,-7.5952107E-1,5.49102E-1,-1.2015465E0,-5.745897E-2,-8.3878285E-1,-1.5878261E0,3.6947367E-1,-1.021504E0,-8.273852E-1,-4.3928373E-1,8.598681E-1,-8.343264E-1,-5.453116E-1,-2.4958442E-1,-1.6862008E-1,7.262477E-1,1.7139498E-2,-8.644967E-1,4.142361E-1,6.468192E-1,-7.822069E-1,2.690265E-1,1.0599769E0,-1.7129146E-1,1.3866336E0,3.5127428E-1,1.6513319E0,7.323781E-1,-1.2127389E0,-5.8215924E-2,-8.622266E-1,-1.5960922E0,-1.0438927E0,8.809609E-2,-8.744508E-1,-1.4728808E-1,-2.8275946E-1,-1.1925036E0,-8.7003595E-1,3.1433082E-1,-5.6509364E-1,7.434265E-1,3.412599E-2,-4.7114944E-1,-9.06346E-1,3.8962662E-1,9.206172E-1,1.8054762E-1,-5.3344455E-2,2.339559E-1,-1.2369643E0,2.3601581E-1,6.031924E-1,2.6650736E-1,2.5306836E-1,7.086815E-1,-1.5352204E0,2.1389885E-1,4.338205E-1,-2.875563E-1,1.0711273E0,8.673208E-2,8.969542E-1,1.4124757E0,-1.2232693E0,-1.983531E-1,-1.0592681E0,2.2251897E-1,-5.020915E-1,-9.4297314E-1,-7.465709E-1,9.2138046E-1,-1.1576782E0,-1.3144971E-1,-1.4473528E0,-5.849362E-1,-3.0716494E-1,-9.5140827E-1,-6.557286E-1,-2.8530517E-1,1.0935533E0,1.6455914E-1,1.335623E-1,-6.7888236E-1,-1.5321877E0,-3.6181587E-1,-1.5565088E-1,8.623245E-1,3.0345926E-1,1.1027465E0,-1.0015954E0,7.8721625E-1,-1.0501647E-1,2.9741147E-1,3.0583498E-1,-5.5678475E-1,-1.5158432E0,-4.7438043E-1,-1.9231075E-2,6.5449214E-1,6.8761796E-1,1.4346354E-1,5.616363E-1,-5.1978946E-1,1.2022155E-1,7.5775385E-1,5.315912E-1,-5.369128E-1,-7.386887E-1,3.233235E-1,1.0795004E0,-8.845704E-2,8.6727864E-1,-8.4064627E-1,1.3578268E0,1.0820337E-1,1.2728363E0,1.5409935E0,-7.1598095E-1,-1.250141E0,-1.0748976E0,2.1645531E-1,-1.4589785E-2,-9.625868E-1,-9.708793E-1,-5.8999483E-2,-7.750099E-2,-1.1268867E0,3.6958224E-1,-5.119912E-1,-9.438588E-1,3.9839855E-1,-1.2210262E0,-7.375166E-1,-6.6841495E-1,5.1028335E-1,-3.636233E-1,1.0045907E0,-3.0335775E-1,3.7544316E-1,-1.2150117E0,3.194215E-1,6.6161746E-1,-4.8176992E-1,1.1042433E0,-8.690079E-1,-6.295407E-3,1.3048084E0,-1.502717E-1,1.2176958E0,5.422214E-2,-2.8270918E-1,3.950597E-1,-1.1334821E0,7.7428627E-1,1.8395215E-1,-1.1035705E0,2.5257E-1,1.0415001E0,-1.1812768E0,6.961262E-1,-2.1397541E-1,1.2292589E0,2.925804E-1,4.3505445E-1,-5.231872E-2,6.925913E-1,-8.7937737E-1,7.252107E-1,-7.963229E-1,-8.483202E-1,3.4251797E-1,3.8055462E-1,8.0709803E-1,6.2538725E-1,-3.5034513E-1,-1.4940071E0,-1.1752124E-1,1.065254E0,-8.032934E-1,1.4051446E0,1.0369043E0,8.2569915E-1,1.3759327E0],"categories":[],"categories_nodes":[],"categories_segments":[],"categories_sizes":[],"default_left":[true,true,true,true,true,true,true,true,true,true,true,true,true,true,true,true,true,true,false,true,true,true,true,true,true,true,true,true,false,true,true,false,false,true,false,false,true,false,true,true,true,false,true,true,true,true,true,true,true,true,true,true,true,true,false,true,false,false,false,true,false,false,false,true,false,true,true,true,true,true,false,true,true,true,true,false,true,true,true,true,true,true,false,true,true,true,true,false,false,true,true,true,true,true,true,true,false,true,false,true,true,true,false,false,true,false,false,true,true,true,true,false,false,true,true,false,true,false,false,true,true,false,true,true,true,true,true,false,false,true,true,true,true,true,true,true,true,true,false,true,true,true,false,false,false,false,false,true,false,false,false,false,false,false,false,false,false,false,false,false,false,false,false,false,false,false,false,false,false,false,false,false,false,false,false,false,false,false,false,false,false,false,false,false,false,false,false,false,false,false,false,false,false,false,false,false,false,false,false,false,false,false,false,false,false,false,false,false,false,false,false,false,false,false,false],"id":3,"left_children":[1,3,5,7,9,11,13,15,17,19,21,23,25,27,29,31,33,35,-1,37,39,41,43,45,47,49,51,53,-1,55,57,-1,-1,59,-1,-1,61,-1,63,65,67,-1,69,71,73,75,77,79,81,83,85,87,89,91,-1,93,-1,-1,-1,95,-1,-1,-1,97,-1,99,101,103,105,107,-1,109,111,113,115,-1,117,119,121,123,125,127,-1,129,131,133,135,-1,-1,137,139,141,143,145,147,149,-1,151,-1,153,155,157,-1,-1,159,-1,-1,161,163,165,167,-1,-1,169,171,-1,173,-1,-1,175,177,-1,179,181,183,185,187,-1,-1,189,191,193,195,197,199,201,203,205,-1,207,209,211,-1,-1,-1,-1,-1,213,-1,-1,-1,-1,-1,-1,-1,-1,-1,-1,-1,-1,-1,-1,-1,-1,-1,-1,-1,-1,-1,-1,-1,-1,-1,-1,-1,-1,-1,-1,-1,-1,-1,-1,-1,-1,-1,-1,-1,-1,-1,-1,-1,-1,-1,-1,-1,-1,-1,-1,-1,-1,-1,-1,-1,-1,-1,-1,-1,-1,-1,-1,-1,-1,-1,-1,-1],"loss_changes":[1.9474495E3,1.6473413E2,3.879815E2,1.7507019E1,3.071988E1,7.045485E1,3.6484497E1,4.4653015E0,2.9621582E0,6.011261E0,7.2261353E0,1.2193821E1,8.966095E0,7.123291E0,2.6016235E0,3.3514984E0,2.7683716E0,1.17614746E-1,0E0,5.641327E0,4.112503E0,1.1068478E1,8.387169E0,5.8225927E0,9.483837E0,7.8236847E0,7.116761E0,6.011078E0,0E0,1.5157623E0,1.9421387E-1,0E0,0E0,2.8184814E0,0E0,0E0,1.10839844E-1,0E0,5.198532E0,3.4701538E0,4.659251E0,0E0,4.0330048E0,8.964157E0,8.761487E0,4.366274E0,3.5700264E0,7.9565964E0,5.4135284E0,7.0093803E0,8.636322E0,5.7637944E0,5.6009216E0,4.6009216E0,0E0,3.6418152E-1,0E0,0E0,0E0,2.145111E0,0E0,0E0,0E0,4.1605835E0,0E0,2.2044678E0,6.1187057E0,4.6664495E0,2.3427486E-1,3.7913437E0,0E0,8.197556E0,9.344609E-1,4.4820833E0,8.515701E0,0E0,1.7442418E0,2.557455E0,8.3154335E0,7.156156E0,7.4294333E0,1.300271E0,0E0,3.585991E0,7.4637365E0,1.2381794E1,8.924896E0,0E0,0E0,4.6952724E0,4.163332E0,4.2466736E0,5.063135E0,3.1978474E0,2.0457458E-1,2.1180725E0,0E0,4.2069855E0,0E0,4.12808E0,2.101303E0,1.4357338E0,0E0,0E0,6.3210096E0,0E0,0E0,6.098269E0,3.5641632E0,4.023964E0,8.716966E0,0E0,0E0,5.9469204E0,4.533489E0,0E0,9.181236E0,0E0,0E0,7.759592E0,4.3751984E0,0E0,3.2080746E0,9.731393E0,7.5370092E0,6.57895E0,5.1452765E0,0E0,0E0,1.2931458E1,3.8884125E0,6.645322E0,6.5428867E0,7.536724E0,5.7364507E0,5.720697E0,5.053253E0,3.7525644E0,0E0,3.8104286E0,6.49347E0,4.4320374E0,0E0,0E0,0E0,0E0,0E0,1.7953415E0,0E0,0E0,0E0,0E0,0E0,0E0,0E0,0E0,0E0,0E0,0E0,0E0,0E0,0E0,0E0,0E0,0E0,0E0,0E0,0E0,0E0,0E0,0E0,0E0,0E0,0E0,0E0,0E0,0E0,0E0,0E0,0E0,0E0,0E0,0E0,0E0,0E0,0E0,0E0,0E0,0E0,0E0,0E0,0E0,0E0,0E0,0E0,0E0,0E0,0E0,0E0,0E0,0E0,0E0,0E0,0E0,0E0,0E0,0E0,0E0,0E0,0E0,0E0,0E0,0E0,0E0,0E0],"parents":[2147483647,0,0,1,1,2,2,3,3,4,4,5,5,6,6,7,7,8,8,9,9,10,10,11,11,12,12,13,13,14,14,15,15,16,16,17,17,19,19,20,20,21,21,22,22,23,23,24,24,25,25,26,26,27,27,29,29,30,30,33,33,36,36,38,38,39,39,40,40,42,42,43,43,44,44,45,45,46,46,47,47,48,48,49,49,50,50,51,51,52,52,53,53,55,55,59,59,63,63,65,65,66,66,67,67,68,68,69,69,71,71,72,72,73,73,74,74,76,76,77,77,78,78,79,79,80,80,81,81,83,83,84,84,85,85,86,86,89,89,90,90,91,91,92,92,93,93,94,94,95,95,97,97,99,99,100,100,101,101,104,104,107,107,108,108,109,109,110,110,113,113,114,114,116,116,119,119,120,120,122,122,123,123,124,124,125,125,126,126,129,129,130,130,131,131,132,132,133,133,134,134,135,135,136,136,137,137,139,139,140,140,141,141,147,147],"right_children":[2,4,6,8,10,12,14,16,18,20,22,24,26,28,30,32,34,36,-1,38,40,42,44,46,48,50,52,54,-1,56,58,-1,-1,60,-1,-1,62,-1,64,66,68,-1,70,72,74,76,78,80,82,84,86,88,90,92,-1,94,-1,-1,-1,96,-1,-1,-1,98,-1,100,102,104,106,108,-1,110,112,114,116,-1,118,120,122,124,126,128,-1,130,132,134,136,-1,-1,138,140,142,144,146,148,150,-1,152,-1,154,156,158,-1,-1,160,-1,-1,162,164,166,168,-1,-1,170,172,-1,174,-1,-1,176,178,-1,180,182,184,186,188,-1,-1,190,192,194,196,198,200,202,204,206,-1,208,210,212,-1,-1,-1,-1,-1,214,-1,-1,-1,-1,-1,-1,-1,-1,-1,-1,-1,-1,-1,-1,-1,-1,-1,-1,-1,-1,-1,-1,-1,-1,-1,-1,-1,-1,-1,-1,-1,-1,-1,-1,-1,-1,-1,-1,-1,-1,-1,-1,-1,-1,-1,-1,-1,-1,-1,-1,-1,-1,-1,-1,-1,-1,-1,-1,-1,-1,-1,-1,-1,-1,-1,-1,-1],"split_conditions":[1.765E0,1.285E0,3.685E0,5.895E0,1.385E0,2.375E0,6.575E0,-9.144361E-1,7.4860096E-1,3.65E1,-2.6136363E-1,8.497656E-1,1.6285E3,5E-1,1.0445E1,5.25E0,5E-1,-2.6666668E-1,-2.036688E-2,-9.191837E-1,9.44E2,-7.3271734E-1,-1.2319248E-2,-6.904762E-1,5E-1,2.5349998E0,-1.15E1,5E-1,-2.016793E-2,1.0365E1,7.95E1,-2.7974678E-2,2.0224523E-2,5E-1,-2.1163286E-3,-3.0894049E-2,7.5E0,1.3608453E-2,5E-1,-5.237192E-2,3.3333335E-2,3.167066E-2,1.1165E3,5E-1,5E-1,5E-1,4.05E1,5E-1,2.225E0,8.065E2,-7.1768835E-2,4.5E0,1.85E1,5E-1,-6.3090064E-3,1.075E0,1.2938133E-2,6.0821854E-2,2.697495E-2,5E-1,-2.1442086E-3,-3.175753E-2,-5.8787264E-2,5.625E3,3.2447549E-3,5E-1,8.65E1,9.9828994E-1,1.1591547E0,2.25E-1,1.1577432E-2,5.6278133E-1,2.8E1,8.0357146E-1,-6.548959E-1,-3.3382535E-2,1.87E0,-5.25E1,5.95E1,1.3702673E0,1.3463144E0,1.2909311E0,8.692934E-3,2.96E2,3.85E1,2.975E0,7.044225E-1,-5.654523E-2,7.878322E-3,1.6706352E0,3.025E0,5E-1,1.155E2,5E-1,8.45E1,-7.1282053E-1,-7.305741E-3,5E-1,8.195818E-3,9.5898473E-1,1.3900445E0,-5E-1,3.3936284E-2,-4.2639602E-2,5E-1,-5.3308893E-2,-2.1544369E-2,5.4338336E-1,2.375E0,5E-1,1.245E2,4.0277753E-2,6.0610417E-3,1.565E0,5.3148854E-1,-5.6433532E-2,5.0244443E-3,-5.732933E-3,3.1761132E-2,6.465E2,5.22E2,-3.689076E-2,5.815E2,-2.1140304E-1,2.1750002E0,-4.05E1,2.045E0,-5.583153E-2,-1.7472379E-2,8.907143E-1,5E-1,5E-1,2.315E0,-5.6586273E-2,-3.2208478E-1,-5E-1,3.45E1,5E-1,-1.9775571E-2,1.8275E3,1.4419835E0,7.766156E-1,-3.2580495E-3,3.1943604E-2,-3.0962681E-2,5.0011475E-2,3.9853463E-3,9.669547E-1,5.6757867E-2,-2.6371008E-2,-4.604519E-2,-3.9590627E-2,7.972482E-3,-5.373709E-4,-3.5453994E-2,-3.5759423E-2,-2.1730687E-3,-2.8545163E-3,-4.150549E-2,1.3612452E-2,-1.8857658E-2,-3.4764204E-2,1.4673814E-2,-4.4972833E-2,-2.716421E-2,-2.4619058E-2,1.8794755E-2,-1.3392972E-2,3.7001085E-2,-1.1173272E-2,1.3828321E-2,-4.475131E-2,1.17649315E-2,2.4368692E-2,-1.7744549E-2,4.0671486E-2,-3.2007296E-2,-2.3187241E-4,4.80587E-2,-5.5348068E-3,4.485017E-2,1.9971097E-3,-1.0412744E-2,1.4550838E-2,-4.174841E-2,2.851851E-2,6.775325E-3,-4.0646706E-2,9.302658E-3,3.836053E-2,-4.3508783E-2,2.5639718E-2,-7.881142E-3,4.527606E-2,1.07763205E-2,1.6023925E-2,-1.9270029E-3,2.5509521E-2,-3.2389224E-2,2.671096E-2,-2.9330162E-2,-3.1245327E-2,1.2615621E-2,1.4016586E-2,2.9727032E-2,2.3034262E-2,-1.2903911E-2,-5.5027265E-2,-4.328542E-3,3.923543E-2,-2.95869E-2,5.175428E-2,3.819126E-2,3.0412149E-2,5.067835E-2],"split_indices":[5,5,5,6,7,5,5,17,18,1,12,15,3,29,5,6,296,12,0,17,3,17,19,9,37,7,20,776,0,5,0,0,0,1070,0,0,0,0,735,17,9,0,2,32,11,34,20,48,5,2,19,0,1,713,0,6,0,0,0,436,0,0,0,2,0,45,1,16,16,8,0,18,1,8,17,0,6,20,20,15,16,16,0,2,1,7,16,0,0,16,5,569,1,34,1,9,0,32,0,15,16,20,0,0,11,0,0,18,6,565,1,0,0,5,18,0,19,0,0,2,2,0,3,17,6,20,5,0,0,16,22,47,7,17,19,14,1,111,0,2,15,16,0,0,0,0,0,16,0,0,0,0,0,0,0,0,0,0,0,0,0,0,0,0,0,0,0,0,0,0,0,0,0,0,0,0,0,0,0,0,0,0,0,0,0,0,0,0,0,0,0,0,0,0,0,0,0,0,0,0,0,0,0,0,0,0,0,0,0,0,0,0,0,0,0],"split_type":[0,0,0,0,0,0,0,0,0,0,0,0,0,0,0,0,0,0,0,0,0,0,0,0,0,0,0,0,0,0,0,0,0,0,0,0,0,0,0,0,0,0,0,0,0,0,0,0,0,0,0,0,0,0,0,0,0,0,0,0,0,0,0,0,0,0,0,0,0,0,0,0,0,0,0,0,0,0,0,0,0,0,0,0,0,0,0,0,0,0,0,0,0,0,0,0,0,0,0,0,0,0,0,0,0,0,0,0,0,0,0,0,0,0,0,0,0,0,0,0,0,0,0,0,0,0,0,0,0,0,0,0,0,0,0,0,0,0,0,0,0,0,0,0,0,0,0,0,0,0,0,0,0,0,0,0,0,0,0,0,0,0,0,0,0,0,0,0,0,0,0,0,0,0,0,0,0,0,0,0,0,0,0,0,0,0,0,0,0,0,0,0,0,0,0,0,0,0,0,0,0,0,0,0,0,0,0,0,0,0,0,0,0,0,0],"sum_hessian":[3.376363E3,1.414399E3,1.961964E3,4.8836755E2,9.260315E2,1.2550253E3,7.0693866E2,2.3348228E2,2.5488525E2,3.5986337E2,5.661681E2,5.732965E2,6.817288E2,4.3751062E2,2.69428E2,6.4743204E0,2.2700797E2,2.5065752E2,4.2277384E0,2.0704865E2,1.5281474E2,9.390252E1,4.722656E2,4.2969723E1,5.303268E2,6.16778E2,6.49508E1,4.3526926E2,2.2413585E0,1.301313E2,1.392967E2,4.2332144E0,2.241106E0,2.24769E2,2.2389681E0,3.7303758E0,2.4692714E2,2.4915352E0,2.0455711E2,1.11435074E2,4.1379665E1,3.2472959E0,9.065523E1,3.341411E2,1.3812448E2,8.744574E0,3.422515E1,5.188322E2,1.1494558E1,2.5586273E2,3.6091525E2,6.2464323E0,5.870436E1,4.315286E2,3.7406573E0,1.2789623E2,2.235078E0,1.3681749E2,2.479225E0,2.2252988E2,2.2391112E0,3.9675138E0,2.4295963E2,2.0056937E2,3.9877405E0,1.0395516E2,7.4799123E0,3.5398926E1,5.9807386E0,8.815715E1,2.4980755E0,3.2964264E2,4.498478E0,6.093903E1,7.718546E1,3.4981678E0,5.2464056E0,2.4729773E1,9.495379E0,3.921151E2,1.26717125E2,8.495331E0,2.9992275E0,1.109132E2,1.4494954E2,4.9695667E1,3.112196E2,3.2490594E0,2.9973729E0,4.5463898E1,1.3240466E1,4.265412E2,4.987413E0,8.201218E0,1.19695015E2,2.200397E2,2.4901817E0,1.983251E2,2.2442749E0,1.745108E1,8.650408E1,4.9855437E0,2.4943683E0,4.2386603E0,3.1160267E1,3.239637E0,2.7411017E0,1.1737937E1,7.641921E1,2.47971E2,8.167163E1,2.24903E0,2.2494478E0,5.4193825E1,6.745205E0,5.9947696E0,7.119069E1,2.747622E0,2.4987833E0,6.242569E0,1.8487204E1,2.9995453E0,6.495834E0,3.423779E2,4.97372E1,1.1672036E2,9.996762E0,5.497214E0,2.9981172E0,8.49293E0,1.0242027E2,3.1738363E1,1.13211174E2,3.57111E1,1.3984568E1,2.4220839E1,2.8699875E2,4.171483E1,3.7490685E0,7.4956994E0,5.744767E0,4.2355185E2,2.9893343E0,2.7432814E0,2.2441318E0,4.721135E0,3.4800825E0,6.259123E1,5.7103783E1,1.2460079E1,2.0757962E2,1.9608025E2,2.2448475E0,8.978114E0,8.472965E0,8.37615E1,2.7425811E0,2.24312E0,2.7424238E0,1.3463125E1,1.7697142E1,5.992565E0,5.745372E0,3.172284E1,4.4696373E1,2.4572424E2,2.2467568E0,7.7673645E1,3.9979835E0,1.9220617E1,3.497321E1,4.2472076E0,2.4979975E0,6.994961E0,6.419573E1,3.7437863E0,2.4987824E0,2.998484E0,1.5488719E1,2.24898E0,4.246854E0,1.8093161E2,1.6144629E2,4.7237488E1,2.4997132E0,2.2993423E1,9.372694E1,5.7491913E0,4.247571E0,4.4942517E0,3.9986787E0,9.792425E1,4.4960237E0,1.2494814E1,1.924355E1,4.498702E1,6.822415E1,3.3212246E1,2.498856E0,2.2467616E0,1.1737805E1,3.9956582E0,2.022518E1,3.4208973E1,2.5278978E2,3.796776E1,3.7470696E0,2.7484808E0,4.7472186E0,3.4965742E0,2.248193E0,4.529416E1,3.782577E2,1.3415619E1,4.917561E1],"tree_param":{"num_deleted":"0","num_feature":"1406","num_nodes":"215","size_leaf_vector":"0"}},{"base_weights":[-1.3979616E-2,-7.3055977E-1,7.041301E-1,-1.1503251E0,-3.4131354E-1,1.2067039E0,3.617746E-1,-9.349091E-1,-1.4403136E0,-6.0871625E-1,-2.0104864E-1,1.0372254E0,1.4634247E0,6.15227E-1,1.911543E-1,-9.487768E-1,6.964473E-1,-1.2198807E0,-1.5318844E0,-2.392583E-1,-6.5472573E-1,1.5232537E-2,-2.6221293E-1,1.0489072E0,-5.191504E-1,1.349175E0,1.6109048E0,6.281763E-1,-5.9700507E-1,1.2348513E-1,4.1966274E-1,7.842566E-2,-9.590361E-1,-1.2533686E0,1.1759107E-1,-1.5409479E0,-7.1124583E-1,4.1172642E-1,-4.4908732E-1,-1.0383874E0,-6.04295E-1,-2.7020717E-1,2.360507E-1,1.692616E-1,-2.923113E-1,8.827752E-1,1.1430551E0,1.3657333E0,4.2614213E-1,6.4367384E-1,-3.2679144E-1,4.963762E-1,7.604832E-2,9.703774E-2,5.862832E-1,5.2942383E-1,-3.966796E-1,-1.1462173E0,-8.8840306E-1,-1.2874677E0,-2.903025E-3,-1.5492238E0,-7.710357E-1,1.0897208E0,-4.2672622E-1,-1.6592468E-1,-1.2243696E0,-1.170739E0,-1.5639994E-1,2.0453693E-1,-6.380088E-1,-1.4891021E-1,-1.4131762E0,1.4901458E-1,1.1721771E0,5.707006E-1,-4.7222215E-1,-9.2487115E-1,-2.577802E-1,2.9938215E-1,9.2919487E-1,9.034754E-2,1.1592363E0,1.3806199E0,6.420418E-1,6.681771E-1,9.8526716E-2,4.3766314E-1,-7.810794E-1,1.0420855E0,3.3747265E-1,8.934886E-2,-1.021443E0,-3.5320932E-1,3.8367513E-1,6.346043E-1,-6.87048E-1,-1.2137216E0,-5.5984837E-1,-7.699111E-1,-1.0188463E0,-4.0888977E-1,-1.3314157E0,6.093974E-1,-4.678278E-1,-6.106912E-1,-1.4772471E0,-7.1841604E-1,-1.3737783E0,-2.3752637E-1,8.848582E-1,-7.254135E-1,-3.1810528E-1,-6.333095E-1,1.1166095E-1,4.3587074E-1,-9.727191E-2,4.702478E-1,1.4678774E0,9.3888646E-1,-4.2484316E-1,-1.3583268E0,-1.2839767E-1,1.1654163E-1,-1.2736677E0,9.935277E-1,-2.8193104E-1,-7.74974E-1,6.7257196E-1,6.671983E-1,1.0732844E0,1.188918E0,6.803842E-1,1.302346E0,1.5718354E0,7.3521733E-1,4.5444292E-1,9.2847854E-1,-3.9353085E-1,1.4305576E0,6.557868E-2,-1.1458286E-1,5.6973726E-1,7.290079E-1,6.6404395E-2,9.51559E-1,-6.570218E-1,1.0065523E0,-1.3347235E-1,7.2468245E-1,-1.0873387E-1,-1.2654951E0,-4.5218584E-1,-7.856853E-1,3.7298757E-1,-7.9378814E-1,6.678627E-1,-1.0456074E0,-1.2811342E-1,3.944493E-1,-1.2696749E0,-4.9937838E-1,-1.3553964E0,-1.0254089E-1,1.0352014E0,-7.438439E-1,5.107532E-1,1.9891845E-1,-1.1890548E0,-1.5397358E0,-5.331279E-1,-8.142133E-1,2.6386648E-1,-1.0110798E0,-5.859355E-1,-5.974929E-1,4.0504462E-1,-8.172955E-1,1.6523287E-1,-9.969298E-1,2.5882334E-1,8.629995E-1,-5.3805407E-2,-3.1184816E-1,5.1323307E-1,-1.352711E-1,1.156068E0,4.716505E-1,-1.1359528E0,-1.1176363E0,3.6692086E-1,8.08253E-1,-4.7445172E-1,-7.3046374E-1,-1.488525E0,1.7095354E-1,1.299043E0,-3.2168522E-1,1.9832644E-1,-2.4364847E-1,1.0534536E0,-1.251924E-1,8.013328E-1,1.0983325E0,7.219464E-2,1.2026426E0,3.0836365E-1,1.1033245E0,-1.676407E-2,1.3286469E0,4.7282814E-3,-2.0634775E-1,7.580776E-1,3.7969252E-1,1.1220093E0,1.925427E-1,1.4319597E0,-9.542788E-1,7.037321E-2,-5.894661E-1,5.129965E-1,7.1505696E-1,-2.3436362E-1,-1.2509157E-1,1.3392607E0,-1.1415517E-1,1.8430948E-1,-1.0956298E0,-2.4157213E-1,2.9552582E-1,1.2497807E0,3.0512255E-1,-7.651953E-1,-4.3282554E-1,7.730544E-1,6.110531E-1,-9.1097015E-1],"categories":[],"categories_nodes":[],"categories_segments":[],"categories_sizes":[],"default_left":[true,true,true,true,true,true,true,true,true,true,true,true,true,true,true,true,false,true,true,true,true,true,true,true,false,true,false,true,false,true,true,true,true,true,false,true,false,true,true,true,true,true,true,true,true,true,true,true,false,true,true,true,true,true,true,false,false,true,true,true,false,false,false,false,false,true,true,true,false,true,true,true,false,true,true,true,true,true,true,true,true,false,true,true,false,true,true,false,false,true,true,true,false,true,true,true,false,true,true,true,true,true,true,true,true,false,false,true,true,true,false,true,true,true,true,true,true,false,false,true,true,false,true,true,true,true,true,false,true,true,true,true,true,true,false,true,true,true,true,false,false,true,true,true,true,false,true,true,true,true,true,false,false,false,false,false,false,false,false,false,false,false,false,false,false,false,false,false,false,false,false,false,false,false,false,false,false,false,false,false,false,false,false,false,false,false,false,false,false,false,false,false,false,false,false,false,false,false,false,false,false,false,false,false,false,false,false,false,false,false,false,false,false,false,false,false,false,false,false,false,false,false,false,false,false,false,false,false,false,false,false,false,false,false,false,false,false],"id":4,"left_children":[1,3,5,7,9,11,13,15,17,19,21,23,25,27,29,31,-1,33,35,37,39,41,43,45,-1,47,-1,49,-1,51,53,55,57,59,-1,61,-1,63,65,67,69,71,73,75,77,79,81,83,-1,85,87,89,91,93,95,-1,-1,97,99,101,-1,-1,-1,-1,-1,103,105,107,-1,109,111,113,-1,115,117,119,121,123,125,127,129,-1,131,133,-1,135,137,-1,-1,139,141,143,-1,145,147,149,-1,151,153,155,157,159,161,163,165,-1,-1,167,169,171,-1,173,175,177,179,181,183,-1,-1,185,187,-1,189,191,193,195,197,-1,199,201,203,205,207,209,-1,211,213,215,217,-1,-1,219,221,223,225,-1,227,229,231,233,235,-1,-1,-1,-1,-1,-1,-1,-1,-1,-1,-1,-1,-1,-1,-1,-1,-1,-1,-1,-1,-1,-1,-1,-1,-1,-1,-1,-1,-1,-1,-1,-1,-1,-1,-1,-1,-1,-1,-1,-1,-1,-1,-1,-1,-1,-1,-1,-1,-1,-1,-1,-1,-1,-1,-1,-1,-1,-1,-1,-1,-1,-1,-1,-1,-1,-1,-1,-1,-1,-1,-1,-1,-1,-1,-1,-1,-1,-1,-1,-1,-1,-1,-1,-1,-1,-1],"loss_changes":[1.7221167E3,2.7330322E2,2.871665E2,4.8973267E1,3.2529915E1,2.7931396E1,4.293965E1,1.11814575E1,5.024231E0,4.926567E0,7.5777187E0,8.019562E0,2.3207397E0,6.656372E0,9.1723175E0,4.9391785E0,0E0,4.8562317E0,6.6937256E-1,4.9236407E0,4.506508E0,8.078758E0,5.846243E0,5.3788147E0,0E0,1.809082E0,0E0,6.077011E0,0E0,8.128362E0,7.2472153E0,1.3860583E0,5.024536E0,4.3732758E0,0E0,2.9589844E-1,0E0,5.5687294E0,5.661337E0,3.252859E0,6.590782E0,7.5437455E0,5.7103853E0,7.9279914E0,8.883713E0,3.8413696E0,4.277954E0,7.6446533E-1,0E0,5.1492615E0,2.770586E0,4.150571E0,6.0868635E0,6.262257E0,5.936821E0,0E0,0E0,4.140564E0,4.4132996E0,3.313797E0,0E0,0E0,0E0,0E0,0E0,5.135968E0,1.8258667E-1,1.3494225E0,0E0,3.2889225E0,6.135269E0,6.594106E0,0E0,4.792201E0,5.548172E-1,7.2698526E0,3.4799163E0,7.860506E0,1.2289314E1,5.6080165E0,4.585373E0,0E0,2.7913818E0,1.8719482E-1,0E0,5.016922E0,7.7025795E0,0E0,0E0,4.166232E0,4.442583E0,5.9211187E0,0E0,8.151711E0,9.632343E0,5.8810005E0,0E0,3.6995392E0,3.3325295E0,6.7200165E0,3.607895E0,4.7905283E0,1.2131042E0,1.9984963E0,4.561536E0,0E0,0E0,4.544247E0,1.4757671E0,2.2369785E0,0E0,6.5012894E0,1.0472846E1,2.8129773E0,5.879186E0,6.5804405E0,5.005885E0,0E0,0E0,3.4214315E0,4.2010407E0,0E0,5.185466E0,2.935591E0,7.786999E-1,1.7244759E0,7.5221004E0,0E0,3.7295332E0,5.6774178E0,2.1514359E0,2.495575E0,5.0672016E0,3.807663E0,0E0,6.2405243E0,4.154175E0,2.3123827E0,3.1839573E0,0E0,0E0,4.7675896E0,3.4052458E0,7.4563065E0,8.403596E0,0E0,2.6494603E0,1.9641161E0,4.941795E0,4.669323E0,6.4669285E0,0E0,0E0,0E0,0E0,0E0,0E0,0E0,0E0,0E0,0E0,0E0,0E0,0E0,0E0,0E0,0E0,0E0,0E0,0E0,0E0,0E0,0E0,0E0,0E0,0E0,0E0,0E0,0E0,0E0,0E0,0E0,0E0,0E0,0E0,0E0,0E0,0E0,0E0,0E0,0E0,0E0,0E0,0E0,0E0,0E0,0E0,0E0,0E0,0E0,0E0,0E0,0E0,0E0,0E0,0E0,0E0,0E0,0E0,0E0,0E0,0E0,0E0,0E0,0E0,0E0,0E0,0E0,0E0,0E0,0E0,0E0,0E0,0E0,0E0,0E0,0E0,0E0,0E0,0E0,0E0,0E0,0E0,0E0,0E0,0E0,0E0],"parents":[2147483647,0,0,1,1,2,2,3,3,4,4,5,5,6,6,7,7,8,8,9,9,10,10,11,11,12,12,13,13,14,14,15,15,17,17,18,18,19,19,20,20,21,21,22,22,23,23,25,25,27,27,29,29,30,30,31,31,32,32,33,33,35,35,37,37,38,38,39,39,40,40,41,41,42,42,43,43,44,44,45,45,46,46,47,47,49,49,50,50,51,51,52,52,53,53,54,54,57,57,58,58,59,59,65,65,66,66,67,67,69,69,70,70,71,71,73,73,74,74,75,75,76,76,77,77,78,78,79,79,80,80,82,82,83,83,85,85,86,86,89,89,90,90,91,91,93,93,94,94,95,95,97,97,98,98,99,99,100,100,101,101,102,102,103,103,104,104,107,107,108,108,109,109,111,111,112,112,113,113,114,114,115,115,116,116,119,119,120,120,122,122,123,123,124,124,125,125,126,126,128,128,129,129,130,130,131,131,132,132,133,133,135,135,136,136,137,137,138,138,141,141,142,142,143,143,144,144,146,146,147,147,148,148,149,149,150,150],"right_children":[2,4,6,8,10,12,14,16,18,20,22,24,26,28,30,32,-1,34,36,38,40,42,44,46,-1,48,-1,50,-1,52,54,56,58,60,-1,62,-1,64,66,68,70,72,74,76,78,80,82,84,-1,86,88,90,92,94,96,-1,-1,98,100,102,-1,-1,-1,-1,-1,104,106,108,-1,110,112,114,-1,116,118,120,122,124,126,128,130,-1,132,134,-1,136,138,-1,-1,140,142,144,-1,146,148,150,-1,152,154,156,158,160,162,164,166,-1,-1,168,170,172,-1,174,176,178,180,182,184,-1,-1,186,188,-1,190,192,194,196,198,-1,200,202,204,206,208,210,-1,212,214,216,218,-1,-1,220,222,224,226,-1,228,230,232,234,236,-1,-1,-1,-1,-1,-1,-1,-1,-1,-1,-1,-1,-1,-1,-1,-1,-1,-1,-1,-1,-1,-1,-1,-1,-1,-1,-1,-1,-1,-1,-1,-1,-1,-1,-1,-1,-1,-1,-1,-1,-1,-1,-1,-1,-1,-1,-1,-1,-1,-1,-1,-1,-1,-1,-1,-1,-1,-1,-1,-1,-1,-1,-1,-1,-1,-1,-1,-1,-1,-1,-1,-1,-1,-1,-1,-1,-1,-1,-1,-1,-1,-1,-1,-1,-1,-1],"split_conditions":[2.0149999E0,1.375E0,1.315E0,5.635E0,1.515E0,6.66E0,1.485E0,5E-1,5.9449997E0,-5E-1,5.117922E-1,5E-1,8.835E0,5E-1,-1.14628956E-1,-9.5E1,2.5651546E-2,1.256E4,5E-1,1.455E0,5.625E2,1.665E0,1.55E1,4.365E0,-1.9121345E-2,8.715E0,5.933284E-2,6.8884134E-1,-2.198889E-2,9.273996E-1,2.245E0,3.075E2,2.25E1,5E-1,4.331114E-3,7.7844477E-1,-2.6196605E-2,2.9250002E0,3.0149999E0,1.575E0,5.0243366E-1,1.795E0,2.145E0,5.3333336E-1,5.141488E-1,2.15E1,-9.2390406E-1,5E-1,1.5695665E-2,-4.106932E-2,5E-1,5.2292514E-1,5E-1,1.0439303E0,5E-1,1.9499738E-2,-1.4610502E-2,5.441177E-1,4.24E0,1.155E0,-1.06924206E-4,-5.7061005E-2,-2.8398784E-2,4.0136594E-2,-1.5717179E-2,1.445E0,5.438459E-1,5.325727E-1,-5.760522E-3,2.25E-1,1.065E2,4.5E-1,-5.2050103E-2,1.1343123E0,1.55E1,1.895E0,1.3810446E0,1.0818601E0,5.147465E-1,3.5349998E0,5.3735936E-1,3.3276805E-3,5E-1,2.25E1,2.3647683E-2,1.505E0,3.005E0,1.6120007E-2,-2.8768715E-2,1.06E2,5.503238E-1,5.0195146E-1,-3.7621785E-2,8.347143E-1,1.177933E0,2.505E0,-2.5305351E-2,5E-1,6.7E1,4.205E0,5.9575E3,5E-1,-9.206742E-1,5.1980394E-1,6.6E1,-2.2492977E-2,-5.4409962E-2,4.04E2,5.856132E-1,2.95E1,3.2591093E-2,1.415E0,3.125E0,5E-1,-5E-1,-1.6397849E-1,-1.3655914E-1,1.7320165E-2,5.4064855E-2,5.5E0,1.955E0,-5.002989E-2,-4.7727275E-1,6.1E1,-3.3333335E-2,5.1427007E-1,2.0275E3,-2.854384E-2,-6.2770563E-1,1.0168707E0,5E-1,5E-1,5E-1,2.15E1,5.789384E-2,-2.41E2,5.9875035E-1,2.865E0,-2.6666668E-1,5.2690294E-2,2.4153937E-3,9.4E1,1.55E2,5.00808E-1,5.2277946E-1,3.5047818E-2,9.6355873E-1,5.65E1,-5.2088983E-2,-6.666667E-1,-4.3066144E-2,-4.661071E-2,-1.6654907E-2,-2.8938359E-2,1.3737877E-2,-2.9236803E-2,2.4598718E-2,-3.851181E-2,-4.718673E-3,1.4528356E-2,-4.676466E-2,-1.8393103E-2,-4.9921956E-2,-3.7767857E-3,3.8128536E-2,-2.7397256E-2,1.881206E-2,7.326564E-3,-4.3795265E-2,-5.6711543E-2,-1.9636165E-2,-2.9989101E-2,9.718729E-3,-3.7240088E-2,-2.1581173E-2,-2.2006856E-2,1.4918602E-2,-3.0102625E-2,6.0858564E-3,-3.6718916E-2,9.532981E-3,3.1785995E-2,-1.9817606E-3,-1.1485991E-2,1.8903399E-2,-4.9823048E-3,4.258029E-2,1.737183E-2,-4.1839413E-2,-4.116478E-2,1.3514428E-2,2.9769571E-2,-1.7475005E-2,-2.690444E-2,-5.482535E-2,6.2965606E-3,4.784635E-2,-1.1848309E-2,7.3047588E-3,-8.9740595E-3,3.88008E-2,-4.611086E-3,2.9514687E-2,4.045378E-2,2.6590729E-3,4.429573E-2,1.1357649E-2,4.0637646E-2,-6.1745424E-4,4.8936717E-2,1.7415205E-4,-7.6002E-3,2.7921513E-2,1.3984834E-2,4.132584E-2,7.091732E-3,5.2741937E-2,-3.5147995E-2,2.5919857E-3,-2.1711214E-2,1.8894685E-2,2.6336975E-2,-8.63208E-3,-4.6073725E-3,4.9327645E-2,-4.204563E-3,6.788486E-3,-4.0354233E-2,-8.897584E-3,1.08848065E-2,4.603192E-2,1.1238273E-2,-2.818367E-2,-1.5941828E-2,2.8473139E-2,2.2506306E-2,-3.355285E-2],"split_indices":[5,7,6,4,7,5,6,284,6,14,18,1254,7,1092,17,20,0,3,28,5,3,7,0,5,0,7,0,18,0,15,5,1,20,33,0,18,0,6,4,5,18,5,6,12,18,1,17,24,0,17,13,18,111,15,25,0,0,8,4,5,0,0,0,0,0,7,18,18,0,12,0,8,0,15,1,5,15,15,18,7,18,0,42,0,0,4,5,0,0,0,18,18,0,15,15,7,0,42,0,4,3,14,17,18,1,0,0,3,18,1,0,7,4,48,14,17,17,0,0,1,6,0,17,1,12,18,3,0,17,15,367,713,11,0,0,20,18,5,12,0,0,0,0,18,18,0,15,1,17,12,17,0,0,0,0,0,0,0,0,0,0,0,0,0,0,0,0,0,0,0,0,0,0,0,0,0,0,0,0,0,0,0,0,0,0,0,0,0,0,0,0,0,0,0,0,0,0,0,0,0,0,0,0,0,0,0,0,0,0,0,0,0,0,0,0,0,0,0,0,0,0,0,0,0,0,0,0,0,0,0,0,0,0,0,0,0,0],"split_type":[0,0,0,0,0,0,0,0,0,0,0,0,0,0,0,0,0,0,0,0,0,0,0,0,0,0,0,0,0,0,0,0,0,0,0,0,0,0,0,0,0,0,0,0,0,0,0,0,0,0,0,0,0,0,0,0,0,0,0,0,0,0,0,0,0,0,0,0,0,0,0,0,0,0,0,0,0,0,0,0,0,0,0,0,0,0,0,0,0,0,0,0,0,0,0,0,0,0,0,0,0,0,0,0,0,0,0,0,0,0,0,0,0,0,0,0,0,0,0,0,0,0,0,0,0,0,0,0,0,0,0,0,0,0,0,0,0,0,0,0,0,0,0,0,0,0,0,0,0,0,0,0,0,0,0,0,0,0,0,0,0,0,0,0,0,0,0,0,0,0,0,0,0,0,0,0,0,0,0,0,0,0,0,0,0,0,0,0,0,0,0,0,0,0,0,0,0,0,0,0,0,0,0,0,0,0,0,0,0,0,0,0,0,0,0,0,0,0,0,0,0,0,0,0,0,0,0,0,0,0,0,0,0,0,0,0,0],"sum_hessian":[3.344625E3,1.6740867E3,1.6705382E3,8.0452606E2,8.6956067E2,6.758596E2,9.946786E2,4.6404062E2,3.404854E2,2.9803784E2,5.715228E2,4.1013943E2,2.6572018E2,3.9914798E2,5.955306E2,4.605441E2,3.4965389E0,1.04133255E2,2.3635216E2,3.3691776E1,2.6434607E2,1.2616071E2,4.4536212E2,4.074076E2,2.7318468E0,1.5544698E2,1.1027321E2,3.9540598E2,3.7419963E0,4.6065524E2,1.3487537E2,4.488579E0,4.560555E2,1.0165098E2,2.4822812E0,2.3290215E2,3.4500053E0,7.978049E0,2.5713726E1,2.8434515E1,2.3591154E2,5.4930874E1,7.122984E1,2.873981E1,4.166223E2,1.5112001E2,2.562876E2,1.522364E2,3.2105665E0,3.894124E2,5.9935455E0,5.091996E1,4.097353E2,4.6472897E1,8.840247E1,2.2440567E0,2.244522E0,1.2077306E2,3.3528244E2,9.892382E1,2.7271576E0,2.2942381E2,3.478329E0,4.2454157E0,3.732633E0,1.9723845E1,5.989881E0,2.4439692E1,3.9948232E0,9.237061E0,2.2667448E2,5.0682507E1,4.24837E0,6.623119E1,4.998647E0,1.774523E1,1.0994579E1,2.023127E1,3.9639102E2,1.1687199E1,1.3943282E2,3.979446E0,2.5230814E2,1.482785E2,3.95791E0,3.72446E2,1.6966408E1,2.2477434E0,3.7458022E0,1.0229985E1,4.0689976E1,4.0573672E2,3.998552E0,1.7986942E1,2.8485954E1,8.5653656E1,2.7488132E0,1.073453E2,1.3427758E1,1.7930637E2,1.5597607E2,5.2034593E0,9.372036E1,5.2423534E0,1.4481491E1,2.7445138E0,3.2453673E0,8.97774E0,1.546195E1,5.993457E0,3.2436037E0,1.7703659E2,4.9637894E1,1.7227074E1,3.3455433E1,3.0240055E1,3.599114E1,2.2493818E0,2.7492657E0,1.2995839E1,4.7493916E0,2.2486687E0,8.745911E0,5.242989E0,1.4988281E1,6.7456493E0,3.896454E2,2.7354984E0,8.9517E0,5.1472076E1,8.796074E1,2.361853E2,1.6122839E1,1.1075282E2,3.7525677E1,2.8166016E2,9.0785866E1,5.98485E0,1.0981557E1,6.9858947E0,3.24409E0,1.3982525E1,2.6707449E1,1.2984161E1,3.9275256E2,2.99451E0,1.4992432E1,1.2492743E1,1.5993211E1,7.6418335E1,9.235323E0,9.98923E1,7.453002E0,1.0937553E1,2.4902048E0,1.7681787E2,2.4884982E0,1.5125781E2,4.7182684E0,2.971771E0,2.231688E0,3.2369015E0,9.048346E1,2.246096E0,2.9962578E0,1.148261E1,2.9988813E0,3.2399712E0,5.737769E0,1.2218273E1,3.2436771E0,2.4972699E0,3.496187E0,5.6030632E1,1.2100596E2,3.5930122E1,1.3707771E1,1.3982084E1,3.2449894E0,3.2439604E0,3.0211472E1,1.5744365E1,1.4495691E1,2.699301E1,8.998128E0,2.249112E0,1.0746727E1,2.2498071E0,2.4995844E0,2.4988554E0,6.2470555E0,2.2462785E0,2.9967103E0,5.4951525E0,9.493129E0,2.2492616E0,4.496388E0,3.6016245E2,2.9482937E1,2.7343812E0,6.2173195E0,7.4613433E0,4.4010735E1,8.571884E1,2.2418985E0,2.322004E2,3.9849083E0,9.6723E0,6.4505386E0,1.0852918E2,2.2236402E0,6.4860864E0,2.7517407E2,8.305464E1,7.7312303E0,2.9927647E0,2.9920852E0,4.493246E0,6.488311E0,7.9941554E0,5.98837E0,2.2713356E1,3.994093E0,5.7423215E0,7.24184E0,1.5516502E2,2.3758754E2,6.496541E0,8.495891E0,3.748834E0,8.743909E0,9.744656E0,6.248555E0,2.746584E0,7.367175E1,4.9934154E0,4.2419076E0],"tree_param":{"num_deleted":"0","num_feature":"1406","num_nodes":"237","size_leaf_vector":"0"}},{"base_weights":[5.882908E-3,-8.382414E-1,6.019241E-1,-1.20087E0,-5.338209E-1,2.7249464E-1,1.141687E0,-1.0192556E0,-1.4838619E0,-3.151504E-1,-6.615415E-1,7.441077E-2,4.8324823E-1,9.5183843E-1,1.4607848E0,-1.0303966E0,2.4359195E-1,-1.4895693E0,-5.858639E-1,-1.03946745E-1,-4.47952E-1,-6.772918E-1,2.9250476E-1,5.66185E-1,3.2637134E-2,-4.9693832E-1,5.098272E-1,8.1598365E-1,1.0685035E0,1.4681292E0,6.3181996E-1,-2.0912364E-1,-1.0416125E0,-7.337968E-1,-1.4973786E0,1.2411684E0,-1.5305567E-1,-5.234128E-1,-7.3217236E-2,-6.879865E-1,6.6458577E-1,9.4529504E-1,-3.5342595E-1,-2.1904342E-1,7.451647E-1,2.6921794E-1,-3.797384E-2,-1.3471087E0,9.802841E-4,3.531443E-1,6.314545E-1,8.8718534E-1,3.5192397E-1,1.0883163E0,-1.914007E-1,1.3868942E0,1.6216599E0,2.1865253E-1,-7.0335823E-1,-1.1018649E0,-8.5455346E-1,-1.2689772E0,-1.5399827E0,-9.65057E-2,-1.0171937E0,-5.5900615E-1,5.248494E-1,8.763752E-1,-2.9617175E-1,-7.081272E-1,-1.5718283E-1,3.9769948E-1,-1.2431335E0,4.1367224E-1,1.0860767E0,-1.4180844E-1,3.880295E-1,5.9842277E-1,-6.684327E-2,2.8518677E-1,-7.853567E-1,5.4973304E-1,2.2434403E-1,-6.8086845E-1,6.4474213E-1,6.2863547E-1,1.0261245E0,-3.3988792E-1,5.833013E-1,1.1431489E0,6.930096E-1,1.4942318E0,1.2138504E0,1.6604195E0,1.0798318E0,4.0055498E-1,-1.1164515E0,-1.9148992E-1,-9.3159497E-1,-5.067082E-1,-1.3974537E0,-1.1606214E0,-1.5646503E0,-1.7757238E-1,7.8765756E-1,-4.6020946E-1,-1.3631998E0,-5.8903813E-1,6.884372E-1,1.9493127E-1,1.2327406E0,-6.237332E-1,2.6533473E-1,-1.1515762E0,-6.85035E-1,4.5918456E-1,-7.5776935E-1,-7.884317E-1,1.1254636E0,1.0183845E0,-9.508658E-2,4.3135756E-1,1.2822095E0,2.357837E-2,-1.1211977E0,-3.7389052E-1,4.6990067E-1,1.1892868E0,9.495653E-2,-8.573298E-2,7.874077E-1,1.0443498E0,-3.8703087E-1,6.152551E-1,-1.0811992E0,5.320871E-1,1.0413304E-1,3.456086E-1,7.000949E-1,7.1928257E-1,-3.289663E-1,1.0561224E0,1.0055133E-1,-1.040851E0,4.3304738E-1,-4.8982897E-1,7.7518857E-1,1.16643E0,7.9364076E-2,-5.9336835E-1,8.0669487E-1,1.3456455E0,5.5778503E-1,1.3013961E0,3.558225E-1,-7.7530605E-1,-1.1604708E0,2.0443487E-1,-1.2588574E0,-1.4679959E0,-8.210561E-1,3.413204E-1,-1.3321009E0,2.5782142E-2,-1.3529109E0,-7.508231E-1,-1.572665E0,-2.8988326E-1,3.1409776E-1,1.0842977E0,3.2909017E-2,-3.560105E-1,-7.2816044E-1,-1.0390166E0,7.340753E-2,-1.895453E-1,7.126258E-1,-1.280342E0,-5.419322E-2,-6.934851E-1,4.6723208E-1,-1.0426687E-1,9.622653E-1,3.7311268E-1,-1.1992648E0,6.163786E-1,1.4921999E0,6.9354296E-1,-5.938808E-1,-1.8287863E-1,1.0072722E0,4.0370426E-1,1.4106548E0,-2.0232801E-1,6.5286106E-1,4.6376234E-1,-8.8813096E-1,-6.7931926E-1,5.2113587E-1,1.4300402E-1,1.5170431E0,7.58956E-1,-4.6415234E-1,5.9202272E-2,-1.662784E-1,1.2348586E0,1.3731195E-1,-7.7036273E-1,1.158221E-1,4.0452504E-1,9.567841E-1,-1.9448863E-2,7.857633E-1,1.9300024E-1,-6.475704E-1,9.5043224E-1,1.3276672E-1,5.4612637E-1,8.7111694E-1,1.3577131E0,5.355495E-1,3.009631E-1,-8.3673656E-1,1.6638236E0,9.9788445E-1,4.7068903E-1,1.2781038E0,1.1969903E0,6.1463225E-1,6.2546045E-1,-4.5117635E-1,4.6113122E-1,1.0861185E0,4.2870592E-2,1.4085932E0,-3.6162266E-1,1.0677327E0],"categories":[],"categories_nodes":[],"categories_segments":[],"categories_sizes":[],"default_left":[true,true,true,true,true,true,true,true,true,true,true,true,true,true,true,true,false,true,false,true,true,true,true,true,true,true,true,true,true,true,false,true,true,false,true,false,true,true,true,true,false,false,false,true,true,true,true,false,true,true,true,true,true,true,false,true,true,false,false,true,true,true,true,true,true,true,false,true,true,true,true,true,false,true,true,true,true,true,true,true,false,true,true,false,true,true,true,true,true,true,true,false,true,false,true,false,true,true,true,true,false,true,true,true,true,false,false,true,false,false,false,true,true,true,true,true,true,false,false,true,true,true,true,true,false,true,true,true,true,true,true,false,true,true,false,true,true,true,true,true,true,true,false,false,false,false,true,true,true,false,true,true,true,false,false,false,false,false,false,false,false,false,false,false,false,false,false,false,false,false,false,false,false,false,false,false,false,false,false,false,false,false,false,false,false,false,false,false,false,false,false,false,false,false,false,false,false,false,false,false,false,false,false,false,false,false,false,false,false,false,false,false,false,false,false,false,false,false,false,false,false,false,false,false,false,false,false,false,false,false,false,false,false,false,false,false,false],"id":5,"left_children":[1,3,5,7,9,11,13,15,17,19,21,23,25,27,29,31,-1,33,-1,35,37,39,41,43,45,47,49,51,53,55,-1,57,59,-1,61,-1,63,65,67,69,-1,-1,-1,71,73,75,77,-1,79,81,83,85,87,89,-1,91,93,-1,-1,95,97,99,101,103,105,107,-1,109,111,113,115,117,-1,119,121,123,125,127,129,131,-1,133,135,-1,137,139,141,143,145,147,149,-1,151,-1,153,-1,155,157,159,161,-1,163,165,167,169,-1,-1,171,-1,-1,-1,173,175,177,179,181,183,-1,-1,185,187,189,191,193,-1,195,197,199,201,203,205,-1,207,209,-1,211,213,215,217,219,221,223,-1,-1,-1,-1,225,227,229,-1,231,233,235,-1,-1,-1,-1,-1,-1,-1,-1,-1,-1,-1,-1,-1,-1,-1,-1,-1,-1,-1,-1,-1,-1,-1,-1,-1,-1,-1,-1,-1,-1,-1,-1,-1,-1,-1,-1,-1,-1,-1,-1,-1,-1,-1,-1,-1,-1,-1,-1,-1,-1,-1,-1,-1,-1,-1,-1,-1,-1,-1,-1,-1,-1,-1,-1,-1,-1,-1,-1,-1,-1,-1,-1,-1,-1,-1,-1,-1,-1,-1,-1,-1,-1,-1,-1],"loss_changes":[1.6979143E3,1.5354102E2,3.5140417E2,3.1206055E1,2.1047516E1,5.129757E1,4.4006104E1,5.751343E0,3.9141846E-1,7.8779945E0,7.4040375E0,1.3027556E1,1.5769714E1,6.6202087E0,7.628784E-1,3.3536682E0,0E0,3.4399414E-1,0E0,7.480892E0,4.85828E0,7.231735E0,3.9125454E0,7.1424046E0,9.806052E0,6.8717427E0,1.0836746E1,7.0436096E0,6.47583E0,1.1740723E0,0E0,1.5227307E0,3.3666077E0,0E0,3.908081E-1,0E0,5.1489506E0,5.6651993E0,6.6507244E0,4.9007416E0,0E0,0E0,0E0,6.804614E0,4.1467056E0,6.643407E0,8.353187E0,0E0,2.7347302E0,6.356121E0,6.114197E0,6.264679E0,5.203811E0,4.569092E0,0E0,1.6484375E0,7.746887E-2,0E0,0E0,6.70755E0,4.8064194E0,3.558609E0,4.0802002E-2,7.4426055E0,6.234603E-1,5.640232E0,0E0,1.2149615E0,4.7995367E0,3.8335114E0,7.1681094E0,6.92404E0,0E0,6.937351E0,1.9425163E0,5.0453553E0,6.7209444E0,5.758161E0,7.0666714E0,4.9898243E0,0E0,1.1415846E1,5.7264967E0,0E0,5.101425E0,6.2969246E0,3.323761E0,5.0393734E0,5.2809887E0,5.2488403E0,5.2562475E0,0E0,5.880371E0,0E0,9.495039E-1,0E0,3.3528442E0,5.081957E0,3.9629974E0,5.951288E0,0E0,3.682022E0,1.5655518E-2,5.2896833E0,1.9213257E0,0E0,0E0,4.1816826E0,0E0,0E0,0E0,4.769448E0,2.1664906E0,2.8802586E0,4.52565E0,2.8541944E0,5.2947984E0,0E0,0E0,1.0316019E0,5.5216403E0,2.3020453E0,1.0607681E0,4.039777E0,0E0,5.037198E0,5.9587936E0,2.8670454E0,4.711805E0,4.9743214E0,2.5886035E0,0E0,1.1485136E0,6.61961E0,0E0,6.1236515E0,7.7159243E0,6.6149592E0,6.669281E0,6.7909813E0,2.4024036E0,2.5707703E0,0E0,0E0,0E0,0E0,2.5497675E0,2.822113E0,1.9313112E0,0E0,2.438408E0,5.118469E0,7.2015915E0,0E0,0E0,0E0,0E0,0E0,0E0,0E0,0E0,0E0,0E0,0E0,0E0,0E0,0E0,0E0,0E0,0E0,0E0,0E0,0E0,0E0,0E0,0E0,0E0,0E0,0E0,0E0,0E0,0E0,0E0,0E0,0E0,0E0,0E0,0E0,0E0,0E0,0E0,0E0,0E0,0E0,0E0,0E0,0E0,0E0,0E0,0E0,0E0,0E0,0E0,0E0,0E0,0E0,0E0,0E0,0E0,0E0,0E0,0E0,0E0,0E0,0E0,0E0,0E0,0E0,0E0,0E0,0E0,0E0,0E0,0E0,0E0,0E0,0E0,0E0,0E0,0E0,0E0,0E0,0E0,0E0,0E0,0E0,0E0],"parents":[2147483647,0,0,1,1,2,2,3,3,4,4,5,5,6,6,7,7,8,8,9,9,10,10,11,11,12,12,13,13,14,14,15,15,17,17,19,19,20,20,21,21,22,22,23,23,24,24,25,25,26,26,27,27,28,28,29,29,31,31,32,32,34,34,36,36,37,37,38,38,39,39,43,43,44,44,45,45,46,46,48,48,49,49,50,50,51,51,52,52,53,53,55,55,56,56,59,59,60,60,61,61,62,62,63,63,64,64,65,65,67,67,68,68,69,69,70,70,71,71,73,73,74,74,75,75,76,76,77,77,78,78,79,79,81,81,82,82,84,84,85,85,86,86,87,87,88,88,89,89,90,90,92,92,94,94,96,96,97,97,98,98,99,99,101,101,102,102,103,103,104,104,107,107,111,111,112,112,113,113,114,114,115,115,116,116,119,119,120,120,121,121,122,122,123,123,125,125,126,126,127,127,128,128,129,129,130,130,132,132,133,133,135,135,136,136,137,137,138,138,139,139,140,140,141,141,146,146,147,147,148,148,150,150,151,151,152,152],"right_children":[2,4,6,8,10,12,14,16,18,20,22,24,26,28,30,32,-1,34,-1,36,38,40,42,44,46,48,50,52,54,56,-1,58,60,-1,62,-1,64,66,68,70,-1,-1,-1,72,74,76,78,-1,80,82,84,86,88,90,-1,92,94,-1,-1,96,98,100,102,104,106,108,-1,110,112,114,116,118,-1,120,122,124,126,128,130,132,-1,134,136,-1,138,140,142,144,146,148,150,-1,152,-1,154,-1,156,158,160,162,-1,164,166,168,170,-1,-1,172,-1,-1,-1,174,176,178,180,182,184,-1,-1,186,188,190,192,194,-1,196,198,200,202,204,206,-1,208,210,-1,212,214,216,218,220,222,224,-1,-1,-1,-1,226,228,230,-1,232,234,236,-1,-1,-1,-1,-1,-1,-1,-1,-1,-1,-1,-1,-1,-1,-1,-1,-1,-1,-1,-1,-1,-1,-1,-1,-1,-1,-1,-1,-1,-1,-1,-1,-1,-1,-1,-1,-1,-1,-1,-1,-1,-1,-1,-1,-1,-1,-1,-1,-1,-1,-1,-1,-1,-1,-1,-1,-1,-1,-1,-1,-1,-1,-1,-1,-1,-1,-1,-1,-1,-1,-1,-1,-1,-1,-1,-1,-1,-1,-1,-1,-1,-1,-1,-1],"split_conditions":[1.755E0,1.355E0,3.5349998E0,7.045E0,2.7150002E0,2.4050002E0,6.605E0,5E-1,5E-1,5.25E1,5E-1,8.5091114E-1,4.5E0,4.395E0,1.9980569E0,-4.25E1,8.971978E-3,-2.6666668E-1,-2.1578537E-2,-9.7E1,2.645E0,5E-1,8.65E1,-7.2380954E-1,5.1104236E-1,4E-1,2.5749998E0,4.319183E-1,5E-1,1.3775E1,2.3271192E-2,1.1694342E0,9.05E1,-2.70272E-2,3.25E1,4.571471E-2,-4.286589E-2,5E-1,4.166667E-1,2.1639782E-1,2.4478022E-2,3.4817103E-2,-1.3017383E-2,-8.8394456E-2,1.87E0,5E-1,1.705E0,-4.9616706E-2,1.6707358E0,2.5549998E0,5.011142E-1,5.2997935E-1,3.685E0,5.2349997E0,-7.0496704E-3,5.884248E-1,5E-1,8.05341E-3,-2.5906088E-2,-9.144361E-1,-5.3921425E-1,9.783156E-1,6.719329E-1,-8.8304095E-2,1.2685839E0,6.6548604E-1,1.9331252E-2,1.1692727E0,-5.7039894E-2,-7.894689E-1,4.3E1,-2.2842857E-1,-4.5787092E-2,1.855E0,7.45E1,1.015E2,1.755E0,2.245E0,5.216211E-1,6.5E0,-2.8926255E-2,5E-1,9.5378023E-1,-2.5077745E-2,3.45E1,-1.0283525E-1,5E-1,5E-1,-1.385E2,5E-1,-2.64E2,5.5035543E-2,1.5555556E-1,6.1156563E-2,8.1E3,1.475324E-2,-5E-1,-1.3333334E-1,9.602828E-1,5E1,-5.147101E-2,7.65E1,1.0121291E0,6.862745E-1,1.314322E0,-1.6950434E-2,-5.0209373E-2,5.15E1,2.5356518E-2,7.1797078E-3,4.54043E-2,2.6950002E0,-1.902335E-1,5.879773E-1,5E-1,6E0,2.005E2,-2.9039515E-2,4.145307E-2,9.75E1,-3.2659638E-1,7.63E2,-4.008167E-1,1.788741E-2,-4.129595E-2,5.043584E-1,9.2998457E-1,5.215144E-1,5E-1,-8.554232E-2,6.1296827E-1,3.846549E-2,5.3494054E-1,-1.9392788E-1,-3.9822724E-2,-4.0802675E-1,2.5014353E-1,-4.4913793E-1,1.1958799E0,8.24E2,-5E0,3.5949998E0,3.7035062E-3,-3.833662E-2,1.595E-2,-1.804138E-2,1.045E2,5E-1,9.5E0,-2.185494E-2,-7.1794875E-2,5.9008396E-1,8.145E0,4.793302E-2,1.3105653E-2,-2.855607E-2,-4.2742457E-2,7.529745E-3,-4.636623E-2,-5.406922E-2,-3.0241137E-2,1.2571512E-2,-4.9063936E-2,9.4960775E-4,-4.983041E-2,-2.7654314E-2,-5.7924394E-2,-1.0676979E-2,1.1568848E-2,3.9936848E-2,1.2121048E-3,-1.3112578E-2,-2.6819604E-2,-3.8269058E-2,2.703746E-3,-6.9813323E-3,2.6247432E-2,-4.7157552E-2,-1.9960445E-3,-2.554244E-2,1.720909E-2,-3.840357E-3,3.5442155E-2,1.3742485E-2,-4.417132E-2,2.2702456E-2,5.49607E-2,2.5544573E-2,-2.1873815E-2,-6.735785E-3,3.709985E-2,1.48692345E-2,5.1957235E-2,-7.4521448E-3,2.4046177E-2,1.7081294E-2,-3.2711636E-2,-2.5020685E-2,1.9194474E-2,5.2671237E-3,5.587573E-2,2.7953865E-2,-1.7095657E-2,2.180538E-3,-6.124366E-3,4.548231E-2,5.057473E-3,-2.8373998E-2,4.2659594E-3,1.4899465E-2,3.524027E-2,-7.163405E-4,2.8941233E-2,7.1085845E-3,-2.385131E-2,3.500632E-2,4.890064E-3,2.0114925E-2,3.2084975E-2,5.0007284E-2,1.9725358E-2,1.10850725E-2,-3.0818678E-2,6.1281946E-2,3.675408E-2,1.7336417E-2,4.7075115E-2,4.408754E-2,2.2638133E-2,2.3036957E-2,-1.6617727E-2,1.6984385E-2,4.000391E-2,1.5790096E-3,5.18813E-2,-1.3319285E-2,3.9326727E-2],"split_indices":[5,5,5,4,4,5,5,436,230,0,32,15,0,5,15,20,0,12,0,20,4,1232,0,9,18,12,7,19,713,5,0,16,20,0,20,0,17,49,8,19,0,0,0,19,7,13,4,0,16,5,16,18,5,7,0,18,488,0,0,17,19,15,15,17,16,18,0,16,19,17,20,17,0,5,0,0,4,7,19,1,0,25,16,0,1,17,367,14,20,556,20,0,12,0,2,0,14,9,16,0,0,20,16,8,16,0,0,1,0,0,0,4,17,18,326,20,2,0,0,1,19,2,17,19,0,18,16,18,14,19,19,0,18,17,0,17,19,17,15,2,20,5,0,0,0,0,1,42,0,0,12,18,5,0,0,0,0,0,0,0,0,0,0,0,0,0,0,0,0,0,0,0,0,0,0,0,0,0,0,0,0,0,0,0,0,0,0,0,0,0,0,0,0,0,0,0,0,0,0,0,0,0,0,0,0,0,0,0,0,0,0,0,0,0,0,0,0,0,0,0,0,0,0,0,0,0,0,0,0,0,0,0,0,0,0,0,0],"split_type":[0,0,0,0,0,0,0,0,0,0,0,0,0,0,0,0,0,0,0,0,0,0,0,0,0,0,0,0,0,0,0,0,0,0,0,0,0,0,0,0,0,0,0,0,0,0,0,0,0,0,0,0,0,0,0,0,0,0,0,0,0,0,0,0,0,0,0,0,0,0,0,0,0,0,0,0,0,0,0,0,0,0,0,0,0,0,0,0,0,0,0,0,0,0,0,0,0,0,0,0,0,0,0,0,0,0,0,0,0,0,0,0,0,0,0,0,0,0,0,0,0,0,0,0,0,0,0,0,0,0,0,0,0,0,0,0,0,0,0,0,0,0,0,0,0,0,0,0,0,0,0,0,0,0,0,0,0,0,0,0,0,0,0,0,0,0,0,0,0,0,0,0,0,0,0,0,0,0,0,0,0,0,0,0,0,0,0,0,0,0,0,0,0,0,0,0,0,0,0,0,0,0,0,0,0,0,0,0,0,0,0,0,0,0,0,0,0,0,0,0,0,0,0,0,0,0,0,0,0,0,0,0,0,0,0,0,0],"sum_hessian":[3.3726807E3,1.395683E3,1.9769978E3,6.356025E2,7.600805E2,1.2286376E3,7.483603E2,3.8994873E2,2.4565372E2,2.815337E2,4.7854678E2,6.340538E2,5.9458374E2,4.717021E2,2.7665823E2,3.8672113E2,3.2276037E0,2.4344771E2,2.206015E0,1.0937296E2,1.7216074E2,4.7106015E2,7.486641E0,4.8659775E1,5.85394E2,1.5230022E1,5.793537E2,2.216215E2,2.5008058E2,2.734644E2,3.1938367E0,5.4749227E0,3.8124622E2,3.4610307E0,2.3998668E2,2.9974585E0,1.063755E2,1.4297327E2,2.9187464E1,4.6781897E2,3.2411866E0,3.4930418E0,3.993599E0,8.990846E0,3.9668926E1,1.339119E2,4.514821E2,4.9953094E0,1.0234713E1,2.5489551E2,3.2445822E2,1.913504E2,3.0271109E1,2.4634288E2,3.7377055E0,1.8540031E2,8.806407E1,3.2336698E0,2.241253E0,2.8466434E2,9.658187E1,4.2567375E1,1.974193E2,1.0088516E2,5.4903374E0,1.3872949E2,4.243771E0,4.992599E0,2.4194866E1,4.5039517E2,1.7423786E1,5.9931917E0,2.997654E0,2.123454E1,1.8434387E1,2.9985182E1,1.0392672E2,1.8736082E1,4.32746E2,7.9857416E0,2.2489712E0,9.960287E1,1.5529263E2,2.748678E0,3.2170953E2,6.881607E1,1.22534325E2,7.469257E0,2.2801851E1,2.146739E2,3.1668972E1,1.0971196E2,7.5688354E1,8.025833E1,7.8057437E0,2.482722E0,2.821816E2,1.0416549E1,8.616532E1,6.852793E0,3.571458E1,1.4986912E1,1.8243239E2,9.314417E1,7.740989E0,2.9966056E0,2.4937315E0,1.3598352E2,2.7459784E0,2.2455823E0,2.7470164E0,1.5210701E1,8.984164E0,1.9874258E1,4.3052094E2,8.715116E0,8.708672E0,2.2472296E0,3.745962E0,9.244635E0,1.1989905E1,4.9868574E0,1.344753E1,2.6488129E1,3.497053E0,9.737698E0,9.418902E1,7.993166E0,1.0742915E1,4.2426407E2,8.481941E0,3.4903533E0,4.4953885E0,9.6354614E1,3.248252E0,4.2658794E1,1.1263384E2,5.1365814E1,2.7034372E2,6.3092564E1,5.723506E0,1.1855103E2,3.983294E0,3.7352214E0,3.7340353E0,3.223231E0,1.957862E1,2.0998192E2,4.6919894E0,2.2289073E0,2.9440063E1,6.2151768E1,1.3536586E1,5.366102E0,2.4396415E0,3.43769E1,2.4780472E2,8.18785E0,2.2286987E0,1.2624294E1,7.354102E1,3.6693194E0,3.1834736E0,2.2110305E0,1.2775882E1,2.7024345E0,1.7972995E2,7.615802E1,1.6986156E1,5.243495E0,2.4974945E0,5.2165733E1,8.381778E1,9.22501E0,5.985691E0,4.73999E0,4.244174E0,1.7637918E1,2.2363381E0,4.2778195E2,2.738972E0,4.4848347E0,4.2302804E0,2.4887288E0,6.2199426E0,6.2460737E0,2.9985611E0,4.49405E0,7.4958553E0,2.7433836E0,2.2434735E0,2.2438245E0,1.1203706E1,1.9990288E1,6.4978414E0,3.7414165E0,5.996281E0,3.4967628E0,9.069226E1,2.2492597E0,5.7439065E0,4.747422E0,5.995493E0,1.5164879E2,2.726153E2,4.4912086E0,3.9907331E0,2.2489774E0,2.2464108E0,6.0938698E1,3.5415916E1,1.3730231E1,2.8928562E1,1.0139059E2,1.12432575E1,1.2468676E1,3.8897137E1,1.4447154E2,1.2587219E2,1.2671696E1,5.0420868E1,2.7362523E0,2.9872537E0,7.956556E0,1.10594475E2,1.3400783E1,6.177837E0,1.9785486E2,1.2127066E1,2.223935E0,2.4680545E0,1.4347178E1,1.5092886E1,2.9421206E0,5.920965E1,4.933185E0,8.603401E0],"tree_param":{"num_deleted":"0","num_feature":"1406","num_nodes":"237","size_leaf_vector":"0"}},{"base_weights":[4.748205E-3,-6.5423155E-1,7.0229554E-1,-3.2582456E-1,-1.0684165E0,1.1288095E0,4.015188E-1,-5.434015E-1,-1.7829055E-1,-9.057143E-1,-1.4024969E0,1.3557364E0,9.5323294E-1,2.6553172E-1,5.879247E-1,-1.0924022E0,-5.1960945E-1,-3.2287568E-1,-7.1076795E-2,4.6372136E-1,-9.139812E-1,-1.4137065E0,-4.2023012E-1,1.2372385E0,1.4773108E0,9.6479434E-1,-3.8740426E-1,5.999024E-1,2.0116822E-1,6.0200936E-1,-4.8694167E-1,-1.8822116E-1,-1.4246914E0,-5.343346E-1,6.7384964E-1,-1.6175431E-1,-5.62777E-1,1.8625747E-1,-1.5871067E-1,-1.1462772E0,-8.6902255E-1,-2.922382E-1,-1.4227793E0,1.2576871E0,3.2022876E-1,1.4880146E0,5.5914164E-1,9.7492284E-1,-4.0601614E-1,6.514615E-1,-3.457607E-1,3.6807865E-1,5.137484E-2,6.1216795E-1,-5.4885E-1,4.0848634E-1,-1.1789781E0,-4.482091E-1,-6.921135E-1,7.552094E-1,-2.5224465E-1,-7.367389E-1,-2.8469402E-1,3.540279E-1,-3.912363E-1,1.0751774E0,-1.9253151E-1,1.630369E-1,-1.2078438E0,-2.0222816E-1,-8.8221693E-1,-1.4284571E0,-5.5039144E-1,1.287356E0,6.221448E-1,1.503931E0,7.544828E-1,9.838212E-1,-1.03117034E-1,-2.3173003E-1,7.039406E-1,4.1720235E-1,-1.8207899E-1,2.1627475E-2,1.2928141E0,6.240508E-1,-3.891761E-1,5.779425E-1,-4.9601248E-1,3.684237E-2,-7.72162E-1,4.1681096E-1,1.454371E0,-9.1294485E-1,-1.6668299E-1,-9.5344627E-1,-2.939237E-1,-6.9343716E-1,4.140124E-2,4.6616638E-1,-4.0788126E-1,-6.398102E-1,5.150099E-1,3.7221318E-1,1.4651399E0,-1.6771577E-1,-1.1385326E0,-1.2632465E0,-2.8540697E-2,-7.7642155E-1,4.3871215E-1,-8.329063E-1,-1.2140629E0,-1.4341451E0,-5.588951E-1,1.3196179E0,8.8266367E-1,1.0022438E0,-3.2565472E-1,1.5157762E0,6.1533344E-1,9.920083E-1,-1.7650078E-1,-7.9844534E-1,4.0682435E-1,8.544668E-1,3.7068984E-1,3.1292278E-1,7.1745193E-1,1.3614437E-2,-1.1185447E0,-8.44563E-1,6.660338E-2,6.388245E-1,-1.1633644E-1,1.0545831E0,2.6469193E-2,-5.2056295E-1,3.674421E-1,-1.1892549E0,5.305425E-1,-8.0222523E-1,5.187862E-1,8.660403E-1,-1.4927799E-1,2.4028465E-1,-1.2768488E0,-2.4411176E-1,6.4807045E-1,-7.052089E-1,-1.3665816E0,4.745856E-1,-5.973444E-1,9.177121E-2,-8.962234E-1,2.906668E-1,-8.444351E-1,-4.709815E-2,5.8732605E-1,-1.1593533E0,4.2484817E-1,-1.2329733E0,-1.7550147E-1,-1.8760523E-1,8.9882535E-1,-5.5225575E-1,-1.3994259E0,-1.313083E0,-4.802029E-1,-9.775635E-1,-3.343937E-1,-8.6615866E-1,-2.585038E-1,-5.638403E-1,-1.3288325E0,-1.4422978E0,-7.1810484E-1,6.749332E-1,1.3409953E0,1.2649428E0,-1.07310414E-1,1.2339629E0,5.452278E-1,1.0024567E0,1.5096301E-1,2.7519956E-1,9.483402E-1,-2.8912777E-1,5.654074E-1,3.5956046E-1,-7.8527683E-1,5.839398E-1,1.5900648E0,-2.5637725E-1,9.2280054E-1,-9.604268E-2,-1.3217908E0,8.4500676E-1,2.5654165E-2,6.4749545E-1,-3.458811E-1,-9.418903E-1,5.735333E-1],"categories":[],"categories_nodes":[],"categories_segments":[],"categories_sizes":[],"default_left":[true,true,true,true,true,true,true,true,true,true,true,true,true,true,true,true,true,true,true,false,true,true,false,true,true,true,false,true,true,true,true,false,false,true,false,true,true,true,true,true,true,false,true,true,false,true,false,true,false,true,false,true,true,true,false,false,false,true,true,true,true,true,true,true,true,true,true,false,true,true,true,true,false,true,true,true,false,true,false,true,true,true,true,true,false,true,false,true,true,true,true,true,false,true,true,true,true,true,true,true,true,true,false,false,false,true,true,true,false,true,false,true,true,true,false,true,true,true,false,false,false,true,false,false,false,true,true,true,true,true,false,true,true,true,true,false,false,false,false,false,false,false,false,false,false,false,false,false,false,false,false,false,false,false,false,false,false,false,false,false,false,false,false,false,false,false,false,false,false,false,false,false,false,false,false,false,false,false,false,false,false,false,false,false,false,false,false,false,false,false,false,false,false,false,false,false,false,false,false,false,false,false,false],"id":6,"left_children":[1,3,5,7,9,11,13,15,17,19,21,23,25,27,29,31,33,35,37,-1,39,41,-1,43,45,47,-1,49,51,53,55,-1,-1,57,-1,59,61,63,65,67,69,-1,71,73,-1,75,-1,77,-1,79,-1,81,83,85,-1,-1,-1,87,89,91,93,95,97,99,101,103,105,-1,107,109,111,113,-1,115,117,119,-1,121,-1,123,125,127,129,131,-1,133,-1,135,137,139,141,143,-1,145,147,149,151,153,155,157,159,161,-1,-1,-1,163,165,167,-1,169,-1,171,173,175,-1,177,179,181,-1,-1,-1,183,-1,-1,-1,185,187,189,191,193,-1,195,197,199,201,-1,-1,-1,-1,-1,-1,-1,-1,-1,-1,-1,-1,-1,-1,-1,-1,-1,-1,-1,-1,-1,-1,-1,-1,-1,-1,-1,-1,-1,-1,-1,-1,-1,-1,-1,-1,-1,-1,-1,-1,-1,-1,-1,-1,-1,-1,-1,-1,-1,-1,-1,-1,-1,-1,-1,-1,-1,-1,-1,-1,-1,-1,-1,-1,-1,-1,-1,-1],"loss_changes":[1.5354244E3,2.3328558E2,2.0770941E2,3.0701614E1,3.9994995E1,2.542273E1,2.4004929E1,4.490036E0,8.863243E0,6.2355347E0,2.1235352E0,2.3516846E0,6.2852173E0,1.1778988E1,6.367218E0,4.2915516E0,6.91568E0,9.33267E0,7.4815063E0,0E0,4.336548E0,2.0628662E0,0E0,2.4675446E0,5.246887E-1,5.649872E0,0E0,4.552416E0,1.1611494E1,4.971222E0,4.0398808E0,0E0,0E0,4.7046432E0,0E0,1.2408848E1,4.509325E0,8.316175E0,1.0516298E1,6.6187134E0,3.6218872E0,0E0,4.0948486E-1,2.0159454E0,0E0,4.5141602E-1,0E0,3.7077637E0,0E0,4.0799294E0,0E0,6.0177383E0,9.068594E0,4.92482E0,0E0,0E0,0E0,1.2136391E1,7.5252495E0,2.5822964E0,7.4667063E0,5.417923E0,5.2496915E0,5.823062E0,4.7168145E0,1.3030028E0,5.4736996E0,0E0,4.9429855E0,3.9026725E0,5.914978E0,3.815918E-1,0E0,6.864624E-1,3.4239368E0,4.562378E-1,0E0,3.718048E0,0E0,2.312292E0,3.697033E0,6.1044044E0,3.4454875E0,9.467441E0,0E0,4.332016E0,0E0,2.9198384E0,5.0955505E0,8.903769E0,4.910736E0,2.7951317E0,0E0,6.697891E0,7.7628508E0,3.0793266E0,5.1702332E0,2.8590107E0,5.264776E0,3.6305885E0,6.119425E0,4.1157265E0,0E0,0E0,0E0,5.1813054E0,1.4416456E-1,2.208992E0,0E0,1.5911913E-1,0E0,6.87558E0,3.1741028E0,3.4786987E-1,0E0,8.769226E-1,5.2405977E0,3.0851364E-3,0E0,0E0,0E0,3.10437E0,0E0,0E0,0E0,2.6945572E0,3.5890398E0,8.057387E0,5.052084E0,4.279656E0,0E0,4.158704E0,7.3279715E0,3.4837646E0,5.3589864E0,0E0,0E0,0E0,0E0,0E0,0E0,0E0,0E0,0E0,0E0,0E0,0E0,0E0,0E0,0E0,0E0,0E0,0E0,0E0,0E0,0E0,0E0,0E0,0E0,0E0,0E0,0E0,0E0,0E0,0E0,0E0,0E0,0E0,0E0,0E0,0E0,0E0,0E0,0E0,0E0,0E0,0E0,0E0,0E0,0E0,0E0,0E0,0E0,0E0,0E0,0E0,0E0,0E0,0E0,0E0,0E0,0E0,0E0,0E0,0E0,0E0,0E0,0E0,0E0,0E0,0E0,0E0,0E0],"parents":[2147483647,0,0,1,1,2,2,3,3,4,4,5,5,6,6,7,7,8,8,9,9,10,10,11,11,12,12,13,13,14,14,15,15,16,16,17,17,18,18,20,20,21,21,23,23,24,24,25,25,27,27,28,28,29,29,30,30,33,33,35,35,36,36,37,37,38,38,39,39,40,40,42,42,43,43,45,45,47,47,49,49,51,51,52,52,53,53,57,57,58,58,59,59,60,60,61,61,62,62,63,63,64,64,65,65,66,66,68,68,69,69,70,70,71,71,73,73,74,74,75,75,77,77,79,79,80,80,81,81,82,82,83,83,85,85,87,87,88,88,89,89,90,90,91,91,93,93,94,94,95,95,96,96,97,97,98,98,99,99,100,100,101,101,105,105,106,106,107,107,109,109,111,111,112,112,113,113,115,115,116,116,117,117,121,121,125,125,126,126,127,127,128,128,129,129,131,131,132,132,133,133,134,134],"right_children":[2,4,6,8,10,12,14,16,18,20,22,24,26,28,30,32,34,36,38,-1,40,42,-1,44,46,48,-1,50,52,54,56,-1,-1,58,-1,60,62,64,66,68,70,-1,72,74,-1,76,-1,78,-1,80,-1,82,84,86,-1,-1,-1,88,90,92,94,96,98,100,102,104,106,-1,108,110,112,114,-1,116,118,120,-1,122,-1,124,126,128,130,132,-1,134,-1,136,138,140,142,144,-1,146,148,150,152,154,156,158,160,162,-1,-1,-1,164,166,168,-1,170,-1,172,174,176,-1,178,180,182,-1,-1,-1,184,-1,-1,-1,186,188,190,192,194,-1,196,198,200,202,-1,-1,-1,-1,-1,-1,-1,-1,-1,-1,-1,-1,-1,-1,-1,-1,-1,-1,-1,-1,-1,-1,-1,-1,-1,-1,-1,-1,-1,-1,-1,-1,-1,-1,-1,-1,-1,-1,-1,-1,-1,-1,-1,-1,-1,-1,-1,-1,-1,-1,-1,-1,-1,-1,-1,-1,-1,-1,-1,-1,-1,-1,-1,-1,-1,-1,-1,-1],"split_conditions":[2.085E0,3.4650002E0,1.315E0,1.535E0,7.005E0,1.185E0,2.5749998E0,1.625E2,7.245E2,-9.5E1,7.7844477E-1,1.0445E1,5E-1,8.796828E-1,5E-1,5.333475E-1,1.995E2,-2.0229241E-1,8.575E2,1.7079784E-2,1.25E1,9.184804E-1,-1.5477914E-2,7.7148217E-1,7.75E1,5E-1,-1.4268872E-2,2.6666668E-1,2.329383E-2,5E-1,2.7E0,-6.9325613E-3,-5.247423E-2,2.815E0,2.4819229E-2,-4.8333335E-1,-7.4538976E-2,8.4E1,-9.75E1,-5E-1,-9.144361E-1,-1.0763717E-2,5E-1,8.17E0,1.1794665E-2,5E-1,2.0594303E-2,5E-1,-1.4954385E-2,-2.105E2,-1.2735058E-2,1.325E2,1.845E0,5E-1,-2.0215241E-2,1.5045368E-2,-4.342412E-2,-7.073479E-1,-4.8333335E-1,2.01E2,8.863703E-1,5.5994976E-1,1.745E0,1.3057513E0,5.7267356E-1,0E0,5E-1,6.0049747E-3,6.51E0,1.28E2,1.565E2,1.59675E4,-2.0272017E-2,5E-1,1.025E2,5E-1,2.7789108E-2,5E-1,-3.7980063E-3,5.708214E-1,3.829177E-1,7.35E1,4.03E2,2.1350002E0,4.7616925E-2,5E-1,-1.4334133E-2,2.665E0,5E-1,3.1550002E0,5E-1,9.002477E-2,5.3567387E-2,7.6782084E-1,-2.2465365E-1,-1.3846155E-1,-2.25E1,5E-1,6.655E2,5E-1,1.17E3,-3.1718737E-1,1.8968843E-2,1.3709355E-2,5.3964026E-2,5E-1,1.65E1,5E-1,-1.0512109E-3,5.045E0,1.6158644E-2,1.305E2,7.95E1,5E-1,-2.0585224E-2,5.9700003E0,5.9385246E-1,-1.3333334E-1,-1.1994514E-2,5.5829063E-2,2.266396E-2,5E-1,-6.5008765E-3,-2.9408338E-2,1.4984153E-2,-8.55E1,4.18072E-1,1.825E0,1.703764E-3,3.625E2,-4.1198235E-2,-2.95995E-1,-6.7604613E-1,5E-1,-2.1E1,3.8842402E-2,9.7491324E-4,-1.9173373E-2,1.3533627E-2,-4.3802634E-2,1.954094E-2,-2.9547557E-2,1.9107932E-2,3.1897992E-2,-5.4982062E-3,8.850164E-3,-4.702889E-2,-8.991124E-3,2.3869729E-2,-2.5974251E-2,-5.033393E-2,1.7479936E-2,-2.2001388E-2,3.3801168E-3,-3.30097E-2,1.0705838E-2,-3.110223E-2,-1.7347189E-3,2.1632392E-2,-4.2701297E-2,1.5648007E-2,-4.5412872E-2,-6.4640697E-3,-6.909875E-3,3.3105534E-2,-2.0340683E-2,-5.154365E-2,-4.8363473E-2,-1.7686833E-2,-3.6005616E-2,-1.2316388E-2,-3.1902354E-2,-9.5212115E-3,-2.0767365E-2,-4.8943557E-2,-5.312271E-2,-2.6449235E-2,2.4859138E-2,4.9391534E-2,4.659037E-2,-3.952457E-3,4.5449317E-2,2.008183E-2,3.692248E-2,5.560269E-3,1.013615E-2,3.4929264E-2,-1.0649153E-2,2.0825084E-2,1.324333E-2,-2.8923314E-2,2.150767E-2,5.8565263E-2,-9.442886E-3,3.3988588E-2,-3.5374437E-3,-4.8684195E-2,3.1123286E-2,9.4489416E-4,2.384855E-2,-1.2739492E-2,-3.4691703E-2,2.1124376E-2],"split_indices":[5,4,6,7,4,4,7,2,2,20,18,5,29,16,1092,18,20,17,2,0,20,16,0,19,0,1254,0,9,19,1302,7,0,0,6,0,12,17,1,20,14,17,0,69,7,0,189,0,776,0,20,0,0,6,39,0,0,0,17,9,1,16,18,5,16,18,9,1376,0,4,0,20,3,0,49,1,36,0,905,0,18,19,0,2,5,0,33,0,6,22,4,284,19,0,16,17,9,20,10,3,10,3,17,0,0,0,159,1,44,0,4,0,20,2,28,0,5,18,12,0,0,0,713,0,0,0,20,19,6,19,2,0,17,17,631,20,0,0,0,0,0,0,0,0,0,0,0,0,0,0,0,0,0,0,0,0,0,0,0,0,0,0,0,0,0,0,0,0,0,0,0,0,0,0,0,0,0,0,0,0,0,0,0,0,0,0,0,0,0,0,0,0,0,0,0,0,0,0,0,0,0,0,0,0],"split_type":[0,0,0,0,0,0,0,0,0,0,0,0,0,0,0,0,0,0,0,0,0,0,0,0,0,0,0,0,0,0,0,0,0,0,0,0,0,0,0,0,0,0,0,0,0,0,0,0,0,0,0,0,0,0,0,0,0,0,0,0,0,0,0,0,0,0,0,0,0,0,0,0,0,0,0,0,0,0,0,0,0,0,0,0,0,0,0,0,0,0,0,0,0,0,0,0,0,0,0,0,0,0,0,0,0,0,0,0,0,0,0,