{"learner":{"attributes":{},"gradient_booster":{"model":{"gbtree_model_param":{"num_trees":"20","size_leaf_vector":"0"},"tree_info":[0,0,0,0,0,0,0,0,0,0,0,0,0,0,0,0,0,0,0,0],"trees":[{"base_weights":[-5.930319E-3,6.0402906E-1,-6.1278135E-1,1.191358E0,3.8936457E-1,-1.0352265E0,-2.5703055E-1,9.10299E-1,1.3549019E0,9.3058735E-2,6.24621E-1,-1.318728E0,-7.4068666E-1,-5.237192E-1,-1.2731481E-2,1.264151E0,8.313253E-1,1.55E0,1.1771218E0,2.1179919E-1,-1.7549668E-1,7.93374E-1,4.779827E-1,-1.4587737E0,-1.0318471E0,-1.0223547E0,-6.479961E-1,-4.7212166E-1,-8.712871E-1,-2.2185154E-1,9.818664E-2,-2.857143E-1,1.3465346E0,4.5217392E-1,9.4025975E-1,1.7010676E0,1.3233831E0,-1.1764706E-1,1.1932774E0,2.3151606E-1,-7.6363635E-1,-1.1014493E-1,-5.536723E-1,-5.940594E-2,8.3113337E-1,5.0871634E-1,-1.0218978E-1,-1.3256956E0,-1.6913947E0,-1.1099477E0,-6.813187E-1,-6.4646465E-1,-1.1698114E0,9.52381E-2,-6.8629444E-1,1.2820514E-1,-5.072797E-1,-1.1944444E0,-6.818182E-1,7.4498564E-2,-3.4192038E-1,-6.6985644E-2,2.3934427E-1,1.3333334E-1,1.4136126E0,1.294964E-1,9.052632E-1,1.0014858E0,4.950495E-1,1.7236364E0,5E-1,1.4022988E0,7.586207E-1,8.965517E-1,1.2692764E0,2.1328273E-1,1.2340425E0,-1.1818181E0,6.666667E-1,-1.2941177E-1,9.4736844E-1,2.7027026E-1,-7.5E-1,-8.5714287E-1,2.3376623E-1,6.5798044E-1,9.53125E-1,5.1893187E-1,-9.4736844E-1,4.7058824E-1,-2.8037384E-1,-1.4633472E0,-1.1172962E0,-1.7526501E0,-1.3214285E0,-1.1341301E0,4E-1,-8.4563756E-1,5.4054055E-2,-9.655172E-1,-1.8604651E-1,-1.2034261E0,2.857143E-1,1.0588236E0,-8.695652E-2,-7.514586E-1,-2.4615385E-1,-4.379562E-2,1.1304348E0,-3.787767E-1,-6.443914E-1,-1.3333334E0,2.5E-1,-7.5E-1,-0E0,-2.2222222E-1,5.40146E-1,-4.390244E-1,8.695652E-2,7.234042E-1,-1.03792414E-1,1.251422E-1,5.275362E-1,1.5058824E0,5.6E-1,2.857143E-1,-6.666667E-1,1.0344827E0,-3.3333334E-1,1.3504274E0,9.2142856E-1,6.666667E-1,-2.857143E-1,1.7485714E0,1.0344827E0,1.4634147E0,3.3333334E-1,-1.0526316E-1,1.0697675E0,6.753247E-1,1.2682927E0,1.2845138E0,-0E0,2.2357878E-1,-1.3333334E0,1.3846154E0,3.3333334E-1,-1.3333334E0,-3.3333334E-1,4.262295E-1,-1.640706E-1,-4E-1,6.1538464E-1,8.695652E-2,-8.8E-1,-0E0,-1.3333334E0,7.368421E-1,-2.3255815E-1,6.923077E-1,-1.4634146E-1,9.654088E-1,-6.666667E-1,4.9100795E-1,1.0491803E0,1.4285715E0,-1.6666667E-1,2.3529412E-2,-1.2307693E0,-1.1924883E0,-1.5642023E0,-1.1463414E0,1.3333334E-1,-1.7634408E0,-6.666667E-1,-1.4E0,-5E-1,-1.2842106E0,-9.708223E-1,-1.2941177E0,-4.4705883E-1,6.666667E-1,-4.347826E-1,-4.3137255E-1,-1.3043479E0,1.2E0,-4.5333335E-1,-1.2882205E0,-6.666667E-1,-1E0,1.5789473E-1,-7.6705885E-1,8.888889E-1,-7.368421E-1,-4.255319E-2,1.754386E-1,-9.62963E-1,1.4666667E0,3.3333334E-1,-4.0546697E-1,4.5454547E-1,-4.992948E-1,-8.2608694E-1,-1.4690266E0,-4.347826E-1,-7.9310346E-1,3.3333334E-1,5.263158E-1,-7.692308E-1,-6.526316E-1,1.12E-1,6.666667E-1,-1E0,-3.255814E-1,-7.4594593E-1,6.666667E-1,-1.981982E-1,2.3529412E-1,1.5294118E0,-7.770961E-2,-1E0,2.6615968E-1,-8.4033616E-2,6.018237E-1,-8E-1,1.552795E0,4.6153846E-1,-2.5E-1,1.3846154E0,5.753425E-1,-1.6E-1,3.3333334E-1,-1.25E0,3.1578946E-1,1.1666666E0,1.5051546E0,5E-1,-0E0,9.591078E-1,-3.1578946E-1,8.9855075E-1,-7.692308E-1,3.3333334E-1,1.7601547E0,6.666667E-1,1.5384616E-1,1.4E0,1.4875E0,3.3333334E-1,-5.714286E-1,1.1428572E0,4.4444445E-1,1.3103448E0,-5.714286E-1,7.777778E-1,9.3877554E-1,1.5675676E0,1.3101737E0,4.516129E-1,2.3038653E-1,-1.3333334E0,3.3333334E-1,1.6129032E0,-1.9354838E-1,9.411765E-1,1.0769231E0,-1.802935E-1,1.1111112E0,-3.3333334E-1,7.692308E-1,-5.714286E-1,-1.049505E0,-1.4285715E-1,-4.6153846E-1,1.1724138E0,4E-1,-6.666667E-1,-7.692308E-1,7.1085715E-1,-1E0,3.448276E-1,6.0606062E-2,9.863234E-1,5.668065E-1,3.140496E-1,-5E-1,1.2363636E0,2.5E-1,-6.666667E-1,-4.7272727E-1,8.235294E-1,-1.24E0,-3.529412E-1,-1.5785289E0,-6.666667E-1,-1.1718427E0,1.5384616E-1,-1.7839851E0,-1.04E0,-1.6595745E0,-1.0877193E0,1.3333334E-1,-1.3279133E0,-5.771812E-1,-1.2068965E0,-1.4576272E0,-1.5384616E-1,-1.0666667E0,-1.0169491E-1,-1.0769231E0,2.857143E-1,-1.0344827E0,3.0769232E-1,-6.2857145E-1,-1.7894737E0,6.0606062E-2,-7.826087E-1,-1.125E0,-1.6521739E0,-1.4545455E0,-2.962963E-1,-3.3333334E-1,-1.3333334E0,5.0980395E-1,-4.827586E-1,-6.503299E-1,-9.548989E-1,-1.0153847E0,6.666667E-1,1.8181819E-1,-6.938776E-1,-6.666667E-1,4.1758242E-1,-0E0,-1.3684211E0,-1.027027E0,-3.6728147E-1,-5E-1,8.75E-1,-5.3333336E-1,6.086956E-1,-8.5714287E-1,3.529412E-1,-1.804878E0,-1.2105263E0,-1.3846154E0,5.714286E-1,-1.08E0,-5.588235E-1,-3.888889E-1,-1.2592592E0,6.4285713E-1,-3.0136988E-1,1.5384616E-1,8.5106385E-1,8E-1,-3.68E-1,-5E-1,-1.1304348E0,8.8372093E-1,-1.3333334E-1,-7.878788E-1,4.8780486E-2,7.2727275E-1,-5E-1,-1.1713666E-1,5.3333336E-1,-1.4E0,-0E0,-4.680851E-1,3.3540374E-1,-2.8806585E-1,3.3898306E-1,1.0458716E0,3.75E-1,-1E0,-3.3333334E-1],"categories":[],"categories_nodes":[],"categories_segments":[],"categories_sizes":[],"default_left":[true,true,true,true,true,true,true,true,true,true,true,true,true,true,true,true,true,true,true,true,true,true,true,true,true,true,true,true,true,true,true,false,true,true,true,true,true,false,true,true,true,true,true,true,true,true,true,true,true,true,true,true,true,true,true,true,true,true,true,true,true,true,true,false,true,true,true,true,true,true,false,true,true,true,true,true,true,true,false,true,false,true,true,true,true,true,true,true,false,true,true,true,true,true,true,true,false,true,true,true,true,true,false,false,true,true,true,true,true,true,true,true,false,true,true,true,true,true,true,true,true,true,true,true,true,true,true,true,false,true,true,true,true,true,true,true,true,false,true,true,true,true,false,true,false,true,false,false,false,true,true,false,true,true,true,false,false,true,true,true,true,true,false,true,true,false,true,true,false,true,true,true,false,true,false,true,false,true,true,true,true,false,true,true,true,false,true,true,true,true,true,true,false,true,true,true,true,false,false,true,true,true,true,true,true,true,false,false,false,true,true,true,false,true,true,true,true,true,false,true,true,true,true,true,true,false,false,false,false,false,false,false,false,false,false,false,false,false,false,false,false,false,false,false,false,false,false,false,false,false,false,false,false,false,false,false,false,false,false,false,false,false,false,false,false,false,false,false,false,false,false,false,false,false,false,false,false,false,false,false,false,false,false,false,false,false,false,false,false,false,false,false,false,false,false,false,false,false,false,false,false,false,false,false,false,false,false,false,false,false,false,false,false,false,false,false,false,false,false,false,false,false,false,false,false,false,false,false,false,false,false,false,false,false,false,false,false,false,false,false,false,false,false,false,false,false,false,false,false,false,false,false,false,false,false,false,false,false,false,false,false,false,false,false,false,false,false,false,false,false,false,false,false,false,false,false,false],"id":0,"left_children":[1,3,5,7,9,11,13,15,17,19,21,23,25,27,29,31,33,35,37,39,41,43,45,47,49,51,53,55,57,59,61,-1,63,65,67,69,71,-1,73,75,77,79,81,83,85,87,89,91,93,95,97,99,101,103,105,107,109,111,113,115,117,119,121,-1,123,125,127,129,131,133,-1,135,137,139,141,143,145,147,-1,149,-1,151,153,155,157,159,161,163,-1,165,167,169,171,173,175,177,-1,179,181,183,185,187,-1,-1,189,191,193,195,197,199,201,203,-1,205,207,209,211,213,215,217,219,221,223,225,227,229,231,233,-1,235,237,239,241,243,245,247,249,-1,251,253,255,257,-1,259,-1,261,-1,-1,-1,263,265,-1,267,269,271,-1,-1,273,275,277,279,281,-1,283,285,-1,287,289,-1,291,293,295,-1,297,-1,299,-1,301,303,305,307,-1,309,311,313,-1,315,317,319,321,323,325,-1,327,329,331,333,-1,-1,335,337,339,341,343,345,347,-1,-1,-1,349,351,353,-1,355,357,359,361,363,-1,365,367,369,371,373,375,-1,-1,-1,-1,-1,-1,-1,-1,-1,-1,-1,-1,-1,-1,-1,-1,-1,-1,-1,-1,-1,-1,-1,-1,-1,-1,-1,-1,-1,-1,-1,-1,-1,-1,-1,-1,-1,-1,-1,-1,-1,-1,-1,-1,-1,-1,-1,-1,-1,-1,-1,-1,-1,-1,-1,-1,-1,-1,-1,-1,-1,-1,-1,-1,-1,-1,-1,-1,-1,-1,-1,-1,-1,-1,-1,-1,-1,-1,-1,-1,-1,-1,-1,-1,-1,-1,-1,-1,-1,-1,-1,-1,-1,-1,-1,-1,-1,-1,-1,-1,-1,-1,-1,-1,-1,-1,-1,-1,-1,-1,-1,-1,-1,-1,-1,-1,-1,-1,-1,-1,-1,-1,-1,-1,-1,-1,-1,-1,-1,-1,-1,-1,-1,-1,-1,-1,-1,-1,-1,-1,-1,-1,-1,-1,-1,-1,-1,-1,-1,-1,-1,-1],"loss_changes":[2.247393E3,3.8130237E2,4.5712695E2,3.5998657E1,1.5462357E2,1.1517529E2,1.07721794E2,7.3605194E0,1.5864563E1,3.1391438E1,3.0224976E1,2.6919556E1,1.7208405E1,1.37651825E1,2.0062439E1,7.1519547E0,9.859192E0,5.965088E0,5.8091125E0,1.3298187E1,7.4027767E0,1.8516327E1,1.1896103E1,1.240033E1,5.690918E0,8.541718E0,1.4802902E1,1.4638947E1,5.369667E0,1.0691301E1,1.3195023E1,0E0,3.9211578E0,8.289369E0,4.75148E0,2.9466858E0,3.4153442E0,0E0,4.9000244E0,1.197485E1,9.01212E0,5.394616E0,7.3607044E0,6.105696E0,1.0974762E1,9.877533E0,3.6274924E0,7.128723E0,1.5026245E0,7.427887E0,5.5437336E0,7.0918007E0,6.178421E0,4.7005234E0,1.3940613E1,6.772494E0,1.1252487E1,7.5555573E0,3.068182E0,1.2175127E1,8.929525E0,7.67529E0,9.9721775E0,0E0,2.9176254E0,4.5125046E0,4.146038E0,3.4558105E0,3.5737858E0,5.5392456E-1,0E0,5.1959686E0,4.010129E0,3.9133606E0,4.0760193E0,1.0788067E1,1.1320248E0,9.6969795E-1,0E0,4.9806924E0,0E0,2.385863E0,3.9934788E0,2.857143E0,4.6873417E0,6.458557E0,7.0107117E0,8.772278E0,0E0,5.4271708E0,7.755115E0,3.0723572E0,4.720688E0,4.8254395E-1,1.1071434E0,3.367157E0,0E0,6.080063E0,3.0599294E0,4.685892E0,8.509147E0,4.4549713E0,0E0,0E0,5.2997713E0,1.1647064E1,6.462435E0,7.070759E0,1.0521736E0,7.729763E0,7.872238E0,3.3848915E0,0E0,3.0660896E0,3.2388663E0,7.8411226E0,7.3406315E0,5.824188E0,6.785742E0,4.262829E0,5.7778797E0,6.50443E0,8.987373E0,1.3655243E0,4.520769E0,3.9325244E0,3.9166667E0,1.6978226E0,0E0,3.096264E0,4.8606186E0,5.0678873E0,1.8278387E0,4.7140503E-1,2.1183028E0,1.7360687E0,5.0476193E0,0E0,1.0348396E0,5.362194E0,5.500412E-1,3.8590698E0,0E0,7.2522125E0,0E0,1.8023167E0,0E0,0E0,0E0,5.049243E0,5.0410624E0,0E0,3.4273503E0,3.022456E0,3.7547379E0,0E0,0E0,5.49993E0,3.2186046E0,6.5382843E0,4.642557E0,5.957947E0,0E0,7.8397217E0,9.462597E0,0E0,1.4166667E0,8.825668E0,0E0,1.6864014E0,5.999756E-1,4.2585144E0,0E0,2.1798706E-1,0E0,2.2135162E-1,0E0,6.0623474E0,8.061913E0,2.9453182E0,4.438817E0,0E0,2.9679885E0,6.0014563E0,4.5303707E0,0E0,3.2204483E0,4.066925E0,4.8215494E0,6.66667E-1,4.5296965E0,8.697708E0,0E0,8.104722E0,6.994671E0,6.08984E0,2.635478E0,0E0,0E0,7.4374046E0,4.852273E0,7.009514E0,5.3554993E0,2.6774597E-1,6.2866697E0,3.2948914E0,0E0,0E0,0E0,3.3101368E0,7.051248E0,2.9187136E0,0E0,6.453582E0,3.808342E0,2.4620152E0,4.0799026E0,3.4385028E0,0E0,5.952874E0,2.8000002E0,6.8427305E0,7.8007307E0,7.892065E0,1.333332E-1,0E0,0E0,0E0,0E0,0E0,0E0,0E0,0E0,0E0,0E0,0E0,0E0,0E0,0E0,0E0,0E0,0E0,0E0,0E0,0E0,0E0,0E0,0E0,0E0,0E0,0E0,0E0,0E0,0E0,0E0,0E0,0E0,0E0,0E0,0E0,0E0,0E0,0E0,0E0,0E0,0E0,0E0,0E0,0E0,0E0,0E0,0E0,0E0,0E0,0E0,0E0,0E0,0E0,0E0,0E0,0E0,0E0,0E0,0E0,0E0,0E0,0E0,0E0,0E0,0E0,0E0,0E0,0E0,0E0,0E0,0E0,0E0,0E0,0E0,0E0,0E0,0E0,0E0,0E0,0E0,0E0,0E0,0E0,0E0,0E0,0E0,0E0,0E0,0E0,0E0,0E0,0E0,0E0,0E0,0E0,0E0,0E0,0E0,0E0,0E0,0E0,0E0,0E0,0E0,0E0,0E0,0E0,0E0,0E0,0E0,0E0,0E0,0E0,0E0,0E0,0E0,0E0,0E0,0E0,0E0,0E0,0E0,0E0,0E0,0E0,0E0,0E0,0E0,0E0,0E0,0E0,0E0,0E0,0E0,0E0,0E0,0E0,0E0,0E0,0E0,0E0,0E0,0E0,0E0,0E0,0E0,0E0,0E0,0E0,0E0,0E0,0E0],"parents":[2147483647,0,0,1,1,2,2,3,3,4,4,5,5,6,6,7,7,8,8,9,9,10,10,11,11,12,12,13,13,14,14,15,15,16,16,17,17,18,18,19,19,20,20,21,21,22,22,23,23,24,24,25,25,26,26,27,27,28,28,29,29,30,30,32,32,33,33,34,34,35,35,36,36,38,38,39,39,40,40,41,41,42,42,43,43,44,44,45,45,46,46,47,47,48,48,49,49,50,50,51,51,52,52,53,53,54,54,55,55,56,56,57,57,58,58,59,59,60,60,61,61,62,62,64,64,65,65,66,66,67,67,68,68,69,69,71,71,72,72,73,73,74,74,75,75,76,76,77,77,79,79,81,81,82,82,83,83,84,84,85,85,86,86,87,87,89,89,90,90,91,91,92,92,93,93,94,94,95,95,97,97,98,98,99,99,100,100,101,101,104,104,105,105,106,106,107,107,108,108,109,109,110,110,111,111,113,113,114,114,115,115,116,116,117,117,118,118,119,119,120,120,121,121,122,122,123,123,124,124,125,125,126,126,127,127,129,129,130,130,131,131,132,132,133,133,134,134,135,135,136,136,138,138,139,139,140,140,141,141,143,143,145,145,149,149,150,150,152,152,153,153,154,154,157,157,158,158,159,159,160,160,161,161,163,163,164,164,166,166,167,167,169,169,170,170,171,171,173,173,175,175,177,177,178,178,179,179,180,180,182,182,183,183,184,184,186,186,187,187,188,188,189,189,190,190,191,191,193,193,194,194,195,195,196,196,199,199,200,200,201,201,202,202,203,203,204,204,205,205,209,209,210,210,211,211,213,213,214,214,215,215,216,216,217,217,219,219,220,220,221,221,222,222,223,223,224,224],"right_children":[2,4,6,8,10,12,14,16,18,20,22,24,26,28,30,32,34,36,38,40,42,44,46,48,50,52,54,56,58,60,62,-1,64,66,68,70,72,-1,74,76,78,80,82,84,86,88,90,92,94,96,98,100,102,104,106,108,110,112,114,116,118,120,122,-1,124,126,128,130,132,134,-1,136,138,140,142,144,146,148,-1,150,-1,152,154,156,158,160,162,164,-1,166,168,170,172,174,176,178,-1,180,182,184,186,188,-1,-1,190,192,194,196,198,200,202,204,-1,206,208,210,212,214,216,218,220,222,224,226,228,230,232,234,-1,236,238,240,242,244,246,248,250,-1,252,254,256,258,-1,260,-1,262,-1,-1,-1,264,266,-1,268,270,272,-1,-1,274,276,278,280,282,-1,284,286,-1,288,290,-1,292,294,296,-1,298,-1,300,-1,302,304,306,308,-1,310,312,314,-1,316,318,320,322,324,326,-1,328,330,332,334,-1,-1,336,338,340,342,344,346,348,-1,-1,-1,350,352,354,-1,356,358,360,362,364,-1,366,368,370,372,374,376,-1,-1,-1,-1,-1,-1,-1,-1,-1,-1,-1,-1,-1,-1,-1,-1,-1,-1,-1,-1,-1,-1,-1,-1,-1,-1,-1,-1,-1,-1,-1,-1,-1,-1,-1,-1,-1,-1,-1,-1,-1,-1,-1,-1,-1,-1,-1,-1,-1,-1,-1,-1,-1,-1,-1,-1,-1,-1,-1,-1,-1,-1,-1,-1,-1,-1,-1,-1,-1,-1,-1,-1,-1,-1,-1,-1,-1,-1,-1,-1,-1,-1,-1,-1,-1,-1,-1,-1,-1,-1,-1,-1,-1,-1,-1,-1,-1,-1,-1,-1,-1,-1,-1,-1,-1,-1,-1,-1,-1,-1,-1,-1,-1,-1,-1,-1,-1,-1,-1,-1,-1,-1,-1,-1,-1,-1,-1,-1,-1,-1,-1,-1,-1,-1,-1,-1,-1,-1,-1,-1,-1,-1,-1,-1,-1,-1,-1,-1,-1,-1,-1,-1],"split_conditions":[5E-1,-6.6820395E-1,-4.8243523E-1,2.370078E-1,6.743641E-2,-2.571302E-1,-9.1475636E-2,-2.68E2,-8.445195E-1,-1.5029293E-1,-3.934955E-1,-6.828762E-1,-7.694639E-1,4.6060607E-1,-2.793912E-1,7.470161E-1,-7.878932E-5,5E-1,3.546542E-1,1.6527712E0,1.3518302E0,5.177736E-1,5E-1,1.560967E0,6.3278806E-1,5.95E1,8.637695E-1,3.15E1,3.1666666E-1,9.913279E-1,6.744559E-2,-1.0523428E-2,4.6428573E-1,1.3221743E0,2.15E1,2.6E1,1.1839867E0,-4.333176E-3,1.3333334E-1,1.460772E0,3.85E1,5E-1,6.666667E-2,1.235027E0,1.2698413E-1,5E-1,5E-1,-8.391608E-2,4E-1,5E-1,-7.1794875E-2,5.3285325E-1,5E-1,7.085413E-1,5.2190477E-1,-7.5046904E-2,3.3333335E-2,3.75E1,5.3333336E-1,-1.2698413E-1,1.3181319E0,8.1617236E-1,1.2698413E-1,4.9109333E-3,3.0952382E-1,1.281534E0,-2.55E1,5.1144594E-1,-6.795494E-1,5E-1,1.8415999E-2,8E-1,-1.3333334E-1,3.25E1,5E-1,5E-1,1.5692389E0,-2.5357145E-1,2.4554666E-2,2.65E1,3.489347E-2,1.4E1,-2.820513E-1,5.1626706E-1,1.3333334E-1,1.2145512E0,5E-1,1.5494378E0,-3.489347E-2,1.1060842E0,5.55E1,1.3333334E-1,5E-1,-6.974576E-1,5E-1,5E-1,1.47327995E-2,9.05E1,-6.165762E-1,1.3242037E0,5.352775E-1,5E-1,1.0523428E-2,3.899859E-2,8.35837E-1,5E-1,-6.619929E-1,5.6108624E-1,-2.7799228E-2,1.496893E0,5.605557E-1,5E-1,9.207999E-3,1.585E2,-2.2279203E-1,5.287055E-1,3.62E2,-3.2747227E-1,-3.7926495E-2,8.619631E-3,6.3351035E-2,5E-1,1.67E2,1.9526619E-1,3.15E1,1.95E1,-8.238196E-1,5.108299E-1,-1.2277333E-2,-2.9E1,-9.402852E-1,2.35E1,5E-1,5E-1,-8.888889E-2,5E-1,1.613477E0,-3.8770523E-3,1.2173337E0,-2.6666668E-1,-4.6060607E-1,5E-1,-0E0,5E-1,-4.9109332E-2,1.4662724E0,1.2277333E-2,-4.9109332E-2,-1.2277333E-2,1.85E1,5.004558E-1,-1.47327995E-2,3.55E1,-7.785548E-2,7.083334E-1,-0E0,-4.9109332E-2,5E-1,4E-1,1.05E1,-4.6E1,-1.405E2,-2.4554666E-2,6.65E1,-5E-1,5.261714E-2,2.1E1,2.761733E-1,-4.533169E-2,1.0955927E0,5E-1,5E-1,4.9109333E-3,-3.1981188E-1,-2.4554666E-2,5.7643634E-1,-1.8415999E-2,-8E-1,7.05E1,-5.161964E-1,-6.425295E-1,2.4554666E-2,5E-1,1.2313919E0,2.95E1,4.4198398E-2,-8.4731936E-1,2.25E-1,2.5E-1,7.604555E-1,3.25E2,2.5174826E-1,3.2739554E-2,1.4569579E0,-5.1732373E-1,5E-1,-3.9789706E-1,5.4020263E-2,1.2277333E-2,-5.8713377E-1,-3.2392877E-1,1.5314511E0,4E-1,1.45E1,-3.307327E-1,-2.8153864E-1,1.2277333E-2,1.9385263E-2,-2.8332306E-2,1.845E2,5.573613E-1,-3.9885378E-1,-3.6831997E-2,5.0062346E-1,1.230021E0,5E-1,2.4568966E-1,1.305E2,5.633129E-2,5E-1,1.3358129E0,-4.8333335E-1,-7.3622406E-2,1.0137837E0,-1.7946401E-1,5.719254E-2,1.6999384E-2,-9.207999E-3,5.099815E-2,2.1191012E-2,-5.8931196E-3,1.2277333E-2,-4.604E-2,1.1631156E-2,4.297066E-2,5.543785E-2,1.8415999E-2,-0E0,3.5325855E-2,-1.1631156E-2,3.309542E-2,-2.8332306E-2,1.2277333E-2,6.483001E-2,2.4554666E-2,5.6664613E-3,5.1564794E-2,5.4787595E-2,1.2277333E-2,-2.1046856E-2,4.2093713E-2,1.6369777E-2,4.826262E-2,-2.1046856E-2,2.864711E-2,3.457698E-2,5.7736646E-2,4.8256315E-2,1.6633805E-2,8.485596E-3,-4.9109332E-2,1.2277333E-2,5.940645E-2,-7.1287733E-3,3.466541E-2,3.966523E-2,-6.64057E-3,4.0924445E-2,-1.2277333E-2,2.8332306E-2,-2.1046856E-2,-3.8655367E-2,-5.261714E-3,-1.6999384E-2,4.3182343E-2,1.47327995E-2,-2.4554666E-2,-2.8332306E-2,2.6182288E-2,-3.6831997E-2,1.2700689E-2,2.2322424E-3,3.632826E-2,2.0876616E-2,1.1567074E-2,-1.8415999E-2,4.5537744E-2,9.207999E-3,-2.4554666E-2,-1.7411489E-2,3.0332234E-2,-4.5671675E-2,-1.2999529E-2,-5.814037E-2,-2.4554666E-2,-4.3161307E-2,5.6664613E-3,-6.5707736E-2,-3.8305275E-2,-6.1125442E-2,-4.0062875E-2,4.9109333E-3,-4.8909698E-2,-2.1258738E-2,-4.445241E-2,-5.368732E-2,-5.6664613E-3,-3.9287467E-2,-3.7456267E-3,-3.966523E-2,1.0523428E-2,-3.8102064E-2,1.1332923E-2,-2.3151541E-2,-6.590989E-2,2.2322424E-3,-2.882504E-2,-4.1435998E-2,-6.0852863E-2,-5.3573817E-2,-1.0913185E-2,-1.2277333E-2,-4.9109332E-2,1.8777099E-2,-1.7780963E-2,-2.3952948E-2,-3.5170835E-2,-3.7398644E-2,2.4554666E-2,6.696727E-3,-2.5556898E-2,-2.4554666E-2,1.5380395E-2,-0E0,-5.040168E-2,-3.7827455E-2,-1.352771E-2,-1.8415999E-2,3.2227997E-2,-1.9643733E-2,2.2419475E-2,-3.1570286E-2,1.2999529E-2,-6.647726E-2,-4.4586103E-2,-5.099815E-2,2.1046856E-2,-3.977856E-2,-2.0582587E-2,-1.4323555E-2,-4.6381034E-2,2.3677712E-2,-1.1100055E-2,5.6664613E-3,3.134638E-2,2.9465599E-2,-1.3554175E-2,-1.8415999E-2,-4.163617E-2,3.2549206E-2,-4.9109333E-3,-2.901915E-2,1.7966827E-3,2.6786909E-2,-1.8415999E-2,-4.314377E-3,1.9643733E-2,-5.1564794E-2,-0E0,-1.724051E-2,1.235359E-2,-1.061004E-2,1.2485423E-2,3.852154E-2,1.3811999E-2,-3.6831997E-2,-1.2277333E-2],"split_indices":[14,11,11,13,13,13,13,14,11,11,11,11,11,6,11,9,13,29,10,10,10,12,52,10,12,14,10,0,2,10,13,0,2,10,0,0,10,0,3,9,0,24,2,9,3,547,41,3,3,1754,3,12,36,9,2,11,6,14,3,3,10,9,3,0,3,10,14,12,11,32,0,3,6,0,36,1509,9,11,0,0,0,0,3,12,6,10,1910,9,0,10,0,6,1717,11,17,29,0,14,11,9,12,44,0,0,9,2086,11,12,11,10,12,46,0,0,11,12,0,11,13,13,13,43,0,13,0,0,11,12,0,14,11,0,46,53,6,379,9,0,10,3,6,28,0,2370,0,10,0,0,0,0,12,0,0,11,2,0,0,5,3,0,14,14,0,0,5,0,0,13,0,9,1691,2465,0,13,0,12,0,3,0,11,11,0,43,9,0,0,11,3,2,9,0,6,0,10,11,41,13,0,0,13,11,10,3,0,11,13,0,0,0,0,12,11,0,12,9,50,2,0,0,52,9,3,11,10,11,0,0,0,0,0,0,0,0,0,0,0,0,0,0,0,0,0,0,0,0,0,0,0,0,0,0,0,0,0,0,0,0,0,0,0,0,0,0,0,0,0,0,0,0,0,0,0,0,0,0,0,0,0,0,0,0,0,0,0,0,0,0,0,0,0,0,0,0,0,0,0,0,0,0,0,0,0,0,0,0,0,0,0,0,0,0,0,0,0,0,0,0,0,0,0,0,0,0,0,0,0,0,0,0,0,0,0,0,0,0,0,0,0,0,0,0,0,0,0,0,0,0,0,0,0,0,0,0,0,0,0,0,0,0,0,0,0,0,0,0,0,0,0,0,0,0,0,0,0,0,0,0],"split_type":[0,0,0,0,0,0,0,0,0,0,0,0,0,0,0,0,0,0,0,0,0,0,0,0,0,0,0,0,0,0,0,0,0,0,0,0,0,0,0,0,0,0,0,0,0,0,0,0,0,0,0,0,0,0,0,0,0,0,0,0,0,0,0,0,0,0,0,0,0,0,0,0,0,0,0,0,0,0,0,0,0,0,0,0,0,0,0,0,0,0,0,0,0,0,0,0,0,0,0,0,0,0,0,0,0,0,0,0,0,0,0,0,0,0,0,0,0,0,0,0,0,0,0,0,0,0,0,0,0,0,0,0,0,0,0,0,0,0,0,0,0,0,0,0,0,0,0,0,0,0,0,0,0,0,0,0,0,0,0,0,0,0,0,0,0,0,0,0,0,0,0,0,0,0,0,0,0,0,0,0,0,0,0,0,0,0,0,0,0,0,0,0,0,0,0,0,0,0,0,0,0,0,0,0,0,0,0,0,0,0,0,0,0,0,0,0,0,0,0,0,0,0,0,0,0,0,0,0,0,0,0,0,0,0,0,0,0,0,0,0,0,0,0,0,0,0,0,0,0,0,0,0,0,0,0,0,0,0,0,0,0,0,0,0,0,0,0,0,0,0,0,0,0,0,0,0,0,0,0,0,0,0,0,0,0,0,0,0,0,0,0,0,0,0,0,0,0,0,0,0,0,0,0,0,0,0,0,0,0,0,0,0,0,0,0,0,0,0,0,0,0,0,0,0,0,0,0,0,0,0,0,0,0,0,0,0,0,0,0,0,0,0,0,0,0,0,0,0,0,0,0,0,0,0,0,0,0,0,0,0,0,0,0,0,0,0,0,0,0,0,0,0,0,0,0,0,0],"sum_hessian":[6.0695E3,3.027E3,3.0425E3,8.09E2,2.218E3,1.39E3,1.6525E3,3E2,5.09E2,9.8225E2,1.23575E3,7.065E2,6.835E2,7.895E2,8.63E2,5.2E1,2.48E2,2.39E2,2.7E2,6.8125E2,3.01E2,5.725E2,6.6325E2,4.72E2,2.345E2,1.6675E2,5.1675E2,6.895E2,1E2,2.9875E2,5.6425E2,2.5E0,4.95E1,5.65E1,1.915E2,1.395E2,9.95E1,3.25E0,2.6675E2,6.685E2,1.275E1,2.5775E2,4.325E1,2.425E1,5.4825E2,6.3E2,3.325E1,3.045E2,1.675E2,1.9E2,4.45E1,4.85E1,1.1825E2,2.525E1,4.915E2,3.8E1,6.515E2,3.5E1,6.5E1,8.625E1,2.125E2,2.6025E2,3.04E2,2.75E0,4.675E1,3.375E1,2.275E1,1.6725E2,2.425E1,1.365E2,3E0,8.6E1,1.35E1,5.7E1,2.0975E2,6.5775E2,1.075E1,1E1,2.75E0,2.54E2,3.75E0,8.25E0,3.5E1,6E0,1.825E1,2.2925E2,3.19E2,6.2625E2,3.75E0,7.5E0,2.575E1,1.7975E2,1.2475E2,1.405E2,2.7E1,1.8725E2,2.75E0,3.625E1,8.25E0,2.8E1,2.05E1,1.1575E2,2.5E0,3.25E0,2.2E1,4.275E2,6.4E1,3.325E1,4.75E0,3.3825E2,3.1325E2,3.2E1,3E0,5.9E1,6E0,5.3E1,3.325E1,1.7325E2,3.925E1,1.075E1,2.495E2,2.1875E2,8.525E1,4.15E1,5.25E0,2.875E1,5E0,2.075E1,2E0,2.825E1,1.39E2,2E1,4.25E0,1.3025E2,6.25E0,8.1E1,5E0,3.75E0,9.75E0,3.75E1,1.95E1,2.0725E2,2.5E0,6.5425E2,3.5E0,8.75E0,2E0,8E0,2E0,1.425E1,2.3975E2,2.75E0,5.5E0,4.75E0,3.025E1,2.5E0,3.5E0,8.5E0,9.75E0,2.2E2,9.25E0,3.17E2,2E0,5.9675E2,2.95E1,2.5E0,5E0,2.025E1,5.5E0,5.225E1,1.275E2,1.22E2,2.75E0,1.385E2,2E0,2.4E1,3E0,9.4E1,9.325E1,1.6E1,2.025E1,3.5E0,4.75E0,1.175E1,1.625E1,2.75E0,1.775E1,9.875E1,1.7E1,4E0,1.8E1,4.24E2,3.5E0,1.8E1,4.6E1,2.75E1,5.75E0,2.75E0,2E0,3.2825E2,1E1,1.7625E2,1.37E2,2.725E1,4.75E0,5.7E1,2E0,3.75E0,2.25E0,2.275E1,3.025E1,3.125E1,2E0,1.28E2,4.525E1,1.25E1,2.675E1,7.5E0,3.25E0,2.435E2,6E0,1.305E2,8.825E1,8.125E1,4E0,3.925E1,2.25E0,3E0,2.25E0,1.725E1,1.15E1,2E0,3E0,3.75E0,1.7E1,2.325E1,5E0,5.5E0,1.335E2,3.75E0,1.625E1,2.25E0,2E0,1.2825E2,2E0,2.25E0,4E0,7.9E1,2E0,2.5E0,2.5E0,3.5E0,6.25E0,2.5E0,3.5E1,1.125E1,8.25E0,2.005E2,6.75E0,6.5225E2,2E0,2E0,6.75E0,6.75E0,7.5E0,2.25E0,2.375E2,3.5E0,2E0,2.25E0,2.5E0,2.425E1,6E0,2.25E0,6.25E0,4E0,5.75E0,2.25E0,2.1775E2,3E0,6.25E0,7.25E0,3.0975E2,4.1625E2,1.805E2,3E0,2.65E1,3E0,2E0,1.275E1,7.5E0,4.9E1,3.25E0,1.2475E2,2.75E0,1.1975E2,2.25E0,1.3325E2,5.25E0,1.075E1,1.325E1,2.75E0,9.125E1,3.625E1,5.7E1,1.375E1,2.25E0,6.5E0,1.375E1,2.25E0,2.5E0,6.25E0,5.5E0,7.75E0,8.5E0,7.25E0,1.05E1,7.1E1,2.775E1,4.5E0,1.25E1,2E0,2E0,1.175E1,6.25E0,2.6425E2,1.5975E2,1.525E1,2.75E0,3.475E1,1.125E1,5.75E0,2.175E1,2E0,3.75E0,1.75E1,3.1075E2,3E0,7E0,1.715E2,4.75E0,1.3375E2,3.25E0,9.25E0,1.8E1,2.25E0,2.5E0,2.4E1,3.3E1,1.7E1,5.75E0,1.3E1,1.725E1,8.75E0,2.25E1,4E0,1.24E2,2.9E1,1.625E1,9.75E0,2.75E0,7.25E0,1.95E1,4.5E0,3E0,2.295E2,1.4E1,4E0,2E0,1.075E1,1.1975E2,5.975E1,2.85E1,2.625E1,5.5E1,2E0,2E0],"tree_param":{"num_deleted":"0","num_feature":"2494","num_nodes":"377","size_leaf_vector":"0"}},{"base_weights":[-1.4407321E-2,5.849848E-1,-6.14506E-1,1.0895289E0,3.375455E-1,-1.0305827E0,-2.687081E-1,1.3677992E0,8.9860064E-1,8.7060414E-2,5.7406974E-1,-1.3089771E0,-7.3543984E-1,-4.6839088E-1,7.484384E-2,1.153069E0,1.549113E0,5.2271366E-1,1.0246394E0,2.1297023E-1,-8.1545E-2,4.8843566E-1,8.207611E-1,-1.1961732E0,-1.5993674E0,-8.1990397E-1,-5.30809E-1,-3.0590978E-1,-5.940964E-1,2.7675888E-1,-2.3160886E-2,8.2209015E-1,1.2325395E0,1.5633448E0,1.379227E-1,-3.055055E-1,6.1462134E-1,8.314922E-1,1.1730092E0,2.2299513E-1,-1.250625E0,6.310088E-2,-2.6753134E-1,6.0773E-1,3.4366447E-1,4.792387E-1,9.493461E-1,-1.205813E0,4.3055293E-1,1.753074E-1,-1.6210903E0,-8.366202E-1,3.6470056E-1,-4.7766498E-1,-1.2655313E0,-3.3490282E-1,7.7583295E-1,-4.497428E-1,-8.113597E-1,3.401884E-2,3.8916376E-1,1.5473342E-1,-1.5747632E-1,-2.874701E-1,9.820405E-1,1.3751928E0,9.455373E-1,1.6971262E0,1.3700361E0,1.2599242E-1,-9.389353E-1,4.5750213E-1,1.3127794E0,5.5904096E-1,9.534E-1,3.7159514E-1,1.2103713E0,8.4105957E-1,2.0190792E-1,2.4992932E-1,-8.419114E-2,-1.960454E-1,-9.99056E-1,2.4729332E-1,6.6144264E-1,9.7197406E-2,4.7544435E-1,6.324262E-1,-2.8530777E-1,1.0553161E0,6.523338E-1,-1.6914303E0,-1.1721234E0,-1.7029952E0,-1.2289226E0,-9.9040645E-1,-7.302171E-1,-4.4242904E-1,8.164112E-1,-3.746967E-2,-5.949455E-1,-1.4835914E0,-2.653261E-1,-1.4999776E-1,-4.6574703E-1,1.1716933E0,1.6816896E-1,-2.4251983E-1,-6.2998086E-1,-8.9184076E-1,-4.419304E-1,-3.6964372E-1,2.5056827E-1,4.8871517E-1,1.0766968E-1,4.262517E-1,-8.4121354E-2,-4.1576323E-1,6.391876E-2,1.3029699E-1,-5.9323347E-1,1.0380946E0,1.1922277E-1,1.4125415E0,4.4632348E-1,7.919183E-1,1.3467695E0,1.7298697E0,7.3411673E-1,1.5125569E0,1.1381239E0,6.4568317E-1,-9.4699275E-1,-4.0800396E-1,-1.2194831E0,7.367698E-1,1.14107214E-1,1.4075278E0,4.752646E-1,-9.668379E-1,6.7194074E-1,3.9834434E-1,1.0444417E0,-9.587551E-1,8.451448E-1,1.2298642E0,-1.4539373E-1,1.1500239E0,-2.0771521E-1,1.6964223E-2,2.6945674E-1,4.83354E-2,5.565939E-1,-2.8038347E-1,1.7270961E-1,-6.604376E-1,-9.88325E-2,1.6151674E-1,-1.1971425E0,5.6428826E-1,-1.1660269E-1,6.7617875E-1,-4.897592E-1,4.7137853E-2,1.2252538E0,5.6678057E-1,-5.3461078E-3,1.2541885E0,4.249668E-1,-1.1616082E0,2.6541168E-2,4.0981552E-1,1.0975223E0,-5.425182E-1,7.5330824E-1,-1.1819135E0,2.859606E-1,-1.3385397E0,-4.0511927E-1,-1.0219035E0,6.0613394E-1,-6.793518E-1,-1.2721714E0,-2.8249E-1,8.7685543E-1,-6.815036E-1,-7.215203E-2,-1.7200043E0,-4.4520032E-1,1.0079867E0,-1.8745197E-1,-5.2386975E-1,4.6808545E-2,1.5251648E0,5.032092E-1,6.682783E-1,-4.606308E-1,-9.590782E-2,-8.4640497E-1,-5.6406987E-1,-1.2455509E0,-7.9439837E-1,-1.1965549E0,-8.75019E-3,-6.734203E-1,-1.0294796E0,-5.7333264E-2,5.6458914E-1,-9.406664E-2,5.4212356E-1,-2.983021E-1,6.87658E-1,-1.052314E-1,7.177983E-1,1.0957665E-2,1.11114874E-1,-6.828548E-1,-5.797413E-1,2.1882732E-3,4.4938454E-1,-1.1043543E-1,1.0941595E0,2.60964E-1,1.4801415E0,7.5286907E-1,-2.5063027E-2,8.9403003E-1,1.754494E0,1.011989E0,1.5846686E0,7.702014E-1,9.449531E-2,1.2141551E0,1.1785653E0,8.907235E-2,3.674722E-2,8.829092E-1,4.4559094E-1,-2.6545882E-1,1.0076482E0,3.5963055E-1,8.839391E-1,-3.9120364E-1,8.0501336E-1,1.3480755E0,-1.6712058E-1,1.1711402E0,1.1450807E0,1.5483829E0,3.0909476E-1,1.4209172E0,1.0929074E-1,-8.0280304E-1,1.1175927E0,2.5148246E-1,6.006588E-1,-2.3528628E-1,7.241154E-1,3.8058314E-2,8.034102E-2,-5.6327975E-1,2.772802E-1,-1.0068563E0,-1.3445877E0,-2.4939874E-1,1.23445E0,-1.6171488E-1,-1.5082892E0,-6.0605437E-1,3.6633298E-1,1.3115103E0,1.3192779E-1,-6.145145E-1,6.883646E-1,-6.820385E-1,-8.22481E-2,5.433863E-1,6.008427E-1,-1.7665583E-1,-8.697905E-1,1.3028952E-1,4.8039573E-1,1.5847807E0,8.333886E-2,9.223543E-1,5.899503E-1,-5.1781154E-1,-3.7781286E-1,8.294839E-1,6.016877E-1,1.1525403E0,2.2826622E-1,9.280476E-1,-1.1944678E0,-2.3854329E-1,-3.0176327E-1,-1.5193471E0,-1.359377E0,5.968173E-1,-1.0894884E0,-4.6767607E-1,-2.4228007E-1,-7.265027E-1,-6.415464E-1,-1.4477043E0,-3.9473966E-1,6.8327963E-1,1.3643117E-1,1.289559E0,-4.740285E-1,-9.3443656E-1,2.2134985E-1,-9.401077E-1,1.6035774E-1,1.4737942E0,6.856819E-1,-2.2771126E-1,-6.309648E-1,-1.5420848E-1,-4.557153E-1,6.01715E-1,-8.1695354E-1,-4.422133E-3,-9.603871E-1,4.7487992E-1,1.8586561E-1,-6.003645E-1,-1.3328032E0,-4.5287636E-1,1.5229377E-1,-8.3561695E-1,-5.8828104E-1,-1.424084E0,3.4833232E-1,-5.97944E-1,-8.8943535E-1,-3.5386264E-2,-2.8145885E-1,-1.3638486E0,7.828405E-1,-4.6361303E-1,7.0396E-1,-4.6678877E-1,8.882684E-1,-3.4129485E-1,1.9068582E-1,6.452826E-1,-1.2092264E0,5.756803E-1,9.554469E-1,-1.6248873E-1,-1.1195776E0,8.735319E-2,-1.9471958E-1,8.6910033E-1,-6.641317E-1,2.3352961E-1,-1.0164397E0,2.5196844E-1,-8.250971E-1,4.5733106E-1,-6.6127753E-1,6.7218083E-1,1.9046786E-1,-8.297251E-1,6.4455384E-1,-3.4397948E-1,-1.670978E-1,1.2108907E0],"categories":[],"categories_nodes":[],"categories_segments":[],"categories_sizes":[],"default_left":[true,true,true,true,true,true,true,true,true,true,true,true,true,true,true,true,true,true,true,true,true,true,true,true,true,true,true,true,true,true,true,true,true,true,false,true,true,true,true,true,false,true,true,true,true,true,true,true,false,false,true,true,true,true,true,true,true,true,true,true,true,true,true,true,true,true,true,true,true,true,true,true,true,true,true,true,true,true,true,true,true,true,true,true,true,true,true,true,true,true,true,false,true,false,true,true,true,false,false,true,true,true,false,true,true,true,true,true,true,true,true,true,true,true,true,true,true,true,true,false,false,true,false,true,false,true,false,true,false,true,true,true,false,false,false,true,true,false,false,false,true,true,true,false,true,true,false,true,false,true,true,true,true,true,true,true,true,false,true,true,true,true,false,true,false,true,true,true,true,false,true,true,true,false,true,true,false,true,true,true,false,true,true,true,true,true,true,false,false,true,true,true,true,false,false,false,false,true,true,true,true,true,true,true,true,true,true,true,true,true,true,true,true,true,true,true,true,true,true,true,true,false,false,false,false,false,false,false,false,false,false,false,false,false,false,false,false,false,false,false,false,false,false,false,false,false,false,false,false,false,false,false,false,false,false,false,false,false,false,false,false,false,false,false,false,false,false,false,false,false,false,false,false,false,false,false,false,false,false,false,false,false,false,false,false,false,false,false,false,false,false,false,false,false,false,false,false,false,false,false,false,false,false,false,false,false,false,false,false,false,false,false,false,false,false,false,false,false,false,false,false,false,false,false,false,false,false,false,false,false,false,false,false,false,false,false,false,false,false,false,false,false,false,false,false,false,false,false,false,false,false,false,false,false,false,false,false,false,false,false,false,false,false,false,false,false,false,false,false],"id":1,"left_children":[1,3,5,7,9,11,13,15,17,19,21,23,25,27,29,31,33,35,37,39,41,43,45,47,49,51,53,55,57,59,61,63,65,67,-1,69,71,73,75,77,-1,79,81,83,85,87,89,91,-1,-1,93,95,97,99,101,103,105,107,109,111,113,115,117,119,121,123,125,127,129,131,133,135,137,139,141,143,145,147,149,151,153,155,157,159,161,163,165,167,169,171,173,-1,175,-1,177,179,181,-1,-1,183,185,187,-1,189,191,193,195,197,199,201,203,205,207,209,211,213,215,217,219,-1,-1,221,-1,223,-1,225,-1,227,-1,229,231,233,-1,-1,-1,235,237,-1,-1,-1,239,241,243,-1,245,247,-1,249,-1,251,253,255,257,259,261,263,265,-1,267,269,271,273,-1,275,-1,277,279,281,283,-1,285,287,289,-1,291,293,-1,295,297,299,-1,301,303,305,307,309,311,-1,-1,313,315,317,319,-1,-1,-1,-1,321,323,325,327,329,331,333,335,337,339,341,343,345,347,349,351,353,355,357,359,361,363,365,367,-1,-1,-1,-1,-1,-1,-1,-1,-1,-1,-1,-1,-1,-1,-1,-1,-1,-1,-1,-1,-1,-1,-1,-1,-1,-1,-1,-1,-1,-1,-1,-1,-1,-1,-1,-1,-1,-1,-1,-1,-1,-1,-1,-1,-1,-1,-1,-1,-1,-1,-1,-1,-1,-1,-1,-1,-1,-1,-1,-1,-1,-1,-1,-1,-1,-1,-1,-1,-1,-1,-1,-1,-1,-1,-1,-1,-1,-1,-1,-1,-1,-1,-1,-1,-1,-1,-1,-1,-1,-1,-1,-1,-1,-1,-1,-1,-1,-1,-1,-1,-1,-1,-1,-1,-1,-1,-1,-1,-1,-1,-1,-1,-1,-1,-1,-1,-1,-1,-1,-1,-1,-1,-1,-1,-1,-1,-1,-1,-1,-1,-1,-1,-1,-1,-1,-1,-1,-1,-1,-1,-1,-1,-1,-1,-1,-1,-1,-1],"loss_changes":[2.1750693E3,3.7732153E2,4.3448108E2,5.1635864E1,1.2029425E2,1.11697876E2,1.1333525E2,1.390332E1,2.7560333E1,2.098531E1,2.1665863E1,2.1157837E1,1.1107513E1,2.115445E1,1.2036886E1,3.9422913E0,4.1140747E0,1.1678734E1,1.1721985E1,8.579348E0,1.139595E1,1.3225342E1,1.1300842E1,8.535828E0,7.7662354E0,9.629425E0,7.1248093E0,1.461533E1,1.8073349E1,5.409321E0,9.82596E0,7.2891693E0,4.837723E0,3.1918335E0,0E0,4.422232E0,1.4341099E1,5.974518E0,6.9804993E0,7.1642494E0,0E0,6.5908413E0,9.490884E0,8.067535E0,1.1442215E1,8.992533E0,5.4004974E0,6.3362427E0,0E0,0E0,4.068817E0,6.879608E0,3.0039537E0,9.590908E0,2.3863945E0,1.0731968E1,2.749504E0,1.3123535E1,6.5465393E0,5.6867623E0,3.751236E0,1.1513712E1,1.3420708E1,8.1152207E-1,1.5560837E0,2.7674255E0,2.1988106E0,2.5735474E0,1.3339539E0,6.32593E0,4.7043753E-1,1.0726095E1,1.2742615E0,1.1500044E1,6.352501E0,8.682957E0,6.4331055E0,6.1523733E0,6.8098354E0,6.4951696E0,6.8146105E0,7.6089597E0,3.9282417E0,6.6106863E0,6.5981293E0,6.97218E0,1.0113014E1,7.5924206E0,3.6512158E0,3.3907013E0,6.8623238E0,0E0,7.171997E0,0E0,2.7749748E0,1.0033005E1,6.81102E0,0E0,0E0,9.262842E0,6.601345E0,1.7497826E0,0E0,8.277268E0,7.799469E0,9.45549E-1,2.194491E0,1.4702589E1,6.9852905E0,4.711731E0,4.380287E0,4.628888E0,4.6252985E0,4.3647976E0,4.609735E0,1.0040626E1,1.1179589E1,7.419586E0,8.58428E0,0E0,0E0,1.1297989E0,0E0,3.063919E0,0E0,3.4208107E0,0E0,2.9522705E-1,0E0,1.6818161E0,2.997776E0,2.119178E0,0E0,0E0,0E0,6.3085365E0,6.62831E0,0E0,0E0,0E0,5.848112E0,8.20183E0,7.235298E0,0E0,3.4123445E0,4.5301514E0,0E0,2.8069267E0,0E0,1.121329E1,5.808777E0,1.0284281E1,3.5990305E0,7.8515835E0,7.5255733E0,7.8898907E0,1.2083264E1,0E0,1.6600437E0,4.030158E0,3.4523597E0,6.513489E0,0E0,7.765014E0,0E0,5.005642E0,4.538843E0,3.1390858E0,8.20596E0,0E0,3.602029E0,3.700564E0,2.899765E0,0E0,4.3517036E0,5.3494873E0,0E0,5.537632E0,6.3069787E0,6.380783E0,0E0,5.113785E0,1.5888481E0,3.7921665E0,2.4973512E0,6.1676903E0,5.8112206E0,0E0,0E0,2.1325417E0,6.5358267E0,9.185638E0,7.9422975E0,0E0,0E0,0E0,0E0,8.933818E0,5.3494625E0,4.8199883E0,6.06657E-1,5.8816833E0,5.2838326E0,3.6265202E0,3.8956566E0,1.4292774E0,5.9949565E0,3.5267153E0,5.403087E0,3.284628E0,6.268732E0,2.4317188E0,5.5179744E0,6.8993034E0,5.45114E0,1.1769225E1,4.188261E0,8.380434E0,5.0914664E0,6.3762646E0,6.8089476E0,0E0,0E0,0E0,0E0,0E0,0E0,0E0,0E0,0E0,0E0,0E0,0E0,0E0,0E0,0E0,0E0,0E0,0E0,0E0,0E0,0E0,0E0,0E0,0E0,0E0,0E0,0E0,0E0,0E0,0E0,0E0,0E0,0E0,0E0,0E0,0E0,0E0,0E0,0E0,0E0,0E0,0E0,0E0,0E0,0E0,0E0,0E0,0E0,0E0,0E0,0E0,0E0,0E0,0E0,0E0,0E0,0E0,0E0,0E0,0E0,0E0,0E0,0E0,0E0,0E0,0E0,0E0,0E0,0E0,0E0,0E0,0E0,0E0,0E0,0E0,0E0,0E0,0E0,0E0,0E0,0E0,0E0,0E0,0E0,0E0,0E0,0E0,0E0,0E0,0E0,0E0,0E0,0E0,0E0,0E0,0E0,0E0,0E0,0E0,0E0,0E0,0E0,0E0,0E0,0E0,0E0,0E0,0E0,0E0,0E0,0E0,0E0,0E0,0E0,0E0,0E0,0E0,0E0,0E0,0E0,0E0,0E0,0E0,0E0,0E0,0E0,0E0,0E0,0E0,0E0,0E0,0E0,0E0,0E0,0E0,0E0,0E0,0E0,0E0,0E0,0E0,0E0,0E0,0E0,0E0,0E0,0E0,0E0],"parents":[2147483647,0,0,1,1,2,2,3,3,4,4,5,5,6,6,7,7,8,8,9,9,10,10,11,11,12,12,13,13,14,14,15,15,16,16,17,17,18,18,19,19,20,20,21,21,22,22,23,23,24,24,25,25,26,26,27,27,28,28,29,29,30,30,31,31,32,32,33,33,35,35,36,36,37,37,38,38,39,39,41,41,42,42,43,43,44,44,45,45,46,46,47,47,50,50,51,51,52,52,53,53,54,54,55,55,56,56,57,57,58,58,59,59,60,60,61,61,62,62,63,63,64,64,65,65,66,66,67,67,68,68,69,69,70,70,71,71,72,72,73,73,74,74,75,75,76,76,77,77,78,78,79,79,80,80,81,81,82,82,83,83,84,84,85,85,86,86,87,87,88,88,89,89,90,90,92,92,94,94,95,95,96,96,99,99,100,100,101,101,103,103,104,104,105,105,106,106,107,107,108,108,109,109,110,110,111,111,112,112,113,113,114,114,115,115,116,116,117,117,118,118,121,121,123,123,125,125,127,127,129,129,130,130,131,131,135,135,136,136,140,140,141,141,142,142,144,144,145,145,147,147,149,149,150,150,151,151,152,152,153,153,154,154,155,155,156,156,158,158,159,159,160,160,161,161,163,163,165,165,166,166,167,167,168,168,170,170,171,171,172,172,174,174,175,175,177,177,178,178,179,179,181,181,182,182,183,183,184,184,185,185,186,186,189,189,190,190,191,191,192,192,197,197,198,198,199,199,200,200,201,201,202,202,203,203,204,204,205,205,206,206,207,207,208,208,209,209,210,210,211,211,212,212,213,213,214,214,215,215,216,216,217,217,218,218,219,219,220,220],"right_children":[2,4,6,8,10,12,14,16,18,20,22,24,26,28,30,32,34,36,38,40,42,44,46,48,50,52,54,56,58,60,62,64,66,68,-1,70,72,74,76,78,-1,80,82,84,86,88,90,92,-1,-1,94,96,98,100,102,104,106,108,110,112,114,116,118,120,122,124,126,128,130,132,134,136,138,140,142,144,146,148,150,152,154,156,158,160,162,164,166,168,170,172,174,-1,176,-1,178,180,182,-1,-1,184,186,188,-1,190,192,194,196,198,200,202,204,206,208,210,212,214,216,218,220,-1,-1,222,-1,224,-1,226,-1,228,-1,230,232,234,-1,-1,-1,236,238,-1,-1,-1,240,242,244,-1,246,248,-1,250,-1,252,254,256,258,260,262,264,266,-1,268,270,272,274,-1,276,-1,278,280,282,284,-1,286,288,290,-1,292,294,-1,296,298,300,-1,302,304,306,308,310,312,-1,-1,314,316,318,320,-1,-1,-1,-1,322,324,326,328,330,332,334,336,338,340,342,344,346,348,350,352,354,356,358,360,362,364,366,368,-1,-1,-1,-1,-1,-1,-1,-1,-1,-1,-1,-1,-1,-1,-1,-1,-1,-1,-1,-1,-1,-1,-1,-1,-1,-1,-1,-1,-1,-1,-1,-1,-1,-1,-1,-1,-1,-1,-1,-1,-1,-1,-1,-1,-1,-1,-1,-1,-1,-1,-1,-1,-1,-1,-1,-1,-1,-1,-1,-1,-1,-1,-1,-1,-1,-1,-1,-1,-1,-1,-1,-1,-1,-1,-1,-1,-1,-1,-1,-1,-1,-1,-1,-1,-1,-1,-1,-1,-1,-1,-1,-1,-1,-1,-1,-1,-1,-1,-1,-1,-1,-1,-1,-1,-1,-1,-1,-1,-1,-1,-1,-1,-1,-1,-1,-1,-1,-1,-1,-1,-1,-1,-1,-1,-1,-1,-1,-1,-1,-1,-1,-1,-1,-1,-1,-1,-1,-1,-1,-1,-1,-1,-1,-1,-1,-1,-1,-1],"split_conditions":[0E0,-6.0872966E-1,-4.8243523E-1,-8.07269E-1,8.128776E-2,-2.514369E-1,5.9437007E-4,3.583932E-1,9.483853E-2,5.226542E-1,3.6410373E-1,1.5736626E0,1.0188207E-2,3.3333335E-2,1.25E1,5E-1,8.126116E-1,1.0286944E0,5E-1,5E-1,-2.05E1,-2.9933563E-1,1.2380608E0,5E-1,5.4137695E-1,5E-1,1.3867246E0,1.2370535E0,5.4982615E-1,8.073646E-2,9.763355E-1,-9.3076825E-1,1.2258935E0,5E-1,5.079969E-3,2.675E2,2.99E2,1.3333334E-1,-7.2380954E-1,-1.545E2,-4.6063017E-2,1.1489047E0,1.5335675E0,4.919355E-1,-2.25E1,1.2076046E0,-2.5358975E-1,-9.3725395E-1,1.5858125E-2,6.4569213E-3,-7.109283E-1,5E-1,2.916667E-1,4.95E1,1.6235015E0,1.1019816E0,1.95E1,1.65E1,5.75E1,5E-1,3.030303E-1,7.15E1,1.0951803E0,-8.888889E-2,3.3335146E-1,1.503804E0,5.4301107E-1,5E-1,-8.9103276E-1,9.934685E-1,8.833632E-1,5.157574E-1,7.9E2,2.0833334E-1,-7.8205484E-1,1.49E2,7.148359E-1,3.1106032E-2,-1.5476191E-1,1.0998282E0,3.3333335E-2,8.1638783E-1,6.818182E-2,3.3333335E-2,5E-1,5E-1,2.3636365E-1,-4.778645E-1,6.3E1,-5.918154E-1,6.659497E-1,-6.2298756E-2,5E-1,-6.272472E-2,5E-1,5E-1,1.523216E0,-1.6295545E-2,3.0070055E-2,5E-1,2.9805142E-1,5.5E-1,-9.772491E-3,-4.6279365E-1,1.7142858E-1,-1.3333334E-1,1.2745476E0,4.8333335E-1,6.5E1,4E-1,1.166284E0,1.0708323E0,-7.512112E-2,-1.2121657E-2,1.1673589E-1,5E-1,-7.878788E-2,5.400157E-1,1.2472885E0,4.7990982E-3,-2.1849973E-2,1.4017544E0,4.3912125E-3,5.69579E-1,1.6438985E-2,1.2495892E0,4.9604207E-2,5E-1,2.7038986E-2,5.31E2,-8.8694465E-1,5.1400256E-1,-3.4879636E-2,-1.50276E-2,-4.4916E-2,3.45E1,-6.87347E-1,5.184206E-2,1.7504945E-2,-3.561057E-2,5.633665E-1,1.4773693E0,3.413725E-1,-3.5312865E-2,5E-1,4.8329914E-1,-5.3551416E-3,-2.465E2,-7.6505663E-3,1.2191563E0,-1.065E2,1.085E2,5E-1,-5.05E1,1.575E2,-6.287031E-2,8.4229255E-1,5.948984E-3,4.4761905E-1,5E-1,1.5476191E-1,5E-1,-1.803881E-2,5E-1,4.5128547E-2,3.432374E-1,5.2118933E-1,-5.731818E-1,-3.55E1,-4.278435E-2,1.2E2,8.2492554E-1,-1.3333334E-1,-1.9982029E-2,4.85E1,-4.8962012E-1,1.05325E-2,-6.7504716E-1,5.797654E-1,6.388889E-1,2.2325123E-2,-1.8333334E-1,5.194682E-1,5E-1,1.1794014E0,5E-1,6.1633694E-1,-6.335119E-2,-1.6397618E-2,1.0367478E0,4.7413564E-1,-1.0683639E-1,1.2432494E0,5.6174867E-2,1.8534198E-2,2.4614023E-2,-1.6965952E-2,5.048299E-1,5.405872E-1,-2.3331454E-1,5.423727E-1,1.25E1,-4.692247E-1,-1.519211E-1,-1.1688312E-1,-1.16666675E-1,1.2053266E0,7.559786E-2,5.0376165E-1,-2.25E-1,-8.512026E-3,1.4034681E0,1.415201E-1,-4.064064E-1,2.15E1,-3.8605678E-1,9.6644956E-1,5E-1,1.372886E0,5E-1,5.190476E-1,4.030008E-2,9.611825E-3,5.451657E-2,2.7729671E-2,-9.2312135E-4,3.292891E-2,6.4621516E-2,3.7273575E-2,5.836651E-2,2.8368056E-2,3.480451E-3,4.4719756E-2,4.340891E-2,3.2807125E-3,1.3534735E-3,3.2519307E-2,1.6412005E-2,-9.777378E-3,3.7113696E-2,1.3245911E-2,3.255724E-2,-1.4408812E-2,2.965025E-2,4.9652312E-2,-6.1553847E-3,4.313543E-2,4.217561E-2,5.7030033E-2,1.13845775E-2,5.2335218E-2,4.0253964E-3,-2.956884E-2,4.1163173E-2,9.262601E-3,2.2123462E-2,-8.666064E-3,2.6670616E-2,1.4017638E-3,2.95912E-3,-2.074672E-2,1.0212784E-2,-3.708453E-2,-4.952385E-2,-9.185853E-3,4.5467257E-2,-5.956282E-3,-5.5553306E-2,-2.2322193E-2,1.3492775E-2,4.8305545E-2,4.859164E-3,-2.2633798E-2,2.5353843E-2,-2.512084E-2,-3.0293618E-3,2.0014003E-2,2.2130238E-2,-6.506587E-3,-3.2036122E-2,4.7988235E-3,1.7693935E-2,5.837064E-2,3.0695365E-3,3.397215E-2,2.1729048E-2,-1.9072033E-2,-1.3915602E-2,3.0551549E-2,2.216136E-2,4.245036E-2,8.407501E-3,3.418185E-2,-4.3994635E-2,-8.786025E-3,-1.1114544E-2,-5.596059E-2,-5.0068572E-2,2.1981973E-2,-4.0128034E-2,-1.7225444E-2,-8.923659E-3,-2.6758546E-2,-2.3629436E-2,-5.3321842E-2,-1.453905E-2,2.5166554E-2,5.0250324E-3,4.7497034E-2,-1.7459417E-2,-3.4417164E-2,8.152757E-3,-3.4626044E-2,5.906296E-3,5.4282784E-2,2.5255034E-2,-8.387061E-3,-2.3239695E-2,-5.679806E-3,-1.6784905E-2,2.2162367E-2,-3.009003E-2,-1.62876E-4,-3.5372976E-2,1.7490776E-2,6.8458016E-3,-2.2112625E-2,-4.9089804E-2,-1.6680341E-2,5.6092837E-3,-3.0777441E-2,-2.1667566E-2,-5.2451856E-2,1.2829775E-2,-2.2023473E-2,-3.275968E-2,-1.3033468E-3,-1.0366692E-2,-5.0233267E-2,2.883358E-2,-1.7075794E-2,2.5928253E-2,-1.7192762E-2,3.27167E-2,-1.2570571E-2,7.0233396E-3,2.3767048E-2,-4.4538222E-2,2.1203456E-2,3.5191018E-2,-5.9847846E-3,-4.123628E-2,3.2173926E-3,-7.171911E-3,3.20107E-2,-2.4461297E-2,8.601362E-3,-3.7437502E-2,9.280501E-3,-3.0389974E-2,1.6844416E-2,-2.4356171E-2,2.4757763E-2,7.015312E-3,-3.0560432E-2,2.3740206E-2,-1.2669452E-2,-6.154546E-3,4.4599522E-2],"split_indices":[14,11,11,11,13,13,13,13,13,12,13,10,13,6,14,4,12,10,5,1684,14,11,9,2096,12,15,10,9,12,13,10,11,10,29,0,1,1,3,6,14,0,10,10,2,14,9,11,11,0,0,11,5,2,14,10,10,14,14,1,5,3,1,10,6,13,9,12,20,11,10,9,12,1,2,11,1,12,13,3,10,3,9,2,6,26,17,6,11,1,11,10,0,1860,0,48,1497,10,0,0,46,13,3,0,11,3,6,9,6,14,6,10,10,11,11,13,43,6,12,9,0,0,10,0,12,0,10,0,32,0,1,11,12,0,0,0,1,11,0,0,0,12,9,13,0,4,13,0,14,0,10,14,1,47,14,1,11,9,0,3,40,2,2465,0,47,0,13,12,11,14,0,1,10,3,0,1,11,0,11,12,2,0,6,12,40,10,8,12,0,0,10,9,11,10,0,0,0,0,12,12,13,12,1,13,11,3,3,10,13,12,3,11,10,13,11,14,11,10,50,9,40,3,0,0,0,0,0,0,0,0,0,0,0,0,0,0,0,0,0,0,0,0,0,0,0,0,0,0,0,0,0,0,0,0,0,0,0,0,0,0,0,0,0,0,0,0,0,0,0,0,0,0,0,0,0,0,0,0,0,0,0,0,0,0,0,0,0,0,0,0,0,0,0,0,0,0,0,0,0,0,0,0,0,0,0,0,0,0,0,0,0,0,0,0,0,0,0,0,0,0,0,0,0,0,0,0,0,0,0,0,0,0,0,0,0,0,0,0,0,0,0,0,0,0,0,0,0,0,0,0,0,0,0,0,0,0,0,0,0,0,0,0,0,0,0,0,0,0,0,0],"split_type":[0,0,0,0,0,0,0,0,0,0,0,0,0,0,0,0,0,0,0,0,0,0,0,0,0,0,0,0,0,0,0,0,0,0,0,0,0,0,0,0,0,0,0,0,0,0,0,0,0,0,0,0,0,0,0,0,0,0,0,0,0,0,0,0,0,0,0,0,0,0,0,0,0,0,0,0,0,0,0,0,0,0,0,0,0,0,0,0,0,0,0,0,0,0,0,0,0,0,0,0,0,0,0,0,0,0,0,0,0,0,0,0,0,0,0,0,0,0,0,0,0,0,0,0,0,0,0,0,0,0,0,0,0,0,0,0,0,0,0,0,0,0,0,0,0,0,0,0,0,0,0,0,0,0,0,0,0,0,0,0,0,0,0,0,0,0,0,0,0,0,0,0,0,0,0,0,0,0,0,0,0,0,0,0,0,0,0,0,0,0,0,0,0,0,0,0,0,0,0,0,0,0,0,0,0,0,0,0,0,0,0,0,0,0,0,0,0,0,0,0,0,0,0,0,0,0,0,0,0,0,0,0,0,0,0,0,0,0,0,0,0,0,0,0,0,0,0,0,0,0,0,0,0,0,0,0,0,0,0,0,0,0,0,0,0,0,0,0,0,0,0,0,0,0,0,0,0,0,0,0,0,0,0,0,0,0,0,0,0,0,0,0,0,0,0,0,0,0,0,0,0,0,0,0,0,0,0,0,0,0,0,0,0,0,0,0,0,0,0,0,0,0,0,0,0,0,0,0,0,0,0,0,0,0,0,0,0,0,0,0,0,0,0,0,0,0,0,0,0,0,0,0,0,0,0,0,0,0,0,0,0,0,0,0,0,0,0,0,0],"sum_hessian":[6.044993E3,3.0242896E3,3.0207036E3,9.940192E2,2.0302704E3,1.3701311E3,1.6505725E3,4.019822E2,5.92037E2,9.866992E2,1.0435712E3,7.0330316E2,6.668279E2,1.0436235E3,6.069489E2,1.8740182E2,2.1458038E2,1.4995915E2,4.4207785E2,5.647194E2,4.219798E2,7.7687445E2,2.6669675E2,5.1022305E2,1.9308012E2,4.6987427E2,1.9695364E2,4.567209E2,5.869027E2,1.9773657E2,4.0921234E2,3.8480938E1,1.4892088E2,2.123312E2,2.2491689E0,1.4746658E1,1.352125E2,1.9492686E2,2.47151E2,5.6171954E2,2.9998624E0,2.3774258E2,1.842372E2,4.2416025E2,3.5271423E2,7.424055E1,1.924562E2,5.0747458E2,2.748497E0,2.2493312E0,1.908308E2,4.6362567E2,6.2485723E0,1.8520735E2,1.17463E1,4.4547168E2,1.1249199E1,3.544619E2,2.3244078E2,6.299675E1,1.3473982E2,1.7598143E2,2.3323093E2,4.7479086E0,3.3733032E1,9.6943825E1,5.1977055E1,1.2088924E2,9.144197E1,9.247961E0,5.4986973E0,1.1172441E2,2.3488077E1,6.1984264E1,1.329426E2,1.1496562E1,2.3565443E2,1.7249622E1,5.444699E2,1.04498085E2,1.332445E2,1.6899107E2,1.5246124E1,5.5737827E1,3.684224E2,1.23489746E2,2.2922447E2,6.199233E1,1.2248219E1,1.399654E2,5.2490818E1,2.9729794E1,4.7774478E2,1.5509618E2,3.573462E1,1.8619984E2,2.7742584E2,2.2495532E0,3.9990191E0,3.924109E1,1.4596626E2,9.247019E0,2.4992805E0,1.854897E2,2.59982E2,6.249677E0,4.9995217E0,1.6597874E2,1.8848317E2,1.8970007E2,4.27407E1,2.1748718E1,4.124803E1,9.899406E1,3.5745766E1,8.1992195E1,9.3989235E1,1.07241486E2,1.2598943E2,2.2489762E0,2.4989321E0,3.1484457E1,2.2485738E0,9.2695915E1,4.2479115E0,3.9736805E1,1.2240249E1,1.16143875E2,4.745364E0,5.3216114E1,3.822586E1,6.4986396E0,2.7493212E0,2.7495458E0,2.7491512E0,6.0983624E1,5.0740788E1,2.0489492E1,2.9985843E0,3.749177E0,5.823509E1,1.9490408E1,1.1345219E2,2.749037E0,8.747525E0,2.3240579E2,3.248641E0,1.3249762E1,3.9998603E0,1.4599567E2,3.9847427E2,6.3748783E1,4.0749306E1,7.549692E1,5.7747585E1,2.8249186E1,1.4074188E2,2.2497342E0,1.299639E1,2.949427E1,2.6243557E1,3.641734E2,4.249014E0,1.1924004E2,4.2497067E0,1.9248001E2,3.6744465E1,1.42472925E1,4.7745037E1,2.4995463E0,9.7486725E0,9.247311E0,1.3071808E2,3.7494886E0,4.874133E1,4.7474658E2,2.9982038E0,3.0986637E1,4.747982E0,1.8295047E2,3.2493799E0,2.5568222E2,2.174362E1,3.1492725E1,7.7483625E0,1.2497135E2,2.0994905E1,6.9974756E0,2.2495434E0,4.9997044E0,1.8048999E2,2.3348338E2,2.64986E1,3.2497787E0,2.9998987E0,2.7497518E0,2.2497702E0,1.3448671E2,3.1492037E1,1.7198457E2,1.6498596E1,1.4646886E2,4.3231216E1,1.5247083E1,2.7493618E1,6.2492476E0,1.5499472E1,2.1248669E1,1.9999363E1,9.299446E1,5.9995995E0,8.9994335E0,2.6746332E1,4.774537E1,3.4246826E1,7.149154E1,2.2497692E1,7.674459E1,3.049689E1,3.8747734E1,8.72417E1,2.8985403E1,2.4990537E0,8.2951675E1,9.744239E0,4.4986134E0,3.5238194E1,1.10896E2,5.2478657E0,4.747025E1,5.7458653E0,2.7480562E0,3.5477806E1,2.7492228E0,3.7494168E0,1.0748528E1,5.0235096E1,2.6993124E1,2.3747665E1,2.6993202E1,3.1241884E1,1.1994125E1,7.4962835E0,6.547423E1,4.7977962E1,2.2495823E0,6.4979434E0,1.8717769E2,4.5228104E1,3.7499325E0,9.499829E0,1.3199623E2,1.3999432E1,6.999874E0,3.914744E2,2.1249601E1,4.249918E1,3.0499483E1,1.0249823E1,3.3498535E1,4.1998383E1,5.374769E1,3.9998965E0,9.749884E0,1.8499302E1,5.499792E0,1.352421E2,7.497838E0,5.498552E0,2.4495218E1,4.9990525E0,1.7995981E1,8.247576E0,3.614239E2,2.7494977E0,9.524203E1,2.3998018E1,1.8423088E2,8.249125E0,4.249364E0,3.2495102E1,4.9991913E0,9.248101E0,2.8996498E1,1.8748539E1,4.749323E0,4.9993496E0,3.2491262E0,5.9981847E0,1.4248003E1,1.1647007E2,1.2746889E1,3.599444E1,4.6824893E2,6.4976344E0,4.9977517E0,2.5988886E1,2.2491305E0,2.4988513E0,1.6220474E2,2.0745722E1,2.5494656E1,2.3018756E2,5.7480087E0,1.5995611E1,2.8743221E1,2.7495034E0,3.2493465E0,4.499016E0,7.023408E1,5.4737278E1,1.6246183E1,4.748721E0,2.2498732E0,2.749831E0,7.2487674E0,1.7324123E2,1.804873E2,5.299608E1,1.3999444E1,1.2499157E1,1.4249471E1,1.2023724E2,2.9242537E1,2.2494998E0,7.74906E0,1.6423552E2,1.4248784E1,2.2498124E0,5.9986806E0,1.4047018E2,1.2744829E1,3.0486385E1,9.74805E0,5.4990335E0,2.0245281E1,7.2483373E0,2.4994528E0,3.7497947E0,4.749925E0,1.0749546E1,1.8998802E1,2.249866E0,3.499915E0,1.6499449E1,2.1749096E1,7.124536E1,2.7498918E0,3.2497077E0,6.749529E0,2.2499044E0,3.499735E0,2.3246597E1,6.7497845E0,4.0995583E1,7.999479E0,2.6247345E1,7.2486553E0,6.424289E1,2.0248026E1,2.2496655E0,7.249487E1,4.249717E0,2.5497349E1,4.999541E0,3.1248182E1,7.4995527E0,8.4491974E1,2.7497284E0],"tree_param":{"num_deleted":"0","num_feature":"2494","num_nodes":"369","size_leaf_vector":"0"}},{"base_weights":[-3.0723521E-3,5.6464577E-1,-5.5652493E-1,9.684438E-1,2.8140298E-1,-9.6859753E-1,-2.2214735E-1,1.3112235E0,8.084638E-1,4.7902942E-1,1.7442238E-1,-7.5287896E-1,-1.2089E0,-3.9897853E-1,-8.5190415E-2,7.852984E-1,1.4141713E0,6.3264614E-1,1.0127407E0,3.572719E-1,8.744732E-1,-7.7904224E-2,2.6249546E-1,-1.0138611E0,-6.518918E-1,-9.6885043E-1,-1.3780082E0,6.537511E-2,-4.6485788E-1,2.3223137E-2,-2.7710694E-1,5.85137E-1,1.5348698E0,1.4294418E0,-5.296624E-1,3.3010486E-1,7.312791E-1,6.683653E-1,1.0986837E0,-2.539074E-1,3.8183913E-1,1.0928519E0,5.7399774E-1,7.759736E-2,-2.603736E-1,3.931472E-1,1.2983903E-1,-1.0399294E0,-7.930517E-2,-5.27052E-1,-8.2372427E-1,-1.0309634E0,-7.130412E-2,-1.4859053E0,-1.139485E0,3.4429082E-1,-3.098772E-1,-6.437964E-1,-3.2791787E-1,-8.416391E-2,3.0727428E-1,-1.3617326E-1,-7.127903E-1,7.796115E-1,1.8332218E-1,7.013459E-1,1.6414129E0,1.4387103E0,7.9589404E-2,4.9071962E-1,-5.166181E-1,4.595238E-1,8.228492E-1,7.184015E-1,-3.865041E-1,3.6862355E-1,1.1375859E0,7.153092E-1,-5.4384696E-1,4.060843E-1,-2.4326669E-1,1.163833E0,-2.3275404E-1,-4.1017603E-2,6.782471E-1,-1.8586318E-1,4.0448406E-1,-3.117123E-1,5.188803E-1,-1.3954532E-1,4.9470055E-1,1.5791994E-1,-6.9320834E-1,-4.0999743E-1,-1.0746549E0,8.2912344E-1,-7.5544024E-1,-5.7884866E-1,-7.027954E-2,-8.4448165E-1,2.3032895E-1,-1.0824938E0,-5.08523E-1,5.748538E-1,-6.1883175E-1,-1.5844929E0,-1.2836841E0,-1.1933821E0,1.5012895E-1,7.804267E-1,-4.0493986E-1,-5.0751406E-1,7.792157E-1,-6.8870354E-1,1.20492905E-1,-6.155958E-1,-2.0234536E-1,3.6235788E-1,-1.2927449E-1,-1.685266E-2,4.4035733E-1,-1.594585E-1,1.1486876E0,-8.3243084E-1,-1.5696803E-2,3.3059984E-1,1.3959924E0,5.82245E-1,-3.3915895E-1,4.1246602E-1,1.4512658E0,1.4007578E0,4.085782E-1,9.15275E-3,-9.891708E-1,6.4443564E-1,-6.012353E-2,9.634839E-1,6.3761437E-1,8.943391E-1,3.832835E-1,5.7578593E-1,-5.949635E-1,1.1561192E0,2.205068E-1,-1.3488418E0,-1.815816E-1,6.6346824E-1,3.4359795E-1,7.145925E-1,-5.564447E-1,1.221502E0,2.2699304E-1,6.3262826E-1,-6.490069E-1,2.2336704E-1,8.455335E-1,-5.737887E-1,1.8924044E-1,5.491112E-1,-2.727537E-1,-1.5930627E-1,-6.057995E-1,7.736872E-1,-1.5041697E-1,-2.5867832E-1,7.620259E-1,5.080389E-1,-1.1072572E0,8.91958E-2,5.561487E-1,-1.0490308E0,3.698194E-1,5.265553E-2,-1.102898E0,-9.9217314E-1,-1.4791678E0,6.6015524E-1,-5.9384E-1,-5.9779453E-1,3.169662E-1,-8.619428E-1,2.8840342E-1,-1.1007773E0,7.2516054E-2,8.1932837E-1,-6.796597E-1,-2.2562489E-1,1.0126444E0,3.2962826E-1,-9.56375E-1,-1.5980846E0,-4.9039504E-1,-1.1263385E0,-1.6264558E0,-1.2328491E0,-2.6103213E-1,5.1709193E-1,-2.335289E-1,1.2531249E-1,9.456443E-1,-7.636914E-1,1.2840486E-1,-7.879542E-1,1.3593477E-1,1.1484288E0,2.6122278E-1,5.4402894E-1,-7.0869356E-1,1.1519403E0,-4.0576616E-1,-2.8233288E-2,-7.62956E-1,-4.7183233E-1,-3.1821184E-2,-1.3128096E-1,7.123502E-1,-1.809852E-1,2.3997027E-1,-1.6171196E-1,8.1587994E-1,-2.055E-1,5.220921E-1,-1.1556181E-1,-9.722022E-1,-2.9689908E-1,-1.00135E0,4.9312332E-1,-1.4367238E0,4.826979E-1,-6.102027E-1,1.6772314E0,9.709165E-1,-1.4966118E-1,9.81432E-1,5.3294003E-1,-7.7337146E-1,1.461891E0,4.500284E-1,-7.8167367E-1,4.5919764E-1,-1.1834967E0,5.8363515E-1,-1.37722E0,-2.3027512E-1,3.1775025E-1,1.0328473E0,3.2483137E-1,-5.859769E-1,9.906144E-1,-4.993495E-1,6.7932016E-1,-8.517553E-1,9.553148E-1,-3.410294E-2,9.7158176E-1,-1.1129561E-2,8.373571E-1,-1.372743E-1,1.0767378E-1,1.1725458E0,9.376953E-1,-5.515874E-1,-4.76485E-1,4.9049023E-1,-7.270767E-1,7.513404E-1,3.767984E-1,-3.6661592E-1,-1.0120691E0,6.599294E-2,6.9867617E-1,1.272695E0,7.380493E-1,-3.1246608E-1,-1.8551561E-1,-8.939208E-1,-9.434627E-1,6.3378644E-1,5.8979285E-1,1.3665816E0,5.262936E-1,-8.8177E-1,-1.1360184E0,3.6939755E-1,4.0041324E-1,1.4854529E0,3.55403E-1,-6.3643837E-1,-8.4542885E-2,-9.857499E-1,-1.2710357E0,-2.779133E-1,-1.487819E-1,1.297067E0,-1.1672951E-1,-1.1565136E0,1.1340759E0,-1.5918846E-1,4.834792E-1,1.3242968E0,4.6633154E-1,2.1128912E-2,6.438876E-1,-2.2465533E-1,1.1825239E-1,-1.4651998E0,-7.295151E-1,4.8568228E-1,-9.332859E-1,-1.6033387E0,-1.0182922E0,-1.7042136E0,-1.2563411E0,-5.663364E-1,1.2263994E-1,-9.8102564E-1,9.184683E-1,-5.5189455E-1,-6.6808665E-1,-9.859486E-1,-1.1970769E0,-8.506983E-1,6.0097986E-1,-8.7236625E-1,1.2072642E0,4.7645226E-1,-1.4727693E0,-2.9350317E-1,-1.610065E0,-8.1280136E-1,-5.09775E-1,-1.2371904E0,-6.9272906E-1,-1.6862676E0,-6.71016E-1,-1.2830673E0,-7.920729E-1,3.4448484E-1,7.639513E-1,-2.5742766E-1,6.9229555E-1,1.3394982E0,1.3867295E-1,-1.0395288E0,1.0055106E0,-4.779107E-1,-1.4211588E0,-4.979118E-1,5.5320626E-1,-7.585848E-1,-6.8645734E-1,-1.6065959E0,1.4435439E0,4.8332986E-1,1.0658843E-1,-7.821355E-1,-2.8251562E-1,1.2655123E0,-8.151706E-1,5.4399663E-1,6.166423E-1,-5.1511174E-1,3.682723E-1,-2.3728992E-1,7.930965E-1,-4.5783952E-1,1.4994608E-1,8.914881E-1,6.4466424E-2,-2.8992528E-1,-1.1346925E-1,6.317099E-1,-7.467016E-2,-1.1226991E0,1.2234858E0,5.604528E-4,-5.579487E-1,4.8815325E-1,1.2501304E-1,6.475024E-1,-2.1807602E-1,2.211666E-1,-1.4664919E0,-1.514887E-1,5.9108675E-1,-4.7257677E-1,1.7076556E-1,-1.0679071E0,-1.3534987E-1,1.2113092E0],"categories":[],"categories_nodes":[],"categories_segments":[],"categories_sizes":[],"default_left":[true,true,true,true,true,true,true,true,true,true,true,true,true,true,true,true,true,true,true,true,true,true,true,true,true,true,true,true,true,true,true,true,true,true,false,true,true,true,true,true,true,true,true,true,true,true,true,true,true,true,true,true,true,true,true,true,true,true,true,true,true,true,true,true,true,false,false,true,false,true,true,true,true,true,false,true,true,false,true,true,true,true,false,true,true,true,true,true,true,true,true,true,true,true,true,false,false,true,true,true,false,true,true,true,true,true,true,true,true,true,true,true,true,true,true,true,true,true,true,true,true,true,false,true,true,true,true,true,true,false,true,false,true,true,true,true,true,true,true,true,true,true,false,true,true,false,true,true,true,false,true,true,true,false,true,true,true,true,true,true,true,true,true,true,false,true,true,true,false,true,true,true,false,true,false,true,true,false,true,true,true,true,false,true,false,false,true,false,true,false,true,true,false,true,true,true,true,false,false,true,true,true,true,true,true,false,false,false,true,true,true,true,true,true,true,true,true,true,true,true,true,true,true,true,true,true,true,true,false,false,false,false,false,false,false,false,false,false,false,false,false,false,false,false,false,false,false,false,false,false,false,false,false,false,false,false,false,false,false,false,false,false,false,false,false,false,false,false,false,false,false,false,false,false,false,false,false,false,false,false,false,false,false,false,false,false,false,false,false,false,false,false,false,false,false,false,false,false,false,false,false,false,false,false,false,false,false,false,false,false,false,false,false,false,false,false,false,false,false,false,false,false,false,false,false,false,false,false,false,false,false,false,false,false,false,false,false,false,false,false,false,false,false,false,false,false,false,false,false,false,false,false,false,false,false,false,false,false,false,false,false,false,false,false,false,false,false,false,false,false,false,false,false,false,false,false,false,false,false,false,false,false,false,false,false,false,false,false,false,false,false],"id":2,"left_children":[1,3,5,7,9,11,13,15,17,19,21,23,25,27,29,31,33,35,37,39,41,43,45,47,49,51,53,55,57,59,61,63,65,67,-1,69,71,73,75,77,79,81,83,85,87,89,91,93,95,97,99,101,103,105,107,109,111,113,115,117,119,121,123,125,127,-1,-1,129,-1,131,133,135,137,139,-1,141,143,-1,145,147,149,151,-1,153,155,157,159,161,163,165,167,169,171,173,175,-1,-1,177,179,181,-1,183,185,187,189,191,193,195,197,199,201,203,205,207,209,211,213,215,217,219,221,223,-1,225,227,229,231,233,235,-1,237,-1,239,241,243,245,247,249,251,253,255,257,-1,259,261,-1,263,265,267,-1,269,271,273,-1,275,277,279,281,283,285,287,289,291,293,-1,295,297,299,-1,301,303,305,-1,307,-1,309,311,-1,313,315,317,319,-1,321,-1,-1,323,-1,325,-1,327,329,-1,331,333,335,337,-1,-1,339,341,343,345,347,349,-1,-1,-1,351,353,355,357,359,361,363,365,367,369,371,373,375,377,379,381,383,385,387,389,-1,-1,-1,-1,-1,-1,-1,-1,-1,-1,-1,-1,-1,-1,-1,-1,-1,-1,-1,-1,-1,-1,-1,-1,-1,-1,-1,-1,-1,-1,-1,-1,-1,-1,-1,-1,-1,-1,-1,-1,-1,-1,-1,-1,-1,-1,-1,-1,-1,-1,-1,-1,-1,-1,-1,-1,-1,-1,-1,-1,-1,-1,-1,-1,-1,-1,-1,-1,-1,-1,-1,-1,-1,-1,-1,-1,-1,-1,-1,-1,-1,-1,-1,-1,-1,-1,-1,-1,-1,-1,-1,-1,-1,-1,-1,-1,-1,-1,-1,-1,-1,-1,-1,-1,-1,-1,-1,-1,-1,-1,-1,-1,-1,-1,-1,-1,-1,-1,-1,-1,-1,-1,-1,-1,-1,-1,-1,-1,-1,-1,-1,-1,-1,-1,-1,-1,-1,-1,-1,-1,-1,-1,-1,-1,-1,-1,-1,-1,-1,-1,-1,-1,-1,-1,-1,-1,-1,-1,-1,-1,-1,-1,-1],"loss_changes":[1.8873896E3,3.388687E2,4.1888696E2,6.5954346E1,3.6792145E1,6.9704834E1,4.0662796E1,1.9856384E1,2.937732E1,2.9154144E1,2.5203293E1,1.8328064E1,2.4756714E1,2.2458992E1,1.9736042E1,8.950615E0,1.0333191E1,1.3242096E1,1.0658722E1,7.148197E0,8.781136E0,8.361203E0,1.4511391E1,4.7707367E0,1.0769455E1,1.4924179E1,7.9507446E0,9.732617E0,1.5525223E1,1.8537514E1,2.092576E1,4.0317993E0,2.2684097E-2,3.8936768E0,0E0,1.5609584E1,8.0811E0,4.4703255E0,8.285828E0,5.657458E0,6.9471664E0,7.9798126E0,4.032072E0,1.3809897E1,5.5818634E0,2.2941833E1,9.7795515E0,3.796997E0,4.6117153E0,7.181984E0,4.964142E0,6.2211914E0,6.896012E0,3.0443115E0,8.58963E0,1.7710041E1,8.949145E0,9.6028595E0,1.3090851E1,8.933217E0,7.198333E0,7.959874E0,6.946377E0,9.416958E0,4.101631E0,0E0,0E0,3.5004272E0,0E0,6.560837E0,4.6032057E0,8.488819E0,5.9763336E0,4.149166E0,0E0,3.733267E0,4.682953E0,0E0,4.129121E0,6.7740707E0,5.6463656E0,3.9330978E0,0E0,4.5042353E0,3.8791332E0,1.305808E1,7.151782E0,5.628602E0,1.6085231E0,7.55228E0,8.155121E0,1.1045698E1,5.679547E0,3.8209457E0,4.6376495E0,0E0,0E0,5.482292E0,6.7733765E0,4.481842E0,0E0,4.895996E0,6.1171465E0,3.3817074E0,3.673098E0,1.6992493E0,2.9547272E0,3.9562073E0,9.2922807E-1,3.5601273E0,3.9714644E0,6.2858734E0,9.4278955E-1,6.8449097E0,9.284778E0,9.557674E0,1.1756421E1,7.132683E0,7.7081947E0,6.101477E0,6.3478603E0,9.027424E0,0E0,6.143837E0,1.028374E1,3.436954E0,1.3279724E-1,3.357701E0,3.7224145E0,0E0,2.6812744E0,0E0,5.7173414E0,7.3665085E0,2.5533857E0,7.9126472E0,5.0475636E0,6.1245117E0,7.544327E0,2.818386E0,6.5026712E0,2.8172674E0,0E0,4.774109E0,4.3881755E0,0E0,2.512883E0,1.0807171E1,8.4473915E0,0E0,3.9656835E0,1.0695801E0,1.8151084E0,0E0,4.8655248E-1,8.132323E0,4.354397E0,1.5370304E1,1.1401393E1,7.653265E0,3.2527432E0,5.198886E0,9.079183E0,3.331051E0,0E0,7.66898E0,3.0067844E0,6.4380417E0,0E0,8.896173E0,4.219162E0,5.3915806E0,0E0,3.0614915E0,0E0,4.083084E0,1.267704E0,0E0,4.2318573E0,3.9829822E0,1.0561937E1,4.413681E0,0E0,4.389923E0,0E0,0E0,6.0082397E0,0E0,5.0800323E-2,0E0,2.3033724E0,2.3876953E-1,0E0,3.749031E0,2.6551056E-1,2.2784424E0,2.1989977E0,0E0,0E0,2.1515996E0,1.7657127E0,3.1924481E0,5.265161E0,3.6991377E0,4.6174974E0,0E0,0E0,0E0,4.0558624E0,4.2304993E-1,2.3001103E0,8.001542E0,6.4786186E0,4.9908066E0,1.3072492E1,5.7203426E0,2.2838535E0,9.4492655E0,6.958694E0,3.5119772E0,2.4912333E0,3.6944609E0,5.158758E0,8.477543E0,5.0485687E0,3.1645598E0,4.3722534E0,4.9013376E0,0E0,0E0,0E0,0E0,0E0,0E0,0E0,0E0,0E0,0E0,0E0,0E0,0E0,0E0,0E0,0E0,0E0,0E0,0E0,0E0,0E0,0E0,0E0,0E0,0E0,0E0,0E0,0E0,0E0,0E0,0E0,0E0,0E0,0E0,0E0,0E0,0E0,0E0,0E0,0E0,0E0,0E0,0E0,0E0,0E0,0E0,0E0,0E0,0E0,0E0,0E0,0E0,0E0,0E0,0E0,0E0,0E0,0E0,0E0,0E0,0E0,0E0,0E0,0E0,0E0,0E0,0E0,0E0,0E0,0E0,0E0,0E0,0E0,0E0,0E0,0E0,0E0,0E0,0E0,0E0,0E0,0E0,0E0,0E0,0E0,0E0,0E0,0E0,0E0,0E0,0E0,0E0,0E0,0E0,0E0,0E0,0E0,0E0,0E0,0E0,0E0,0E0,0E0,0E0,0E0,0E0,0E0,0E0,0E0,0E0,0E0,0E0,0E0,0E0,0E0,0E0,0E0,0E0,0E0,0E0,0E0,0E0,0E0,0E0,0E0,0E0,0E0,0E0,0E0,0E0,0E0,0E0,0E0,0E0,0E0,0E0,0E0,0E0,0E0,0E0,0E0,0E0,0E0,0E0,0E0,0E0,0E0,0E0,0E0,0E0,0E0,0E0,0E0,0E0,0E0,0E0,0E0,0E0,0E0,0E0,0E0,0E0,0E0],"parents":[2147483647,0,0,1,1,2,2,3,3,4,4,5,5,6,6,7,7,8,8,9,9,10,10,11,11,12,12,13,13,14,14,15,15,16,16,17,17,18,18,19,19,20,20,21,21,22,22,23,23,24,24,25,25,26,26,27,27,28,28,29,29,30,30,31,31,32,32,33,33,35,35,36,36,37,37,38,38,39,39,40,40,41,41,42,42,43,43,44,44,45,45,46,46,47,47,48,48,49,49,50,50,51,51,52,52,53,53,54,54,55,55,56,56,57,57,58,58,59,59,60,60,61,61,62,62,63,63,64,64,67,67,69,69,70,70,71,71,72,72,73,73,75,75,76,76,78,78,79,79,80,80,81,81,83,83,84,84,85,85,86,86,87,87,88,88,89,89,90,90,91,91,92,92,93,93,94,94,97,97,98,98,99,99,101,101,102,102,103,103,104,104,105,105,106,106,107,107,108,108,109,109,110,110,111,111,112,112,113,113,114,114,115,115,116,116,117,117,118,118,119,119,120,120,121,121,123,123,124,124,125,125,126,126,127,127,128,128,130,130,132,132,133,133,134,134,135,135,136,136,137,137,138,138,139,139,140,140,141,141,143,143,144,144,146,146,147,147,148,148,150,150,151,151,152,152,154,154,155,155,156,156,157,157,158,158,159,159,160,160,161,161,162,162,163,163,165,165,166,166,167,167,169,169,170,170,171,171,173,173,175,175,176,176,178,178,179,179,180,180,181,181,183,183,186,186,188,188,190,190,191,191,193,193,194,194,195,195,196,196,199,199,200,200,201,201,202,202,203,203,204,204,208,208,209,209,210,210,211,211,212,212,213,213,214,214,215,215,216,216,217,217,218,218,219,219,220,220,221,221,222,222,223,223,224,224,225,225,226,226,227,227],"right_children":[2,4,6,8,10,12,14,16,18,20,22,24,26,28,30,32,34,36,38,40,42,44,46,48,50,52,54,56,58,60,62,64,66,68,-1,70,72,74,76,78,80,82,84,86,88,90,92,94,96,98,100,102,104,106,108,110,112,114,116,118,120,122,124,126,128,-1,-1,130,-1,132,134,136,138,140,-1,142,144,-1,146,148,150,152,-1,154,156,158,160,162,164,166,168,170,172,174,176,-1,-1,178,180,182,-1,184,186,188,190,192,194,196,198,200,202,204,206,208,210,212,214,216,218,220,222,224,-1,226,228,230,232,234,236,-1,238,-1,240,242,244,246,248,250,252,254,256,258,-1,260,262,-1,264,266,268,-1,270,272,274,-1,276,278,280,282,284,286,288,290,292,294,-1,296,298,300,-1,302,304,306,-1,308,-1,310,312,-1,314,316,318,320,-1,322,-1,-1,324,-1,326,-1,328,330,-1,332,334,336,338,-1,-1,340,342,344,346,348,350,-1,-1,-1,352,354,356,358,360,362,364,366,368,370,372,374,376,378,380,382,384,386,388,390,-1,-1,-1,-1,-1,-1,-1,-1,-1,-1,-1,-1,-1,-1,-1,-1,-1,-1,-1,-1,-1,-1,-1,-1,-1,-1,-1,-1,-1,-1,-1,-1,-1,-1,-1,-1,-1,-1,-1,-1,-1,-1,-1,-1,-1,-1,-1,-1,-1,-1,-1,-1,-1,-1,-1,-1,-1,-1,-1,-1,-1,-1,-1,-1,-1,-1,-1,-1,-1,-1,-1,-1,-1,-1,-1,-1,-1,-1,-1,-1,-1,-1,-1,-1,-1,-1,-1,-1,-1,-1,-1,-1,-1,-1,-1,-1,-1,-1,-1,-1,-1,-1,-1,-1,-1,-1,-1,-1,-1,-1,-1,-1,-1,-1,-1,-1,-1,-1,-1,-1,-1,-1,-1,-1,-1,-1,-1,-1,-1,-1,-1,-1,-1,-1,-1,-1,-1,-1,-1,-1,-1,-1,-1,-1,-1,-1,-1,-1,-1,-1,-1,-1,-1,-1,-1,-1,-1,-1,-1,-1,-1,-1,-1],"split_conditions":[-1.5E0,-5.255151E-1,-4.8243523E-1,-8.0961627E-1,1.0106833E0,5.6162417E-1,-2.6009443E-1,5.3430915E-1,5.551897E-1,1.2417278E0,1.0733091E0,-7.69532E-1,2.25E-1,9.599829E-1,1.2011678E0,4.8333335E-1,5E-1,-3.3333335E-2,3.3333335E-2,5.036886E-1,9.194573E-1,1.1497355E0,-2.8180236E-1,5.6038487E-1,2.4038461E-1,1.1741806E0,1.05E1,5E-1,-8.391608E-2,3.3333335E-2,5.6423473E-1,-6.15E1,1.0370595E0,5E-1,-1.9508524E-2,-6.55E1,1.2046669E0,5E-1,1.1006241E0,-4.0134722E-1,-2.3548113E-2,2.25E-1,5.655198E-1,1.0998945E0,5E-1,4.7214854E-1,1.5345314E0,1.0295788E0,5E-1,1.3060623E0,5E-1,-5.154705E-1,9.817916E-1,1.2698413E-1,5E-1,7.95E1,9.306074E-1,1.275E2,3.6515152E-1,5.0697756E-1,-1.699017E-1,7.833333E-1,1.4891194E0,1.3019371E0,4.65E1,2.5831971E-2,6.0456514E-2,-2.6666668E-1,2.9314368E-3,-4.655E2,-6.1584103E-1,1.1543274E0,1.8333334E-1,6.103095E-1,-1.4235718E-2,4E-1,5E-1,2.6346266E-2,-3.0494708E-1,-5.8571434E-1,-5E-1,-8.5E0,-8.572796E-3,5E-1,-4.120238E-1,5E-1,5E-1,3.3333335E-2,1.325E2,1.510499E0,5E-1,1.3895415E0,1.7381003E0,5E-1,3.085E2,3.0538272E-2,-2.7824372E-2,6.923151E-1,-6.1683345E-1,5E-1,8.483475E-3,5E-1,-5.1106656E-1,-6.577587E-1,5E-1,5E-1,8E-1,8.333334E-1,1.9E1,5.256883E-1,1.13E2,5.839226E-1,9.4669795E-1,1.85E1,1.405E2,-4.319585E-1,1.1090554E0,-1.3732004E-1,1.2296226E0,1.1703176E0,5.071108E-1,1.5740724E0,4.2308457E-2,-7.1794875E-2,1.7297006E0,1.2556748E0,-3.3333335E-2,1.3950078E0,5.133954E-1,1.5191947E-2,5E-1,5.1592708E-2,5.01859E-1,-5.55E1,1.2366655E0,1.0657489E0,3.3333335E-2,5.5454206E-1,1.6742527E0,5E-1,6.3340795E-1,-6.062015E-1,-2.1913694E-2,-8.060036E-1,1.0198622E0,-4.968054E-2,-1.0476191E-1,7.2315896E-1,1.2198981E0,2.6319869E-2,1E2,-5E-1,6.226156E-1,2.3300963E-2,1.3333334E-1,9.4680464E-1,2.6666668E-1,5.081209E-1,1.0180581E0,-4.9510002E-2,1.1072358E0,6.513468E-1,-1.5555556E-1,8.65E1,-5.5401577E-3,4.2564103E-1,2.982456E-1,1.7149003E0,-4.0782496E-2,1.1157966E0,5E-1,5.2675664E-1,1.3621187E-2,5.2071285E-1,-4.0621936E-2,5E-1,5E-1,2.4314836E-2,8.352429E-1,5E-1,-5.4132515E-1,1.3246769E0,1.0622474E-2,-7.1794875E-2,2.6709111E-3,3.01775E-2,5.653481E-1,-8.310216E-3,-5.5116427E-1,1.2140867E-2,1.3897015E0,5E-1,-1.8062228E-2,1.5E0,5.646602E-1,6.591053E-1,-5.891892E-1,1.9045528E-2,-8.601336E-3,5E-1,-3.0937803E-1,7.9136205E-1,1.355E2,8.1322503E-1,1.2790914E0,4.2298928E-2,9.621357E-3,2.0037672E-2,5E-1,5.7712215E-1,5E-1,1.3502156E0,5.957954E-1,-4.7774237E-1,7.1794875E-2,-3.6666667E-1,5.35E1,9.2289555E-1,-1.0936637E-1,1.115E2,1.1673989E0,1.15E1,1.0558851E0,1.3448167E0,1.5564342E0,5E-1,6.765699E-1,5E-1,-5.291741E-2,1.7778728E-2,-2.2474986E-2,6.1775785E-2,3.5760794E-2,-5.5123204E-3,3.61481E-2,1.9629246E-2,-2.8484816E-2,5.3844366E-2,1.6575444E-2,-2.8790602E-2,1.6913166E-2,-4.359055E-2,2.1496449E-2,-5.0725766E-2,-8.481493E-3,1.1703376E-2,3.804183E-2,1.1964188E-2,-2.15827E-2,3.648631E-2,-1.839204E-2,2.5020719E-2,-3.137185E-2,3.5186153E-2,-1.2560794E-3,3.5785295E-2,-4.0992396E-4,3.0841535E-2,-5.0560865E-3,3.96584E-3,4.3187205E-2,3.4537192E-2,-2.0316066E-2,-1.7549895E-2,1.8065736E-2,-2.6779687E-2,2.7673367E-2,1.3878237E-2,-1.3503197E-2,-3.7276525E-2,2.4306516E-3,2.5733639E-2,4.6875898E-2,2.718383E-2,-1.150875E-2,-6.8329107E-3,-3.2924887E-2,-3.4749616E-2,2.334362E-2,2.1723248E-2,5.033393E-2,1.9384444E-2,-3.247735E-2,-4.1841827E-2,1.360565E-2,1.4748019E-2,5.47122E-2,1.3090203E-2,-2.3441296E-2,-3.1138833E-3,-3.6307137E-2,-4.681478E-2,-1.0236102E-2,-5.479934E-3,4.777357E-2,-4.2993813E-3,-4.2596705E-2,4.177028E-2,-5.8632293E-3,1.7807504E-2,4.8776496E-2,1.7175922E-2,7.7822E-4,2.3715666E-2,-8.274505E-3,4.3554716E-3,-5.3966235E-2,-2.6869498E-2,1.7888648E-2,-3.4374785E-2,-5.9054166E-2,-3.7505735E-2,-6.276959E-2,-4.6273552E-2,-2.0859301E-2,4.5170737E-3,-3.6133133E-2,3.3829022E-2,-2.0327378E-2,-2.4606965E-2,-3.6314458E-2,-4.4090733E-2,-3.1332918E-2,2.213529E-2,-3.213099E-2,4.446595E-2,1.7548688E-2,-5.4245032E-2,-1.0810308E-2,-5.930191E-2,-2.9937098E-2,-1.8776031E-2,-4.556819E-2,-2.5514595E-2,-6.2108606E-2,-2.471486E-2,-4.7257934E-2,-2.9173627E-2,1.2688065E-2,2.8137852E-2,-9.481575E-3,2.5498629E-2,4.9336392E-2,5.1076016E-3,-3.8287923E-2,3.7034962E-2,-1.7602406E-2,-5.2344117E-2,-1.8339086E-2,2.0375691E-2,-2.7940193E-2,-2.5283596E-2,-5.9174135E-2,5.3168606E-2,1.7802004E-2,3.9258646E-3,-2.8807612E-2,-1.0405614E-2,4.6611346E-2,-3.002436E-2,2.0036483E-2,2.2712167E-2,-1.8972594E-2,1.3564205E-2,-8.739862E-3,2.9211327E-2,-1.6863143E-2,5.5228136E-3,3.2835286E-2,2.3744272E-3,-1.0678527E-2,-4.1792993E-3,2.3267137E-2,-2.750251E-3,-4.135125E-2,4.506343E-2,2.0642596E-5,-2.0550365E-2,1.797966E-2,4.6044798E-3,2.3848807E-2,-8.032176E-3,8.146008E-3,-5.4013826E-2,-5.579632E-3,2.1770906E-2,-1.7405946E-2,6.2896367E-3,-3.933315E-2,-4.985206E-3,4.4614937E-2],"split_indices":[14,11,11,11,10,12,11,12,12,9,9,11,6,10,10,6,1596,3,3,12,10,10,11,12,6,9,1,43,3,3,12,14,9,470,0,14,9,17,9,11,11,6,12,10,17,2,10,10,4,9,15,11,10,3,52,1,10,14,2,12,11,3,10,9,1,0,0,3,0,14,11,10,6,12,0,3,32,0,11,6,8,14,0,45,11,5,40,6,1,9,752,9,10,43,14,0,0,9,11,2157,0,1497,11,11,4,2289,6,2,1,12,1,12,10,14,14,11,9,11,9,10,12,10,0,6,10,10,6,9,12,0,236,0,12,14,9,10,6,12,10,21,10,11,0,11,10,0,3,9,9,0,1,8,12,0,3,10,3,12,10,11,10,12,3,1,0,6,2,9,0,9,52,12,0,12,0,21,8,0,9,45,11,10,0,3,0,0,9,0,11,0,9,1497,0,1,12,9,11,0,0,7,11,10,1,10,9,0,0,0,48,12,8,9,12,11,6,6,1,10,11,1,9,14,9,9,9,7,9,43,0,0,0,0,0,0,0,0,0,0,0,0,0,0,0,0,0,0,0,0,0,0,0,0,0,0,0,0,0,0,0,0,0,0,0,0,0,0,0,0,0,0,0,0,0,0,0,0,0,0,0,0,0,0,0,0,0,0,0,0,0,0,0,0,0,0,0,0,0,0,0,0,0,0,0,0,0,0,0,0,0,0,0,0,0,0,0,0,0,0,0,0,0,0,0,0,0,0,0,0,0,0,0,0,0,0,0,0,0,0,0,0,0,0,0,0,0,0,0,0,0,0,0,0,0,0,0,0,0,0,0,0,0,0,0,0,0,0,0,0,0,0,0,0,0,0,0,0,0,0,0,0,0,0,0,0,0,0,0,0,0,0,0],"split_type":[0,0,0,0,0,0,0,0,0,0,0,0,0,0,0,0,0,0,0,0,0,0,0,0,0,0,0,0,0,0,0,0,0,0,0,0,0,0,0,0,0,0,0,0,0,0,0,0,0,0,0,0,0,0,0,0,0,0,0,0,0,0,0,0,0,0,0,0,0,0,0,0,0,0,0,0,0,0,0,0,0,0,0,0,0,0,0,0,0,0,0,0,0,0,0,0,0,0,0,0,0,0,0,0,0,0,0,0,0,0,0,0,0,0,0,0,0,0,0,0,0,0,0,0,0,0,0,0,0,0,0,0,0,0,0,0,0,0,0,0,0,0,0,0,0,0,0,0,0,0,0,0,0,0,0,0,0,0,0,0,0,0,0,0,0,0,0,0,0,0,0,0,0,0,0,0,0,0,0,0,0,0,0,0,0,0,0,0,0,0,0,0,0,0,0,0,0,0,0,0,0,0,0,0,0,0,0,0,0,0,0,0,0,0,0,0,0,0,0,0,0,0,0,0,0,0,0,0,0,0,0,0,0,0,0,0,0,0,0,0,0,0,0,0,0,0,0,0,0,0,0,0,0,0,0,0,0,0,0,0,0,0,0,0,0,0,0,0,0,0,0,0,0,0,0,0,0,0,0,0,0,0,0,0,0,0,0,0,0,0,0,0,0,0,0,0,0,0,0,0,0,0,0,0,0,0,0,0,0,0,0,0,0,0,0,0,0,0,0,0,0,0,0,0,0,0,0,0,0,0,0,0,0,0,0,0,0,0,0,0,0,0,0,0,0,0,0,0,0,0,0,0,0,0,0,0,0,0,0,0,0,0,0,0,0,0,0,0,0,0,0,0,0,0,0,0,0,0,0,0,0,0,0,0,0,0,0,0,0,0,0],"sum_hessian":[6.0048716E3,2.9642236E3,3.040648E3,1.2210477E3,1.7431758E3,1.3612301E3,1.679418E3,3.8625214E2,8.3479565E2,6.109968E2,1.132179E3,7.194846E2,6.417454E2,7.321689E2,9.47249E2,6.464275E1,3.2160938E2,4.508519E2,3.8394373E2,4.686137E2,1.423831E2,2.929634E2,8.392155E2,1.982097E2,5.212749E2,2.6801978E2,3.7372568E2,9.097004E1,6.4119885E2,6.058715E2,3.4137753E2,5.242429E1,1.221846E1,3.193651E2,2.2442534E0,1.11915436E2,3.389365E2,7.8434006E1,3.0550974E2,1.7747946E1,4.5086575E2,8.092882E1,6.1454292E1,1.5848026E2,1.3448317E2,4.2181317E2,4.1740237E2,1.9272122E2,5.488488E0,3.0427798E2,2.1699693E2,2.5053343E2,1.7486351E1,2.5372319E2,1.2000247E2,5.2230736E1,3.87393E1,2.7636868E2,3.648302E2,4.4016754E2,1.6570398E2,2.5893158E2,8.244594E1,3.4692993E1,1.7731297E1,2.2441814E0,9.974279E0,3.1712183E2,2.243301E0,9.442451E1,1.7490923E1,8.6940125E1,2.5199635E2,7.518661E1,3.2474015E0,1.5985836E1,2.895239E2,3.7489088E0,1.3999037E1,4.3436884E2,1.6496923E1,7.693147E1,3.997347E0,8.99502E0,5.245927E1,8.799247E1,7.0487785E1,1.267337E2,7.7494636E0,6.7479416E1,3.5433374E2,4.0441266E2,1.2989708E1,1.0737974E1,1.8198325E2,2.245395E0,3.2430935E0,2.7304788E2,3.1230087E1,2.1300114E2,3.995788E0,2.2706512E2,2.346831E1,7.9978642E0,9.488487E0,1.659723E2,8.775088E1,1.1526E2,4.74247E0,3.298699E1,1.9243746E1,3.324107E1,5.49823E0,2.6112473E2,1.5243959E1,1.0967349E2,2.5515671E2,3.974303E1,4.004245E2,4.8486744E1,1.1721724E2,2.5518286E2,3.748724E0,7.020301E1,1.2242923E1,2.0960423E1,1.373257E1,9.989652E0,7.7416453E0,4.242047E0,3.1287976E2,6.4882894E0,8.793622E1,8.743442E0,8.747482E0,6.3945538E1,2.2994585E1,1.4085469E2,1.1114166E2,4.8208385E1,2.6978222E1,1.3488408E1,2.4974284E0,2.835333E2,5.9906E0,3.4994678E0,1.0499569E1,8.297472E1,3.513941E2,3.7489536E0,1.2747971E1,7.218418E1,4.747289E0,4.247884E0,4.7471366E0,1.4732998E1,3.7726273E1,4.2996532E1,4.4995937E1,5.8239643E1,1.2248143E1,8.448987E1,4.224383E1,5.49971E0,2.2497537E0,6.023331E1,7.246107E0,3.5208505E2,2.2486975E0,3.4593677E2,5.847589E1,9.741985E0,3.2477229E0,6.992833E0,3.7451406E0,1.540289E2,2.795435E1,2.7497666E0,2.7029813E2,1.2990468E1,1.823962E1,2.1000352E2,2.9976237E0,2.2357297E2,3.492143E0,2.246915E0,2.1221394E1,2.9989886E0,4.9988756E0,2.496642E0,6.9918456E0,1.634808E2,2.4915047E0,6.308045E1,2.4670433E1,1.10269905E2,4.990097E0,2.2462096E0,2.4962604E0,6.997855E0,2.5989136E1,1.1246773E1,7.996974E0,2.2994562E1,1.0246509E1,2.4995413E0,2.9986887E0,3.7485106E0,2.573762E2,4.7483854E0,1.0495574E1,2.2235735E1,8.743775E1,9.819996E1,1.5695676E2,1.6747208E1,2.2995825E1,3.5168304E2,4.8741447E1,4.1988396E1,6.4983506E0,1.2997612E1,1.0421963E2,2.4319023E2,1.1992636E1,1.7495121E1,5.2707893E1,9.495792E0,2.7471304E0,1.8462542E1,2.4978805E0,6.491763E0,7.2408066E0,3.7461681E0,6.2434835E0,2.4977133E0,5.2439322E0,3.091391E2,3.7406795E0,2.9980779E0,8.493814E1,2.4977982E0,6.245643E0,5.248815E0,3.4986672E0,3.572012E1,2.8225416E1,1.3496586E1,9.497999E0,1.3860683E2,2.2478662E0,1.08643295E2,2.4983733E0,4.5210243E1,2.9981413E0,1.02404375E1,1.6737783E1,9.740863E0,3.7475452E0,4.4902883E0,2.79043E2,2.994533E0,2.996067E0,7.4997277E0,2.9998407E0,4.499382E0,7.8475334E1,3.3614954E2,1.5244572E1,6.998842E0,5.7491293E0,7.743981E0,6.44402E1,2.24878E0,2.498509E0,2.2488108E0,2.4983258E0,3.4957478E0,1.123725E1,2.6735767E1,1.0990504E1,9.249452E0,3.374708E1,4.749834E0,4.02461E1,5.149025E1,6.749394E0,4.4994535E0,7.74869E0,7.849151E1,5.998358E0,1.2997412E1,2.9246422E1,2.2499137E0,3.2497964E0,5.298615E1,7.2471604E0,4.996934E0,2.2491734E0,3.4334668E2,8.738355E0,5.199559E1,2.9394116E2,5.2726383E1,5.749508E0,2.7485704E0,6.9934144E0,2.2478616E0,4.7449718E0,1.427971E2,1.1231783E1,1.0984268E1,1.6970081E1,8.993177E0,2.6130493E2,4.7468576E0,8.24361E0,1.0744343E1,7.495277E0,8.441948E1,1.2558404E2,1.5868158E2,6.489139E1,2.4985487E0,1.8722845E1,2.7493877E0,2.2494879E0,3.2433732E0,3.7484722E0,1.5998967E2,3.4911408E0,1.0466112E1,5.2614334E1,2.2426164E0,2.2427816E1,1.0225938E1,1.0004397E2,2.4944024E0,2.4956944E0,2.2490666E0,4.748789E0,1.7493858E1,8.495277E0,2.7494829E0,8.49729E0,2.9994814E0,4.997493E0,5.9986997E0,1.6995863E1,7.247355E0,2.9991536E0,2.5287828E2,4.4979196E0,2.4993246E0,2.2490609E0,4.7483735E0,5.747201E0,1.9236485E1,2.9992511E0,8.444052E1,2.997235E0,3.2486527E0,9.49513E1,5.2986958E1,1.03969795E2,3.9989302E0,1.2748278E1,5.9989963E0,1.6996828E1,1.0823293E2,2.4345012E2,2.5996737E1,2.2744709E1,3.9489334E1,2.4990606E0,3.9986625E0,2.4996881E0,8.74823E0,4.249382E0,2.5494562E1,7.872507E1,1.8670253E2,5.6487694E1,6.993701E0,4.9989347E0,2.4989984E0,1.4996123E1,2.7480016E0,4.9959892E1,5.4969964E0,3.998796E0],"tree_param":{"num_deleted":"0","num_feature":"2494","num_nodes":"391","size_leaf_vector":"0"}},{"base_weights":[-1.5773438E-2,-5.195477E-1,5.0049037E-1,-9.5002806E-1,-3.3254611E-1,9.1054E-1,2.6900965E-1,-1.2252065E0,-6.183503E-1,-1.2059963E-1,-4.7696984E-1,6.573097E-1,1.2124866E0,9.1097236E-2,4.821649E-1,5.671746E-1,-1.2424151E0,-3.08796E-1,-8.5896844E-1,1.9088289E-1,-3.3650658E-1,-6.5203166E-1,-3.0055457E-1,8.442128E-1,4.3359014E-1,1.4367466E0,1.0428634E0,1.2071017E-1,-8.5548246E-1,5.505247E-1,-9.683981E-2,1.089122E0,-1.2934367E-1,-1.1069973E0,-1.4870641E0,-8.5670984E-1,-2.242936E-1,-9.5698106E-1,-5.7760835E-1,1.0741643E-1,6.645347E-1,-6.7716295E-1,-2.4811323E-1,6.4930834E-2,-7.4175984E-1,-4.4590518E-1,-1.3548234E-1,1.710238E-1,9.0447783E-1,4.719685E-1,-2.6090235E-1,1.5870614E0,1.192476E0,1.0620714E0,-5.609978E-1,2.7494365E-1,6.4840815E-3,-1.0259078E0,-1.3801551E-1,8.728007E-1,4.4398883E-1,7.605358E-2,-7.590062E-1,6.209861E-1,-1.1236031E0,-1.5617855E0,-9.848682E-1,-1.01209E0,4.7063282E-1,-5.167019E-1,-8.1148475E-2,-9.7913796E-1,5.092341E-1,-6.911123E-1,3.3093524E-1,4.0955704E-1,-7.189775E-2,7.5541663E-1,-3.056913E-1,2.9388785E-1,-7.522588E-1,1.841917E-1,-2.8983608E-1,-6.5297776E-1,8.933607E-1,-3.956338E-1,-8.2328075E-1,-5.143812E-1,-4.099717E-2,-4.8643196E-1,-4.819384E-2,8.463461E-1,-4.2648998E-1,9.191595E-1,-4.735346E-1,4.9124473E-1,-9.536608E-1,-6.487617E-1,3.705286E-1,1.6091845E0,8.0791223E-1,4.1912103E-1,1.2743688E0,2.7782738E-1,1.0938584E0,6.9032943E-1,1.9229765E-1,1.8195654E-1,-1.3100912E-1,-1.1902575E0,-5.7729814E-2,8.273056E-1,-7.379102E-1,9.5025104E-1,2.760985E-1,4.8000357E-1,-1.5910712E-1,8.861255E-1,-3.515999E-2,-1.5109497E0,-5.801791E-2,-1.1497504E0,-1.8664646E-1,-1.577407E0,-4.471582E-1,-1.1382267E0,2.0700839E-1,-2.508937E-1,-1.1779094E0,-1.380948E0,-3.7771043E-1,6.0785395E-1,-1.4842467E-1,-7.7267003E-1,-1.1801858E0,-4.2975202E-1,-1.1184902E0,7.8369343E-1,-3.618447E-1,4.5832804E-1,-1.3779273E0,4.1313523E-1,-2.1560958E-1,8.355223E-1,-4.2855093E-1,-5.9473974E-1,9.9064195E-1,-7.8596735E-1,1.7357592E-1,1.1615404E0,-9.779827E-2,-4.3200308E-1,-1.6288312E-1,-3.1674582E-1,-1.301637E0,1.1974381E0,-1.9176923E-1,-1.9216807E-1,-1.3744155E0,-1.0310845E0,-7.020077E-1,-6.667105E-1,-3.5714728E-1,1.264019E-1,-7.8748846E-1,-7.5152856E-1,2.0265655E-1,-7.244747E-2,1.0486051E0,-2.2428933E-1,1.1478039E0,3.8003284E-1,-9.2026544E-1,9.923125E-1,6.7005837E-1,5.288447E-1,-2.0131768E-1,2.1152928E-1,-1.1859269E0,7.2742367E-1,-1.8277735E-1,1.6277455E0,7.606812E-1,3.713556E-1,9.950385E-1,-4.07502E-1,1.0292076E0,1.311534E0,4.706988E-2,7.551016E-1,-4.4526663E-1,1.1520238E0,6.1534107E-1,2.2794732E-1,9.404975E-1,3.7615678E-1,3.6542483E-2,1.1248616E0,1.4006634E-1,-1.8161662E-2,-5.745598E-1,-4.3720528E-1,-1.287357E0,1.0327811E0,4.85549E-1,1.0006723E0,-2.4203739E-1,1.3951947E-1,5.156366E-1,-7.148045E-1,2.4675266E-1,1.9661807E-1,1.3984448E0,-1.4420956E-1,8.723824E-1,-5.4164994E-1,6.3063294E-1,-1.0010477E0,-1.2482123E0,-7.1032035E-1,6.8908143E-1,-6.49298E-1,-1.5919782E0,-3.59423E-1,-1.2611372E0,-1.5946594E0,-7.4851257E-1,1.0556138E0,-5.346599E-1,1.1373091E0,-8.784414E-2,-2.6982164E-1,3.5053688E-1,-9.7418475E-1,-4.5599726E-1,-7.454467E-2,-1.2092174E0,-6.792728E-1,4.1551467E-2,-8.1581086E-2,-1.2703246E0,-9.4008493E-1,5.0264806E-1,-5.7025814E-1,5.610589E-1,-2.9292366E-1,3.87628E-1,2.0042385E-1,1.0008088E0,-6.700235E-1,-1.0860319E0,7.0388634E-3,1.6623259E0,-3.1861115E-1,1.0372514E0,-8.576459E-1,-3.8600886E-1,-1.9089222E-1,6.599902E-1,4.789391E-1,-6.476636E-1,-3.9643097E-1,-1.4541177E0,3.2220024E-1,1.3386104E0,4.3633023E-1,-9.673658E-1,-5.101156E-1,-5.832505E-3,-1.486252E0,-3.8284576E-1,-1.4183658E0,-9.692661E-1,-7.2197086E-1,3.679677E-1,-7.245273E-1,2.5992674E-1,-1.1530991E-1,-9.509038E-1,-1.0834113E0,2.6633164E-1,-3.1605074E-1,-1.2677824E0,-1.5135862E-1,-9.925547E-1,6.813282E-1,-6.429782E-1,-4.4487047E-1,-9.566696E-3,1.3870469E0,3.476165E-1,-2.0716E-1,8.655533E-1,-1.2613627E0,-2.4223311E-1,1.0103649E0,-1.0817084E-1,-6.681768E-1,7.4638367E-1,4.461854E-1,8.3446586E-1,-9.0980035E-1,1.2922867E-1,-1.4925158E0,-4.6728164E-1,1.3083462E0,4.7466654E-1,1.0380697E0,1.4832636E0,-2.1820302E-1,1.1929431E0,-8.3214444E-1,7.8981414E-2,8.1039923E-1,1.2005728E0,1.0536184E0,3.51041E-1,-9.9759763E-1,4.1372007E-1,6.011438E-1,1.2103211E0,-7.261534E-2,4.3767884E-1,1.22429006E-1,-4.5242155E-1,4.3963072E-1,1.2545803E0,-1.9152415E-1,2.3983477E-1,-2.6493466E-1,1.1233583E-1,-1.0452962E0,-3.4063405E-1,-1.4261909E0,-7.2525764E-1,1.4074371E0,9.0345716E-1,-1.3290559E-1,8.3286476E-1,5.7687674E-2,1.3505071E0,-1.2578183E0,1.3253233E-1,-2.8095886E-1,5.589513E-1,1.3639982E-1,5.4563355E-1,-1.8694119E-1,-1.3815182E0,5.661831E-1,-2.6157486E-1,1.6227837E-1,-5.185532E-1,-1.7142907E-1,1.3761442E0,-1.1114644E0,2.1996066E-2],"categories":[],"categories_nodes":[],"categories_segments":[],"categories_sizes":[],"default_left":[true,true,true,true,true,true,true,true,true,true,true,true,true,true,true,true,true,true,true,true,true,true,true,true,true,true,true,true,true,true,true,false,false,true,true,true,true,true,true,true,true,true,true,true,true,true,true,true,true,true,true,true,true,true,false,true,true,true,true,true,true,true,true,false,true,true,true,true,false,true,true,true,false,true,true,true,true,true,false,true,true,true,true,true,true,true,true,true,true,true,true,true,true,true,false,true,false,true,true,true,true,true,true,true,true,true,true,true,true,true,false,false,false,true,true,true,true,true,true,false,true,true,true,true,false,true,false,false,true,false,true,true,true,true,true,true,true,false,false,true,false,true,true,true,false,false,false,true,false,true,true,true,true,true,true,true,true,true,true,true,true,true,true,true,true,true,true,true,false,false,true,true,true,true,true,true,true,false,true,false,false,false,false,false,false,false,true,true,false,true,true,true,true,true,true,true,true,true,true,true,true,false,true,true,true,true,true,true,true,true,true,false,false,true,true,true,false,false,false,false,false,false,false,false,false,false,false,false,false,false,false,false,false,false,false,false,false,false,false,false,false,false,false,false,false,false,false,false,false,false,false,false,false,false,false,false,false,false,false,false,false,false,false,false,false,false,false,false,false,false,false,false,false,false,false,false,false,false,false,false,false,false,false,false,false,false,false,false,false,false,false,false,false,false,false,false,false,false,false,false,false,false,false,false,false,false,false,false,false,false,false,false,false,false,false,false,false,false,false,false,false,false,false,false,false,false,false,false,false,false,false,false,false,false,false,false,false,false,false,false,false,false,false,false,false,false,false,false,false,false,false,false,false,false,false,false,false],"id":3,"left_children":[1,3,5,7,9,11,13,15,17,19,21,23,25,27,29,31,33,35,37,39,41,43,45,47,49,51,53,55,57,59,61,-1,-1,63,65,67,69,71,73,75,77,79,81,83,85,87,89,91,93,95,97,99,101,103,-1,105,107,109,111,113,115,117,119,-1,121,123,125,127,-1,129,131,133,-1,135,137,139,141,143,-1,145,147,149,151,153,155,157,159,161,163,165,167,169,171,173,-1,175,-1,177,179,181,183,185,187,189,191,193,195,197,199,201,-1,-1,-1,203,205,207,209,211,213,-1,215,217,219,221,-1,223,-1,-1,225,-1,227,229,231,233,235,237,239,-1,-1,241,-1,243,245,247,-1,-1,-1,249,-1,251,253,255,257,259,261,263,265,267,269,271,273,275,277,279,281,283,285,287,-1,-1,289,291,293,295,297,299,301,-1,303,-1,-1,-1,-1,-1,-1,-1,305,307,-1,309,311,313,315,317,319,321,323,325,327,329,331,-1,333,335,337,339,341,343,345,347,349,-1,-1,351,353,355,-1,-1,-1,-1,-1,-1,-1,-1,-1,-1,-1,-1,-1,-1,-1,-1,-1,-1,-1,-1,-1,-1,-1,-1,-1,-1,-1,-1,-1,-1,-1,-1,-1,-1,-1,-1,-1,-1,-1,-1,-1,-1,-1,-1,-1,-1,-1,-1,-1,-1,-1,-1,-1,-1,-1,-1,-1,-1,-1,-1,-1,-1,-1,-1,-1,-1,-1,-1,-1,-1,-1,-1,-1,-1,-1,-1,-1,-1,-1,-1,-1,-1,-1,-1,-1,-1,-1,-1,-1,-1,-1,-1,-1,-1,-1,-1,-1,-1,-1,-1,-1,-1,-1,-1,-1,-1,-1,-1,-1,-1,-1,-1,-1,-1,-1,-1,-1,-1,-1,-1,-1,-1,-1,-1,-1,-1,-1,-1,-1,-1,-1,-1,-1,-1,-1,-1,-1,-1,-1,-1,-1],"loss_changes":[1.5700732E3,2.456438E2,2.8275427E2,8.364661E1,6.519133E1,8.142883E1,7.2279495E1,1.6263E1,3.1119125E1,5.825014E1,3.8946167E1,2.4181076E1,1.7115479E1,2.9275797E1,3.4385178E1,2.134337E0,1.4916504E1,8.4122925E0,5.9695587E0,1.3956932E1,1.522995E1,4.091745E1,1.5130249E1,1.2778549E1,7.3000298E0,5.747528E0,9.291077E0,1.7792406E1,3.733797E0,2.6253784E1,1.0641135E1,0E0,0E0,1.0044128E1,5.0366516E0,5.524544E0,6.7541075E0,6.147644E0,6.7901325E0,1.6438501E1,4.901512E0,7.861313E0,7.4050407E0,4.315626E1,1.5608337E1,9.301521E0,9.101918E0,1.1428113E1,6.350189E0,7.490406E0,3.851461E0,8.681946E-1,4.740677E0,6.657501E0,0E0,1.4619888E1,1.4048425E1,3.9817162E0,4.8024793E0,8.599045E0,1.27871475E1,6.717102E0,1.0049085E1,0E0,7.6979065E0,1.9206238E0,4.878422E0,2.5102978E0,0E0,5.865904E0,5.197869E0,6.2128754E0,0E0,5.8733196E0,2.7120461E0,1.0478394E1,1.3397193E1,4.9788227E0,0E0,5.691019E0,3.1802826E0,1.0169333E1,6.6455116E0,8.077738E0,1.1334734E1,2.1557264E1,1.077121E1,6.648163E0,6.313112E0,1.0970841E1,6.4513E0,4.52106E0,6.409644E0,4.6127167E0,0E0,6.688751E0,0E0,4.6398687E0,1.3665907E0,6.722717E-1,7.826376E-2,5.192777E0,3.351143E0,4.5529003E0,6.7513733E0,7.9898148E0,1.028999E1,9.946045E0,1.6332165E1,1.0246353E0,0E0,0E0,0E0,5.9917297E0,9.041527E0,6.6309586E0,7.783217E0,2.9031653E0,6.679051E0,0E0,4.0027304E0,3.3480835E0,5.058088E0,9.7232056E-1,0E0,1.7156734E0,0E0,0E0,2.024374E0,0E0,1.1178947E1,3.7827036E0,6.2239532E0,5.1442986E0,2.6403427E0,4.3702755E0,3.196661E0,0E0,0E0,7.3336067E0,0E0,6.717815E0,7.0132413E0,4.625225E0,0E0,0E0,0E0,2.5526505E0,0E0,4.7567425E0,7.6586847E0,3.0935173E0,4.6934853E0,7.4087873E0,1.2134342E0,2.8339844E0,4.4307027E0,5.4403467E0,1.5041656E0,2.598587E0,6.485092E0,7.9502716E0,2.0514793E1,7.310211E0,1.692944E0,6.0673504E0,7.4170003E0,5.508685E0,0E0,0E0,1.52246E0,2.0284634E0,1.9448929E0,4.515564E0,7.528534E0,5.6914673E0,3.3355072E0,0E0,6.241493E-1,0E0,0E0,0E0,0E0,0E0,0E0,0E0,2.6585865E-1,1.8690491E0,0E0,3.5549426E0,1.1786174E0,2.9717407E0,3.2437887E0,6.3825502E0,3.4573898E0,4.584776E0,8.282185E0,4.0297222E-1,8.186108E0,8.444937E0,6.9323654E0,0E0,4.262371E-1,5.6515045E0,6.0006795E0,3.2101183E0,5.672664E0,9.629791E0,5.61084E0,4.8422103E0,3.4338007E0,0E0,0E0,6.9647913E0,4.0455E0,2.2712288E0,0E0,0E0,0E0,0E0,0E0,0E0,0E0,0E0,0E0,0E0,0E0,0E0,0E0,0E0,0E0,0E0,0E0,0E0,0E0,0E0,0E0,0E0,0E0,0E0,0E0,0E0,0E0,0E0,0E0,0E0,0E0,0E0,0E0,0E0,0E0,0E0,0E0,0E0,0E0,0E0,0E0,0E0,0E0,0E0,0E0,0E0,0E0,0E0,0E0,0E0,0E0,0E0,0E0,0E0,0E0,0E0,0E0,0E0,0E0,0E0,0E0,0E0,0E0,0E0,0E0,0E0,0E0,0E0,0E0,0E0,0E0,0E0,0E0,0E0,0E0,0E0,0E0,0E0,0E0,0E0,0E0,0E0,0E0,0E0,0E0,0E0,0E0,0E0,0E0,0E0,0E0,0E0,0E0,0E0,0E0,0E0,0E0,0E0,0E0,0E0,0E0,0E0,0E0,0E0,0E0,0E0,0E0,0E0,0E0,0E0,0E0,0E0,0E0,0E0,0E0,0E0,0E0,0E0,0E0,0E0,0E0,0E0,0E0,0E0,0E0,0E0,0E0,0E0,0E0,0E0,0E0,0E0,0E0,0E0,0E0,0E0,0E0,0E0,0E0,0E0,0E0],"parents":[2147483647,0,0,1,1,2,2,3,3,4,4,5,5,6,6,7,7,8,8,9,9,10,10,11,11,12,12,13,13,14,14,15,15,16,16,17,17,18,18,19,19,20,20,21,21,22,22,23,23,24,24,25,25,26,26,27,27,28,28,29,29,30,30,33,33,34,34,35,35,36,36,37,37,38,38,39,39,40,40,41,41,42,42,43,43,44,44,45,45,46,46,47,47,48,48,49,49,50,50,51,51,52,52,53,53,55,55,56,56,57,57,58,58,59,59,60,60,61,61,62,62,64,64,65,65,66,66,67,67,69,69,70,70,71,71,73,73,74,74,75,75,76,76,77,77,79,79,80,80,81,81,82,82,83,83,84,84,85,85,86,86,87,87,88,88,89,89,90,90,91,91,92,92,93,93,95,95,97,97,98,98,99,99,100,100,101,101,102,102,103,103,104,104,105,105,106,106,107,107,108,108,109,109,113,113,114,114,115,115,116,116,117,117,118,118,120,120,121,121,122,122,123,123,125,125,128,128,130,130,131,131,132,132,133,133,134,134,135,135,136,136,139,139,141,141,142,142,143,143,147,147,149,149,150,150,151,151,152,152,153,153,154,154,155,155,156,156,157,157,158,158,159,159,160,160,161,161,162,162,163,163,164,164,165,165,166,166,167,167,170,170,171,171,172,172,173,173,174,174,175,175,176,176,178,178,186,186,187,187,189,189,190,190,191,191,192,192,193,193,194,194,195,195,196,196,197,197,198,198,199,199,200,200,202,202,203,203,204,204,205,205,206,206,207,207,208,208,209,209,210,210,213,213,214,214,215,215],"right_children":[2,4,6,8,10,12,14,16,18,20,22,24,26,28,30,32,34,36,38,40,42,44,46,48,50,52,54,56,58,60,62,-1,-1,64,66,68,70,72,74,76,78,80,82,84,86,88,90,92,94,96,98,100,102,104,-1,106,108,110,112,114,116,118,120,-1,122,124,126,128,-1,130,132,134,-1,136,138,140,142,144,-1,146,148,150,152,154,156,158,160,162,164,166,168,170,172,174,-1,176,-1,178,180,182,184,186,188,190,192,194,196,198,200,202,-1,-1,-1,204,206,208,210,212,214,-1,216,218,220,222,-1,224,-1,-1,226,-1,228,230,232,234,236,238,240,-1,-1,242,-1,244,246,248,-1,-1,-1,250,-1,252,254,256,258,260,262,264,266,268,270,272,274,276,278,280,282,284,286,288,-1,-1,290,292,294,296,298,300,302,-1,304,-1,-1,-1,-1,-1,-1,-1,306,308,-1,310,312,314,316,318,320,322,324,326,328,330,332,-1,334,336,338,340,342,344,346,348,350,-1,-1,352,354,356,-1,-1,-1,-1,-1,-1,-1,-1,-1,-1,-1,-1,-1,-1,-1,-1,-1,-1,-1,-1,-1,-1,-1,-1,-1,-1,-1,-1,-1,-1,-1,-1,-1,-1,-1,-1,-1,-1,-1,-1,-1,-1,-1,-1,-1,-1,-1,-1,-1,-1,-1,-1,-1,-1,-1,-1,-1,-1,-1,-1,-1,-1,-1,-1,-1,-1,-1,-1,-1,-1,-1,-1,-1,-1,-1,-1,-1,-1,-1,-1,-1,-1,-1,-1,-1,-1,-1,-1,-1,-1,-1,-1,-1,-1,-1,-1,-1,-1,-1,-1,-1,-1,-1,-1,-1,-1,-1,-1,-1,-1,-1,-1,-1,-1,-1,-1,-1,-1,-1,-1,-1,-1,-1,-1,-1,-1,-1,-1,-1,-1,-1,-1,-1,-1,-1,-1,-1,-1,-1,-1,-1],"split_conditions":[1.7283515E-3,-3.2475692E-1,2.25E1,-5.708383E-1,3.3333335E-2,3.0852354E-1,5.449344E-1,-4.8333335E-1,3.3333335E-2,6.85E1,-4.491275E-1,-5.9816515E-1,-8.377006E-1,2.955E2,1.405E2,5E-1,1.5630722E0,4.2222223E-1,8.85E1,2.4285716E-1,-5.157295E-1,1.1006577E0,-1.1904325E-1,1.5476191E-1,-1.0435572E-1,5E-1,5E-1,-8.391608E-2,1.302631E-1,-5.2020407E-1,3.515E2,4.011454E-2,-4.763986E-3,1.75E1,-7.122153E-1,1.4903398E0,-3.726974E-1,5E-1,4.8333335E-1,-2.6785713E-1,5.4861087E-1,-4.8333335E-1,-5E-1,1.0996757E0,2.55E1,6.904762E-1,5.0433695E-1,-3.3333335E-2,5E-1,5E-1,1.75E1,5E-1,5.665845E-1,1.2285223E0,-2.066267E-2,3.65E1,4.75E1,1.1704196E0,5.34948E-1,1.4270341E0,3.030303E-1,1.9525765E-1,3.233815E-1,2.287216E-2,1.1614044E0,2.975E2,5E-1,7.2114176E-1,1.7334348E-2,5.8700895E-1,9.9039924E-1,5E-1,1.8756108E-2,1.225E2,7.1407485E-1,-1.6708437E-2,5.103074E-1,5E-1,-1.12592215E-2,1.0900054E0,1.3833795E0,-4.8333335E-1,5E-1,3.030303E-1,1.0997388E0,1.632237E0,-7.376518E-1,-3.3333335E-2,-1.3902506E-1,-2.8900942E-3,-1.8072944E-2,7.5E0,5E-1,3.0952382E-1,-1.7441226E-2,6.666667E-1,-3.5125233E-2,8.482491E-2,-4.4466406E-2,5E-1,5.846194E-1,5E-1,5E-1,7.5900185E-1,-4.2444998E-1,2.75E1,5E-1,-2.6666668E-1,1.198268E0,-6.181818E-1,-2.1263044E-3,3.0471317E-2,-2.7178707E-2,5.6562465E-1,3.05E1,4.0178573E-1,1.303491E0,9.505273E-1,5.635265E-1,-5.5651296E-2,5E-1,5E-1,5E-1,5.553498E-1,-1.646973E-2,1.5839059E0,7.6245326E-3,-9.240917E-3,8.478126E-1,-5.0863072E-2,5.9210336E-1,5E-1,9.4146454E-1,5.970112E-1,-5.5988085E-1,-4.0699953E-1,-6.181818E-1,2.8864995E-2,-1.3327463E-2,8.7662154E-1,-5.0751816E-2,5.0059867E-1,1.3669863E0,1.1311104E0,-1.5784387E-2,-2.1905452E-2,3.6487322E-2,5.556787E-1,6.393148E-3,1.115E2,1.2043967E0,-2.901007E-1,-6.1371634E-3,6.8E1,3.25E-1,4.15E1,3.75E1,4.2222223E-1,1.8648772E0,5.151036E-1,5E-1,4.8333335E-1,4.6060607E-1,8.854452E-1,5E-1,2.65E1,5E-1,-2.792208E-1,3.862222E-2,-8.261024E-3,-6.692857E-1,1.2002373E0,-6.7772174E-1,3.066408E-1,1.071572E0,4.8333335E-1,-4.6802723E-1,7.791046E-3,1.3122727E0,2.6792467E-2,-6.7320545E-3,5.995312E-2,2.801741E-2,1.3677768E-2,3.6649257E-2,-1.5009113E-2,3.5E0,1.4833344E0,1.7336777E-3,5.790385E-1,8.3030474E-1,1.3333334E-1,5.655801E-1,-7.267748E-1,5E-1,4.166667E-1,1.3E2,1.0172597E0,4.1428572E-1,5E-1,1.305879E0,-1.6103145E-2,5.234427E-1,-7.1548414E-1,5E-1,2.45E1,-7.7661735E-1,5.659418E-1,6.0485804E-1,5E-1,3.6666667E-1,7.2418363E-3,5.1507514E-2,-1.8333334E-1,-6.904762E-1,-4.1428572E-1,2.322747E-2,-3.6870588E-2,-4.5974154E-2,-2.6162518E-2,2.5380244E-2,-2.3914943E-2,-5.8635738E-2,-1.3238267E-2,-4.6450205E-2,-5.873449E-2,-2.7569212E-2,3.8880363E-2,-1.9692592E-2,4.1889366E-2,-3.2354752E-3,-9.93807E-3,1.2910973E-2,-3.588117E-2,-1.679529E-2,-2.745629E-3,-4.4537894E-2,-2.5018973E-2,1.5304235E-3,-3.0047942E-3,-4.6788592E-2,-3.4625206E-2,1.8513532E-2,-2.1003745E-2,2.066492E-2,-1.0788963E-2,1.4277113E-2,7.3820106E-3,3.686179E-2,-2.4678303E-2,-4.0000726E-2,2.592554E-4,6.122678E-2,-1.17350845E-2,3.820404E-2,-3.158881E-2,-1.4217477E-2,-7.0309415E-3,2.4308758E-2,1.7640283E-2,-2.3854744E-2,-1.4601344E-2,-5.355806E-2,1.1867278E-2,4.9303696E-2,1.6070914E-2,-3.5630014E-2,-1.8788578E-2,-2.1482281E-4,-5.474163E-2,-1.4100974E-2,-5.2241247E-2,-3.570001E-2,-2.6591629E-2,1.3552985E-2,-2.6685787E-2,9.573621E-3,-4.247094E-3,-3.5023686E-2,-3.9904203E-2,9.809527E-3,-1.164078E-2,-4.669496E-2,-5.57484E-3,-3.655777E-2,2.5094677E-2,-2.3682171E-2,-1.6385468E-2,-3.5236054E-4,5.1087707E-2,1.280341E-2,-7.6301163E-3,3.188006E-2,-4.6458505E-2,-8.92193E-3,3.7213758E-2,-3.984148E-3,-2.4610285E-2,2.7490802E-2,1.64339E-2,3.0735044E-2,-3.3509765E-2,4.75975E-3,-5.497234E-2,-1.7210916E-2,4.8189003E-2,1.7482916E-2,3.823418E-2,5.463156E-2,-8.036853E-3,4.3938477E-2,-3.0649541E-2,2.9090433E-3,2.9848622E-2,4.4219498E-2,3.880687E-2,1.2929541E-2,-3.6743514E-2,1.5238137E-2,2.2141326E-2,4.457854E-2,-2.674568E-3,1.6120587E-2,4.5093047E-3,-1.6663589E-2,1.6192477E-2,4.62087E-2,-7.0542167E-3,8.833594E-3,-9.758073E-3,4.137553E-3,-3.8500346E-2,-1.2546232E-2,-5.2529458E-2,-2.6712688E-2,5.183872E-2,3.3276133E-2,-4.895178E-3,3.0676072E-2,2.1247522E-3,4.9741875E-2,-4.6327963E-2,4.8814304E-3,-1.0348276E-2,2.0587293E-2,5.0238776E-3,2.0096773E-2,-6.8854173E-3,-5.0884075E-2,2.0853654E-2,-9.634324E-3,5.9770364E-3,-1.909935E-2,-6.314075E-3,5.068614E-2,-4.0937454E-2,8.10159E-4],"split_indices":[13,13,0,11,6,13,12,6,6,0,11,11,11,0,0,29,10,2,0,3,11,10,13,2,11,29,36,6,13,11,0,0,0,0,11,10,11,881,6,6,12,6,8,10,0,2,12,6,1935,2465,0,32,12,9,0,0,0,9,12,9,6,13,13,0,9,0,17,9,0,12,10,45,0,0,9,11,12,28,0,10,10,3,5,6,9,10,11,3,13,13,11,0,8,6,0,6,0,13,11,52,13,5,144,10,11,0,8,3,10,3,0,0,0,13,0,2,9,9,13,0,45,8,29,12,0,10,0,0,9,0,12,8,9,12,11,13,3,0,0,10,0,12,10,10,0,0,0,12,0,0,10,13,13,0,2,0,0,2,10,12,15,6,6,9,47,0,40,3,0,0,11,10,11,13,10,3,11,0,10,0,0,0,0,0,0,0,0,9,0,10,10,3,12,11,8,2,0,10,2,5,9,0,12,11,45,0,11,12,10,46,6,0,0,3,6,6,0,0,0,0,0,0,0,0,0,0,0,0,0,0,0,0,0,0,0,0,0,0,0,0,0,0,0,0,0,0,0,0,0,0,0,0,0,0,0,0,0,0,0,0,0,0,0,0,0,0,0,0,0,0,0,0,0,0,0,0,0,0,0,0,0,0,0,0,0,0,0,0,0,0,0,0,0,0,0,0,0,0,0,0,0,0,0,0,0,0,0,0,0,0,0,0,0,0,0,0,0,0,0,0,0,0,0,0,0,0,0,0,0,0,0,0,0,0,0,0,0,0,0,0,0,0,0,0,0,0,0,0,0,0,0,0,0,0,0,0,0],"split_type":[0,0,0,0,0,0,0,0,0,0,0,0,0,0,0,0,0,0,0,0,0,0,0,0,0,0,0,0,0,0,0,0,0,0,0,0,0,0,0,0,0,0,0,0,0,0,0,0,0,0,0,0,0,0,0,0,0,0,0,0,0,0,0,0,0,0,0,0,0,0,0,0,0,0,0,0,0,0,0,0,0,0,0,0,0,0,0,0,0,0,0,0,0,0,0,0,0,0,0,0,0,0,0,0,0,0,0,0,0,0,0,0,0,0,0,0,0,0,0,0,0,0,0,0,0,0,0,0,0,0,0,0,0,0,0,0,0,0,0,0,0,0,0,0,0,0,0,0,0,0,0,0,0,0,0,0,0,0,0,0,0,0,0,0,0,0,0,0,0,0,0,0,0,0,0,0,0,0,0,0,0,0,0,0,0,0,0,0,0,0,0,0,0,0,0,0,0,0,0,0,0,0,0,0,0,0,0,0,0,0,0,0,0,0,0,0,0,0,0,0,0,0,0,0,0,0,0,0,0,0,0,0,0,0,0,0,0,0,0,0,0,0,0,0,0,0,0,0,0,0,0,0,0,0,0,0,0,0,0,0,0,0,0,0,0,0,0,0,0,0,0,0,0,0,0,0,0,0,0,0,0,0,0,0,0,0,0,0,0,0,0,0,0,0,0,0,0,0,0,0,0,0,0,0,0,0,0,0,0,0,0,0,0,0,0,0,0,0,0,0,0,0,0,0,0,0,0,0,0,0,0,0,0,0,0,0,0,0,0,0,0,0,0,0,0,0,0,0,0,0,0,0,0,0,0,0,0],"sum_hessian":[6.0348765E3,3.054381E3,2.9804954E3,9.237696E2,2.1306113E3,1.0743812E3,1.906114E3,5.034146E2,4.20355E2,8.642019E2,1.2664094E3,5.860565E2,4.8832465E2,1.039724E3,8.663901E2,4.4833946E0,4.989312E2,1.8484102E2,2.3551398E2,3.538414E2,5.103605E2,6.342898E2,6.321197E2,3.177901E2,2.6826642E2,2.0707686E2,2.812478E2,1.00902985E3,3.0694153E1,7.749458E2,9.144429E1,2.2406561E0,2.2427387E0,3.2471826E2,1.7421295E2,2.3477106E1,1.6136392E2,1.7288701E2,6.262696E1,3.018725E2,5.19689E1,1.0377284E2,4.0658768E2,7.058277E1,5.6370703E2,3.3523495E2,2.9688474E2,2.6426916E1,2.913632E2,2.545217E2,1.3744719E1,1.247892E2,8.228766E1,2.782532E2,2.9946039E0,4.287305E2,5.802993E2,2.445522E1,6.238935E0,1.9074391E2,5.8420184E2,7.321326E1,1.8231031E1,2.7444034E0,3.2197388E2,1.4981253E2,2.4400415E1,2.122947E1,2.2476368E0,5.2174778E1,1.0918914E2,1.7064056E2,2.2464561E0,5.588464E1,6.7423234E0,1.119519E2,1.8992061E2,4.7720295E1,4.248602E0,7.240014E0,9.653283E1,3.548637E1,3.711013E2,3.7927223E1,3.2655544E1,1.0857341E2,4.5513364E2,2.8651123E2,4.872371E1,5.822287E1,2.3866185E2,1.2210225E1,1.4216691E1,2.8862115E2,2.742044E0,2.5177284E2,2.7488532E0,8.497588E0,5.24713E0,1.2030787E2,4.4813337E0,8.465125E0,7.382254E1,1.1218215E1,2.6703497E2,6.992562E1,3.588049E2,2.5479712E2,3.2550223E2,2.0710243E1,3.7449746E0,2.245884E0,3.993051E0,1.6830577E2,2.2438137E1,5.5147394E2,3.272794E1,7.9968657E0,6.521639E1,8.238361E0,9.992669E0,3.130117E2,8.962192E0,1.4733249E2,2.4800513E0,2.1658619E1,2.7417965E0,4.24693E0,1.6982538E1,5.990495E0,4.6184284E1,8.99834E0,1.001908E2,8.657488E1,8.4065674E1,3.5922203E1,1.9962437E1,3.9981494E0,2.7441738E0,1.0970229E2,2.2496042E0,4.298153E1,1.4693909E2,4.4971863E1,2.748434E0,3.2462366E0,3.9937775E0,9.3287415E1,3.2454143E0,7.2476535E0,2.8238718E1,1.7392746E2,1.9717384E2,2.5959465E1,1.1967759E1,2.5426876E1,7.22867E0,9.087829E1,1.7695126E1,1.6496346E2,2.9017017E2,1.4387949E2,1.4263174E2,4.047741E1,8.2463E0,4.1981655E1,1.6241215E1,2.3441222E2,4.2496367E0,2.7389076E0,9.471317E0,5.4861226E0,8.730569E0,2.2079663E2,6.782451E1,2.3903194E2,1.2740914E1,3.4993906E0,4.998198E0,2.9984043E0,2.2487257E0,1.1683377E2,3.4740996E0,2.2400122E0,2.2413213E0,3.73565E0,4.7294755E0,7.158611E1,2.23642E0,6.7311144E0,4.4871E0,2.368389E2,3.019608E1,2.5221064E1,4.4704556E1,1.6390746E2,1.9489743E2,9.738608E0,2.4505852E2,2.603144E2,6.518783E1,2.993887E0,1.7716356E1,1.4188486E2,2.6420916E1,8.967072E0,1.34710655E1,5.271196E1,4.9876196E2,1.3492707E1,1.923523E1,3.9988174E0,3.998048E0,5.8971523E1,6.2448726E0,5.9955335E0,3.9971359E0,1.2914175E2,1.8386992E2,5.726625E0,3.2355673E0,2.9815805E0,1.443509E2,3.4871428E0,1.8171474E1,7.241041E0,9.741497E0,3.9929829E0,4.21913E1,4.7492156E0,4.249124E0,8.095399E1,1.923681E1,5.1638447E1,3.493644E1,2.242178E0,8.1823494E1,2.3198845E1,1.2723356E1,2.7460928E0,1.7216345E1,2.7491183E0,1.0695318E2,5.246672E0,3.773486E1,1.3070204E2,1.6237043E1,9.744001E0,3.522786E1,6.961958E1,2.366783E1,2.499472E0,4.748182E0,2.4241974E1,3.996743E0,1.5240557E1,1.586869E2,1.9142606E2,5.747774E0,7.4937043E0,1.8465761E1,2.244297E0,9.723462E0,3.987507E0,2.143937E1,4.235816E0,2.992854E0,3.2938E1,5.7940285E1,1.5453301E1,2.2418237E0,1.9686558E1,1.452769E2,2.8517474E2,4.9954276E0,1.3563478E2,8.244715E0,1.02199875E2,4.043187E1,3.4973414E0,3.698007E1,4.99825E0,3.24805E0,1.2495377E1,2.9486279E1,1.04948845E1,5.74633E0,3.2983936E1,2.0142827E2,6.7267313E0,2.7445858E0,2.7425644E0,2.743558E0,5.2361126E0,3.4944563E0,2.173137E2,3.4829228E0,3.241199E0,6.458331E1,1.9008173E2,4.8950203E1,3.4957724E0,9.245142E0,2.7487001E0,2.249498E0,2.2417285E0,2.4877467E0,3.0331163E1,4.1254955E1,2.2441332E0,4.4869814E0,2.24388E0,2.2432203E0,3.1671188E1,2.0516771E2,1.0235893E1,1.9960184E1,2.7446415E0,2.2476423E1,2.1230782E1,2.3473776E1,1.9739262E1,1.441682E2,1.6641606E2,2.8481363E1,2.2487638E0,7.489845E0,5.646655E1,1.8859196E2,8.968615E1,1.7062823E2,2.0488884E1,4.4698944E1,1.2974503E1,4.7418537E0,3.38724E1,1.0801246E2,9.723648E0,1.6697268E1,2.7416942E0,6.225377E0,2.9939241E0,1.0477141E1,2.6488008E1,2.6223953E1,3.6965977E1,4.61796E2,8.245118E0,5.247589E0,1.1742493E1,7.492738E0,3.2735966E1,2.6235556E1,2.2475584E0,3.9973142E0,2.4981372E0,3.4973962E0],"tree_param":{"num_deleted":"0","num_feature":"2494","num_nodes":"357","size_leaf_vector":"0"}},{"base_weights":[-2.4063261E-2,5.1163673E-1,-5.372092E-1,9.629246E-1,2.9391462E-1,-9.0657836E-1,-2.385496E-1,7.498544E-1,1.2062556E0,2.6992203E-3,4.870274E-1,-1.1374158E0,-6.6354114E-1,-4.957092E-1,-3.994516E-3,4.4850945E-1,8.388331E-1,1.4623494E0,1.0293252E0,1.6826895E-1,-1.5268724E-1,3.9780447E-1,7.1040714E-1,-1.019863E0,-1.4760479E0,-9.015891E-1,-5.6995887E-1,-4.350411E-1,-8.7711126E-1,-1.3137007E-1,1.8008642E-1,2.25419E-1,1.1720865E0,3.209501E-1,8.8224345E-1,1.4784634E0,4.4129702E-1,-1.6326519E-2,1.052318E0,1.112554E-1,5.4386616E-1,-1.8064005E-2,-5.88992E-1,3.2496375E-1,5.991369E-1,3.820323E-1,8.5769993E-1,-1.1259185E0,-8.542468E-1,-1.4881194E0,-4.3795833E-1,-9.25593E-1,6.295588E-1,-5.9099275E-1,7.5867385E-1,-4.8144087E-1,-5.0268393E-2,-9.145682E-1,1.4992583E-1,-3.3954784E-1,-5.3633194E-2,8.777599E-2,4.4830558E-1,-1.1526858E0,2.765707E-1,1.5898162E0,2.9764012E-1,-1.735358E-1,6.225396E-1,1.0861983E0,7.7918714E-1,1.2206451E0,1.556364E0,-6.2514025E-1,4.9014E-1,1.0788038E0,5.8437866E-1,2.3485212E-1,-1.2001922E-1,2.6226891E-2,7.671981E-1,1.1295822E-3,-1.0966424E0,-7.1578765E-1,2.4577561E-1,4.6248817E-1,1.8751524E-1,6.19911E-1,-9.023854E-1,8.075252E-1,2.5158805E-1,7.931622E-1,1.4613631E0,9.310109E-2,-1.1378058E0,-9.9396133E-1,-5.016905E-1,-1.586331E0,-1.30418E0,-9.4954586E-1,-1.0097185E-2,-6.2069064E-1,1.808677E-1,1.1662579E0,1.2460762E-1,-6.010921E-1,-3.1206286E-1,8.907619E-1,-1.1771835E-1,-1.0004156E0,-4.649025E-1,-4.1675913E-1,1.873029E-1,-1.3194111E-1,3.253919E-1,1.5515308E-1,-3.82073E-1,8.6603045E-1,2.0507848E-1,6.876431E-2,6.16923E-1,7.099701E-1,1.66688E0,-8.742308E-1,9.669015E-1,-8.415587E-1,4.2954877E-1,1.3367687E0,2.0884736E-1,1.1333396E0,-5.239786E-2,7.962376E-1,-6.2908906E-1,1.2802986E0,4.404106E-2,1.5676038E0,6.208112E-1,1.0899293E0,1.2777732E-1,8.3421355E-1,-1.9493812E-1,3.501382E-1,-9.890157E-2,2.5613034E-1,-2.5926724E-1,-3.820448E-1,6.575125E-1,8.557411E-1,-2.8023819E-2,-2.215434E-1,9.2880085E-2,-1.3973823E0,-4.5826417E-1,-5.889461E-1,-1.1738523E0,-3.531022E-1,6.6941553E-1,4.350552E-1,1.1494594E0,2.7135834E-1,-2.4302185E-2,7.579119E-1,3.884298E-1,3.0429915E-1,1.0757058E0,-2.4868557E-1,5.1186424E-1,8.431865E-1,-3.416924E-1,1.5618656E0,5.681471E-1,-1.152529E0,-1.4293718E-1,-7.5934565E-1,-1.2148249E0,-6.3180405E-1,5.233946E-1,-1.6063335E0,-7.525206E-1,-4.1879576E-1,-1.3420852E0,-9.654357E-1,2.1712272E-1,6.308132E-1,-6.9783986E-1,-6.310372E-1,9.13618E-1,-6.2989473E-1,4.6674567E-1,-2.4804583E-1,-7.039304E-1,-3.498224E-1,4.5297405E-1,-2.0568585E-1,5.059776E-1,-1.029038E0,-7.606054E-2,-6.473759E-1,2.6665613E-1,-7.9892206E-1,-2.6269358E-1,-6.24876E-1,5.218751E-1,-1.10813774E-1,-1.0279278E0,7.560691E-1,1.5226826E-1,-4.5698383E-1,2.1614656E-1,-5.178061E-1,6.377238E-1,9.850724E-1,-2.7270997E-1,8.253125E-1,4.1860495E-2,-3.3477384E-1,2.6333648E-1,7.125664E-1,-5.0683075E-1,3.311711E-1,1.4290044E0,9.743979E-2,-1.3613122E0,9.554123E-1,-5.527833E-1,-1.2307137E-1,9.989139E-1,1.314869E0,9.753666E-1,-6.912623E-1,6.5216136E-1,-3.3982614E-1,8.178501E-1,1.4334675E0,9.407944E-1,1.589094E0,8.8320595E-1,1.1012934E0,1.3038957E-1,1.1159658E0,2.5301052E-2,-4.865858E-2,4.6864057E-1,6.536347E-1,-2.9307333E-1,6.393231E-1,-2.8912032E-1,-3.350317E-1,8.099445E-1,-8.2698673E-1,1.7268069E-1,1.0870801E0,-1.3987434E-1,9.6686316E-1,2.753027E-1,-9.110246E-2,-8.7417537E-1,7.185137E-1,4.6927787E-2,-4.4248855E-1,-1.0673757E0,-1.5307947E0,-4.702596E-1,5.42314E-1,-1.3466644E0,9.4617313E-1,2.285485E-1,4.5392317E-1,-4.017982E-1,6.0686356E-1,1.5864248E0,4.2193645E-1,7.115175E-2,-1.1510622E-1,1.0822897E0,7.9631263E-1,-2.2906852E-1,2.4101493E-1,9.8159325E-1,7.142734E-1,-6.619006E-1,1.2056735E0,3.3869395E-1,-9.2287594E-1,1.7814627E-1,1.3409411E0,3.2154664E-1,8.6803854E-1,-1.7077555E-1,5.725304E-1,-1.1507248E0,6.817287E-1,1.640365E0,-6.866199E-3,-1.164597E0,-9.785445E-1,6.736863E-1,-5.952428E-1,-1.2298089E0,-1.2873981E0,5.1581496E-1,8.388894E-2,-8.487515E-1,-3.402826E-1,1.3638595E0,-1.6206927E0,-7.7017075E-1,-1.3828468E0,-7.6414406E-1,-4.7770697E-1,-1.0144836E0,7.779025E-1,-6.420189E-1,1.0010868E0,6.9528475E-2,-4.219038E-1,3.6023778E-1,-7.371671E-1,-5.9807308E-2,-7.2749925E-1,-2.8954613E-1,-8.205297E-1,8.4371936E-1,1.0223685E-1,-4.246109E-1,-5.890567E-2,1.1153836E0,-1.1073004E0,-5.920559E-1,-1.0560577E0,-7.035612E-2,-1.084575E0,-2.3770052E-1,2.0079923E-1,-4.2299452E-1,-9.0314263E-1,-1.1115935E-1,1.0903672E0,2.5840113E-2,-9.734113E-2,-1.3676891E0,-1.3137403E-1,-1.4050122E0,-1.5884625E-2,1.1205099E0,-2.768906E-1,4.8309708E-1,-6.32763E-1,7.51848E-1,1.1508264E-1,4.8234951E-1,-8.1705433E-1,6.984915E-3,1.0978411E0,1.7948481E-1,1.1819701E0,2.0067245E-1,